<?xml version="1.0"?>
<opencv_storage>
<opencv_ml_ann_mlp>
  <format>3</format>
  <layer_sizes>
    108 68 34</layer_sizes>
  <activation_function>SIGMOID_SYM</activation_function>
  <f_param1>1.</f_param1>
  <f_param2>1.</f_param2>
  <min_val>-9.4999999999999996e-01</min_val>
  <max_val>9.4999999999999996e-01</max_val>
  <min_val1>-9.7999999999999998e-01</min_val1>
  <max_val1>9.7999999999999998e-01</max_val1>
  <training_params>
    <train_method>BACKPROP</train_method>
    <dw_scale>1.0000000000000001e-01</dw_scale>
    <moment_scale>0.</moment_scale>
    <term_criteria>
      <iterations>30000</iterations></term_criteria></training_params>
  <input_scale>
    8.1082482385803267e+00 -1.9902613451784059e+00
    8.6363533045768381e+00 -6.6722907007692900e-01
    7.9756221638671816e+00 -1.8464213838832082e+00
    7.1464111308355651e+00 -1.7322077989034790e+00
    1.9624513477185346e+01 -7.4837618201484923e-01
    7.4370959911526082e+00 -1.7500593003691745e+00
    1.2194051375449353e+01 -4.4893201696611298e+00
    7.5578355853226569e+00 -1.6775408263873073e+00
    1.0814012637113384e+01 -3.7777290760308522e+00
    1.0213242014454220e+01 -3.6618584897199802e+00
    8.0969209652400114e+00 -1.5495719794468088e+00
    9.7751504955022526e+00 -3.4449609909262020e+00
    7.5257402578003623e+00 -1.6484451363224972e+00
    1.6493186449561321e+01 -6.8695352473184723e-01
    7.0124732191886148e+00 -1.6026070110531043e+00
    6.8825569766806529e+00 -1.5545153235985698e+00
    1.0626316313419963e+01 -6.6060703528263032e-01
    7.6306480231094174e+00 -1.7073824380162865e+00
    1.1845571306257542e+01 -4.4114548783837488e+00
    7.2779253859706836e+00 -1.4118267333832102e+00
    1.1103881540807786e+01 -3.9756042348750329e+00
    8.1263852646102244e+00 -2.8246099904929776e+00
    6.4862573429747421e+00 -1.4498097613138143e+00
    1.3846808265457998e+01 -5.2783116176842286e+00
    7.5149905736096612e+00 -1.7314148836457544e+00
    1.4206414225595994e+01 -6.8180105125146950e-01
    7.3972253716767247e+00 -1.5526672274602358e+00
    8.2411771181049449e+00 -2.0204056739193170e+00
    1.2354056069284933e+01 -8.8369439659681348e-01
    7.8964496522663108e+00 -2.0595672987764826e+00
    1.2712270113680985e+01 -4.6083454171070288e+00
    7.2434271980426530e+00 -1.2461929302270092e+00
    1.3244471394347176e+01 -4.7461502108228002e+00
    1.2786639025790553e+01 -4.7028734210745382e+00
    7.5558236452848782e+00 -1.8611686501019693e+00
    1.6282630063834347e+01 -6.1104373596579258e+00
    1.5941006983789272e+01 -4.9206285174732942e+00
    8.7969113285792471e+00 -2.1246276491585880e+00
    1.1147225803075202e+01 -2.8828929638293026e+00
    1.8399876287164378e+01 -5.7530408822426189e+00
    8.8597069667865842e+00 -1.8410388883948112e+00
    1.3586642153499911e+01 -4.0149047608362407e+00
    1.1374187844249088e+01 -3.2172817976235271e+00
    9.0661493780014393e+00 -2.2348091780926693e+00
    1.0670801743692431e+01 -3.0125457734501238e+00
    1.0521802456224698e+01 -3.0285625677187458e+00
    9.0886787317025792e+00 -2.0519783081020080e+00
    1.5359215104552691e+01 -4.6970120676697364e+00
    1.0687395159512453e+01 -3.0260550424621888e+00
    7.6022540525698554e+00 -1.5583758334206546e+00
    1.2157499875979410e+01 -3.4436436961274475e+00
    1.0109822328916948e+01 -2.9755931391802437e+00
    7.7122239727921116e+00 -1.6543273858648522e+00
    1.2282628686757292e+01 -3.5564800404864152e+00
    9.8234358509014843e+00 -2.7449960217519549e+00
    7.9647990993759601e+00 -1.7491334669074816e+00
    1.2452743159810328e+01 -3.6622103033741653e+00
    1.3547726140977723e+01 -4.1778350439406715e+00
    7.9907890614971127e+00 -1.7983607327944542e+00
    1.2618365552422377e+01 -3.8470266811289533e+00
    1.2448627658251850e+01 -3.7207591949434158e+00
    9.1982781358272767e+00 -1.6783881647800059e+00
    1.5010159745027130e+01 -4.4374126705376149e+00
    1.3724058006851370e+01 -4.0789501581116667e+00
    8.1632565344381920e+00 -1.9955507814799163e+00
    1.4889904902723627e+01 -4.5408303306862461e+00
    1.5696629306470189e+01 -4.9336894108918017e+00
    9.4138098586870171e+00 -1.7336087517987200e+00
    1.2025441785630058e+01 -3.5026200260901033e+00
    1.3700837426065492e+01 -4.2048074379708069e+00
    8.4061205779929260e+00 -2.1097299981900806e+00
    1.1659427482404366e+01 -3.1753507612740477e+00
    1.1534677255103759e+01 -4.1626624453844494e+00
    7.7804230832237593e+00 -1.7829690512207608e+00
    1.0532035436851551e+01 -3.6895025362209801e+00
    9.0156353015890485e+00 -3.0577416318903889e+00
    7.2924210361289417e+00 -1.5053991263581747e+00
    1.2440062464609625e+01 -4.5960594366662759e+00
    8.3666403283423882e+00 -2.0539378189693269e+00
    1.0609456499300888e+01 -8.5600840583419391e-01
    7.9463562812029371e+00 -1.8603107489487811e+00
    7.2399727477777889e+00 -1.6193621274207144e+00
    1.3897793543449369e+01 -8.4970756504300582e-01
    7.9422839287024933e+00 -1.8289218991334451e+00
    7.9181270743912995e+00 -2.6107796425541978e+00
    7.5586920337735037e+00 -1.5589685054558022e+00
    1.1210572994529745e+01 -4.1072567526944619e+00
    1.2662404257358048e+01 -4.7423237640588765e+00
    8.2275932970011141e+00 -1.5507393133665459e+00
    1.0626278749292497e+01 -3.8029493841213662e+00
    7.3739799878669352e+00 -1.6102044868225271e+00
    1.5363454886878927e+01 -8.8355373681975702e-01
    8.4829074497718508e+00 -1.9784281591389694e+00
    8.4016943387480527e+00 -2.1301825182093554e+00
    1.3311396593076815e+01 -7.9900174921845146e-01
    7.2058710972386733e+00 -1.8643463199755610e+00
    1.0291747463187470e+01 -3.8470772664675903e+00
    7.3524699681428851e+00 -1.1813471698278992e+00
    8.9890878241078696e+00 -3.1100706358839636e+00
    1.0576876132690815e+01 -3.8231441266061506e+00
    8.1501516992417926e+00 -1.8730851654438325e+00
    9.6622865847839421e+00 -3.3092264996706593e+00
    7.3705199457224122e+00 -1.8340783460259438e+00
    1.5050790515191178e+01 -7.3912489613136001e-01
    7.4009056930233088e+00 -1.7502710998759801e+00
    7.7265655959530362e+00 -1.9767474546239667e+00
    9.3888055252248215e+00 -8.1305128322891074e-01
    7.3633478197901781e+00 -1.7127830026989233e+00</input_scale>
  <output_scale>
    5.2631578947368418e-01 4.9999999999999994e-01 5.2631578947368418e-01
    4.9999999999999994e-01 5.2631578947368418e-01 4.9999999999999994e-01
    5.2631578947368418e-01 4.9999999999999994e-01 5.2631578947368418e-01
    4.9999999999999994e-01 5.2631578947368418e-01 4.9999999999999994e-01
    5.2631578947368418e-01 4.9999999999999994e-01 5.2631578947368418e-01
    4.9999999999999994e-01 5.2631578947368418e-01 4.9999999999999994e-01
    5.2631578947368418e-01 4.9999999999999994e-01 5.2631578947368418e-01
    4.9999999999999994e-01 5.2631578947368418e-01 4.9999999999999994e-01
    5.2631578947368418e-01 4.9999999999999994e-01 5.2631578947368418e-01
    4.9999999999999994e-01 5.2631578947368418e-01 4.9999999999999994e-01
    5.2631578947368418e-01 4.9999999999999994e-01 5.2631578947368418e-01
    4.9999999999999994e-01 5.2631578947368418e-01 4.9999999999999994e-01
    5.2631578947368418e-01 4.9999999999999994e-01 5.2631578947368418e-01
    4.9999999999999994e-01 5.2631578947368418e-01 4.9999999999999994e-01
    5.2631578947368418e-01 4.9999999999999994e-01 5.2631578947368418e-01
    4.9999999999999994e-01 5.2631578947368418e-01 4.9999999999999994e-01
    5.2631578947368418e-01 4.9999999999999994e-01 5.2631578947368418e-01
    4.9999999999999994e-01 5.2631578947368418e-01 4.9999999999999994e-01
    5.2631578947368418e-01 4.9999999999999994e-01 5.2631578947368418e-01
    4.9999999999999994e-01 5.2631578947368418e-01 4.9999999999999994e-01
    5.2631578947368418e-01 4.9999999999999994e-01 5.2631578947368418e-01
    4.9999999999999994e-01 5.2631578947368418e-01 4.9999999999999994e-01
    5.2631578947368418e-01 4.9999999999999994e-01</output_scale>
  <inv_output_scale>
    1.8999999999999999e+00 -9.4999999999999996e-01
    1.8999999999999999e+00 -9.4999999999999996e-01
    1.8999999999999999e+00 -9.4999999999999996e-01
    1.8999999999999999e+00 -9.4999999999999996e-01
    1.8999999999999999e+00 -9.4999999999999996e-01
    1.8999999999999999e+00 -9.4999999999999996e-01
    1.8999999999999999e+00 -9.4999999999999996e-01
    1.8999999999999999e+00 -9.4999999999999996e-01
    1.8999999999999999e+00 -9.4999999999999996e-01
    1.8999999999999999e+00 -9.4999999999999996e-01
    1.8999999999999999e+00 -9.4999999999999996e-01
    1.8999999999999999e+00 -9.4999999999999996e-01
    1.8999999999999999e+00 -9.4999999999999996e-01
    1.8999999999999999e+00 -9.4999999999999996e-01
    1.8999999999999999e+00 -9.4999999999999996e-01
    1.8999999999999999e+00 -9.4999999999999996e-01
    1.8999999999999999e+00 -9.4999999999999996e-01
    1.8999999999999999e+00 -9.4999999999999996e-01
    1.8999999999999999e+00 -9.4999999999999996e-01
    1.8999999999999999e+00 -9.4999999999999996e-01
    1.8999999999999999e+00 -9.4999999999999996e-01
    1.8999999999999999e+00 -9.4999999999999996e-01
    1.8999999999999999e+00 -9.4999999999999996e-01
    1.8999999999999999e+00 -9.4999999999999996e-01
    1.8999999999999999e+00 -9.4999999999999996e-01
    1.8999999999999999e+00 -9.4999999999999996e-01
    1.8999999999999999e+00 -9.4999999999999996e-01
    1.8999999999999999e+00 -9.4999999999999996e-01
    1.8999999999999999e+00 -9.4999999999999996e-01
    1.8999999999999999e+00 -9.4999999999999996e-01
    1.8999999999999999e+00 -9.4999999999999996e-01
    1.8999999999999999e+00 -9.4999999999999996e-01
    1.8999999999999999e+00 -9.4999999999999996e-01
    1.8999999999999999e+00 -9.4999999999999996e-01</inv_output_scale>
  <weights>
    <_>
      -4.4466021738583696e-02 1.7036904121299190e+00
      1.1865436178419682e+00 2.8353137929843637e+00
      3.3164881256772429e+00 3.4606184562517170e+00
      -1.5787529739585342e+00 1.8469725840320113e+00
      -7.0713761151672783e-01 -4.3776953954981501e-01
      3.8571434071894184e-01 6.3749710835939422e-01
      1.1864500610709132e+00 6.3039407485428745e-01
      -2.1055905384648779e+00 -5.1411598838375938e-01
      -1.8002145205266129e+00 5.4391160420492735e-01
      -1.2827855576330931e+00 2.2604809058497080e+00
      -8.8818112162221741e-01 -3.2520306738025129e-01
      -1.6700647764975478e+00 6.4222122698613626e-01
      3.2825294035590806e+00 -1.1876909813005585e+00
      2.3856644918136665e+00 -1.0021174419502907e+00
      9.6168624108483369e-01 6.4265572743131949e-01
      1.1121769452367518e+00 1.2582575577745216e+00
      1.5819093914415638e+00 2.5526093365752116e+00
      4.0690257707839033e+00 1.6400430717862771e+00
      1.4590337021400690e-01 1.2756537503202754e+00
      -3.2387034894870770e-01 -9.3652872634975570e-01
      1.2292637238181445e+00 2.3976686144262942e+00
      1.1257502130555992e+00 2.8279836017026456e+00
      5.7890911937121086e+00 -1.1148288866410047e-02
      3.0034099216432217e+00 7.8526004406783589e-02
      -6.2908932089878256e-01 2.1747125004614265e+00
      -3.9255616874445725e+00 2.3817257353920387e+00
      -4.6185747910227792e-01 3.8827474815484542e-01
      9.8518165892899676e-02 -8.8438291924562584e-01
      1.1755837264720725e+00 2.3315886574300491e+00
      -3.0262082984068386e-03 -5.1798567909351612e-01
      1.4711138563368498e+00 5.1864848706651900e-01
      1.1302828276698447e+00 4.6919340057271514e-01
      -6.1881582034867644e-01 -2.7637163342889730e+00
      -1.0303654207874564e+00 -1.1590120567558746e+00
      -6.5921608668641662e-01 1.7575905627797113e+00
      -2.2563782828864473e-01 2.8603200769987686e-01
      5.4152797914971651e-01 -3.0649653016800698e+00
      2.1237970707002880e+00 -5.1395184892406243e-01
      6.1453128647987776e-01 -1.4540680014263643e+00
      1.2422965866226940e+00 -2.2375964902610810e+00
      6.7920999432925289e-02 6.6041842984700050e-01
      -3.1063185226438556e-01 -2.0194571752275156e-01
      2.4178787088808806e+00 4.4719078210938089e-02
      -1.7687995989066818e+00 3.5477102113746497e+00
      1.5095359982734573e+00 2.3450083294758456e-01
      -2.4656301134635341e+00 2.7228045420001625e+00
      1.7792880632503276e+00 2.7564024192396510e+00
      -2.3730964025500542e-01 -2.4518504160875105e-02
      -1.5986349224741079e+00 2.6544031048942979e-01
      -1.2260601720720308e+00 -6.2943440472177092e-01
      3.0134292172866217e-01 -1.7215572143422402e+00
      3.8432881063243314e+00 -3.1674699676768925e-01
      6.6671867048132094e-01 2.9388243482747264e-02
      -1.3555573716309595e+00 -4.7966547984561964e-01
      -2.2028145712259736e-01 -3.2741911693163184e-01
      -2.9204570971354621e-01 -1.3247785663858669e+00
      2.9030704861522860e+00 -2.5887239190384306e+00
      2.7520840651372880e+00 2.1101774067129302e+00
      -6.1848167674842403e-01 -1.5536707303067914e+00
      -2.2472291641871919e-01 3.3123058910233955e-01
      -1.3125877396317522e+00 -1.9756914893033082e+00
      -2.7105750808004936e-01 2.6583843870433305e-01
      -3.6027119646223378e+00 -3.8692834826134495e+00
      -9.2252382146599177e-01 6.4967071055879189e-01
      -6.5475099480639753e-01 -1.4494469076214325e+00
      1.6361996694003873e+00 7.4078282335504497e-01
      -3.0650553116934859e-01 5.0612650173500573e-01
      1.5721024167965711e+00 -1.7161212089734823e+00
      -3.0076458007326106e+00 9.8071607163774477e-01
      -6.0626650442629182e-01 1.6484791712599295e-01
      -5.2405104790833708e+00 2.8335939209260936e+00
      1.6065394445323713e+00 -2.2312620960712883e+00
      5.7813286634579732e+00 9.4235535639669188e-01
      6.3067431171988497e-01 -1.8014072071091352e+00
      1.9591108643265975e-01 -1.7514470915472766e+00
      -1.0611283098686808e+00 1.4681604816387452e+00
      1.1750869023328008e+00 1.0014821805798819e+00
      -1.3991760950650729e+00 -2.3421317553052194e+00
      3.1377009246746610e+00 6.5130248050063855e-01
      -2.0561906389450699e-02 -1.5633420440629948e+00
      -1.4221191237401401e-01 3.5032298685358992e-01
      -5.1628769952623643e-01 2.6471727483360765e+00
      4.0375810756146113e-01 1.4213428493166393e+00
      1.7342885454639387e-01 1.1355186065172987e-01
      -8.0279746675360275e-01 1.9953825243584575e+00
      -7.1064035970000328e+00 8.3477716811383129e-01
      1.2535297665682976e+00 -1.5977138636303674e+00
      -7.1581973003513710e-02 1.4309660009103586e-01
      -2.9698583335693352e+00 4.5365102368262655e-01
      -1.3341896191545011e+00 3.1598356747198225e-01
      -1.0407815550539560e+01 -2.7084158462219166e-01
      -7.9557377109421368e-01 3.8646366788136899e-01
      -2.8129838521871631e+00 3.2513170773211159e-01
      -5.8507732843012195e-01 -2.3768356009982976e+00
      -1.8634372471361633e+00 2.2765430399334878e+00
      1.4542268419279485e+00 -6.6376573337038758e-01
      6.4258859515558531e-01 1.1127656109246635e+00
      -1.5517973139621561e+00 2.7028717503284444e-01
      1.7694248708983358e+00 -2.0732676589236254e+00
      1.7550499716245791e+00 1.8029522539334857e+00
      8.3915758276330643e-01 -5.4608187639312400e-01
      2.4689620964127781e+00 1.5821317272321915e+00
      1.8230102096716823e+00 -2.4018857100744123e-03
      -2.0268740567333583e+00 2.0061418429181921e+00
      7.8146099111587175e-01 -3.8581695529825710e-01
      1.0845430335943851e-01 1.4609864252170832e+00
      1.1506473638791450e+00 2.4899353383701686e-01
      1.8495544588690285e-01 -1.1315002895795934e+00
      -1.1261264269748308e-01 2.7805114479205972e-01
      -2.4867111707225975e+00 -1.1786470895799541e+00
      2.0802717971955717e-01 -1.0598880234659449e+00
      1.3288616031804423e+00 -2.2693809853633820e+00
      -9.1779736113753130e-01 -1.1673494049447448e+00
      -1.5414952808041635e+00 -1.6608404695619345e+00
      3.8371323813221476e+00 9.4828505775737648e-01
      7.0846952433921684e-01 2.3323817766249880e-01
      -6.8047610116587964e-01 -7.1206450364153495e-01
      1.0373339485533735e+00 -1.8133456745310670e+00
      2.3265129138357357e-01 5.8707460472296902e-01
      5.4460737605186305e-01 6.6794488226900384e-01
      1.3080575029473103e+00 1.5779148933401945e+00
      3.0569338223459835e-01 4.9920701904597470e-01
      7.0476491846841807e-02 -9.8764833334800306e-01
      6.4042055510185381e-01 -2.0181050727413821e+00
      9.8440214830910455e-01 1.0382464717382036e+00
      -2.6257901751022286e+00 -1.1438348651723704e+00
      7.0026712744911546e-01 1.7612493985759086e+00
      2.8909215468461613e+00 -9.5191063314168445e-01
      -3.2144271353780957e-01 1.3279165810814362e+00
      -1.2251544446426730e+00 -8.6995008535159568e-01
      1.4601356270515418e+00 -1.7766823592195173e+00
      2.0226849259342736e-01 -1.8661817195457882e+00
      -1.8957266416781282e+00 -2.7806937991636800e+00
      -1.1894766843690709e+00 9.4721106774213595e-02
      1.1998324040068348e-01 3.8423361360816893e-01
      -2.7204391480726420e-01 -7.4076323885678330e-01
      -6.0864979422150434e-01 -4.3299712400257495e-01
      8.1317406626510347e-01 -2.9234470313743882e-01
      -1.3981181231671995e+00 -1.1695072564826794e+00
      6.4542492033334598e-01 4.8061873678990030e-01
      4.7762229981588283e-01 1.1754804866024560e+00
      -6.8260321402833335e-02 -9.6784639760926605e-01
      1.0678817622718721e+00 -1.8571362864131011e+00
      5.8796625297239291e-01 2.8392704808186003e-01
      -3.3169083786673037e-01 -1.7312239201547637e+00
      2.7322590342815278e-01 -6.1021803071562875e-01
      -9.6749378965991686e-02 -4.8726350120937706e-02
      -3.3761123486446937e-01 -2.4187888900042731e+00
      -5.1954416962819749e-01 -1.7268794933153393e+00
      -7.8622024295472784e-02 -2.1944997176204595e-03
      1.5990324840784571e+00 -5.1038359057413807e-01
      1.0897783903905676e+00 2.7997842448502325e-01
      1.0006094081851249e+00 -1.5419029803496411e+00
      -8.8203597181662585e-01 3.2599206612519704e-01
      3.5050964438259019e-01 1.9473460497256723e-01
      5.2084594185401401e-01 5.9989939472208220e-01
      -1.4100937009905204e-01 -3.0416277337479941e-01
      1.3548325418104836e+00 3.7217236830522282e-01
      -3.8730533992113632e+00 -1.1251668820624802e-01
      -1.2547122528993409e+00 -1.6999412801601490e+00
      -1.0521069645598009e+00 1.5284780136309573e+00
      5.8020344308813077e-01 7.5754937054125004e-01
      2.8895538334335713e-01 9.5418889579628119e-01
      1.3203023359152768e-01 1.0090097535675566e-01
      1.9027378413825566e-01 -1.6797197635529133e+00
      4.2306197588508225e-02 -4.8390542704832357e-01
      8.6599228144812343e-02 7.3930306916746646e-01
      -1.6918430193740516e-01 -2.6485576801696820e-01
      1.0657034735368072e-01 5.5968627698765938e-01
      1.0524876573335225e+00 -6.7147887164727016e-01
      5.3894475858141933e-01 -9.6426001919525713e-03
      -9.0984103815891237e-01 -1.6610615471866874e+00
      3.7688228751111739e+00 4.3456474164069192e+00
      -3.0832969997748210e+00 2.8427093750646515e-01
      -1.1249292518559357e+00 -6.2277186479194035e-01
      6.9699354259629276e-01 -2.7491837402626746e-02
      1.4269479819338555e+00 -1.5468886065447303e+00
      -2.0219156798637359e+00 4.2053321456160186e-01
      -3.7442502580288677e+00 3.4365948099708182e-01
      -1.2198629636472289e-02 -7.0107391123460552e-02
      -1.5609256502902868e-01 -2.6245052505809268e+00
      1.0791708637094739e+00 9.1749904175938046e-01
      -1.7133793534400541e+00 -1.5338218057645929e+00
      -1.1259118830073991e+00 -7.7364093132300171e-01
      -1.4516900568885460e+00 3.5071842389426866e+00
      8.3083891852488101e-01 2.1539380793590029e-01
      -8.2103272307101116e-01 3.4273974326930281e+00
      3.3825799251059800e+00 9.2628217442797334e-01
      -1.2189233904387597e+00 2.2634682214086790e+00
      -1.7717128605624599e-01 1.7534354846366249e-01
      3.7362316556218720e+00 1.0653816320231200e+00
      -8.9944696699684512e-01 2.0662365052496816e+00
      5.3525494206234034e+00 1.4808338300650912e+00
      2.1319170048840337e+00 3.4186652660361055e-01
      1.5802559913283772e-02 3.7899115268808387e-01
      -3.1312402301598015e+00 5.3142657962187101e-01
      -5.3147998280829656e-01 -9.2683246362018634e-01
      -3.8184881160663164e-01 -2.4746112253267305e+00
      1.6939927172770792e+00 3.8725154907413328e+00
      1.0276911938546591e+00 -1.0160580668885727e-01
      1.0245892171038899e+00 1.9468021558460982e-01
      1.6012757836727103e+00 -2.5219302840902308e-01
      -1.5039080453357068e+00 1.7793708605000247e+00
      -2.2833996069428752e-01 -1.2129646996389241e+00
      1.1530253518336393e+00 -1.8351992348078048e+00
      -6.4352565367986003e-01 -1.3985821975712029e-01
      5.3048437701940354e-01 2.9491793098999195e+00
      -4.0673221096278134e-01 -1.1435699947172655e+00
      -1.2698350914540077e+00 3.2968648239797116e-02
      -7.7784256217071712e-01 -3.1703420071302925e-02
      -2.3624068158332442e-01 -7.6329104791020463e-01
      -8.3966830895846489e-01 -1.3497374777261948e+00
      -3.2292325028394147e+00 3.0635714490029653e-01
      1.7048337865623946e+00 -1.0977243811692821e+00
      -5.3469000883425329e-03 -1.5259246593924014e+00
      1.6358003414025180e-01 -5.1682945362668015e-02
      1.7718611834102346e-01 -4.0120752529888315e-01
      -2.9987809527372505e-01 -1.8737074182350055e+00
      -5.3691514015045949e-01 1.3587539251937883e+00
      6.9779882321351894e-01 7.9082648068442429e-01
      -5.3871895579777029e-01 -2.4396219702888944e-01
      -1.1327416120369629e+00 9.3288695267277633e-01
      -1.0200184425012948e+00 1.1355507559631575e+00
      1.1891678419523757e+00 1.9402026972445557e-01
      2.7482969651463187e+00 1.0371557227662414e+00
      8.5682758394550005e-03 8.9469330765574218e-01
      2.3716669127862566e-01 9.4497783298198601e-01
      3.5342469405759019e-01 2.3476663951040527e-01
      -5.5418219908860167e-01 4.3103665690534998e-01
      -4.8486809254628040e+00 1.0839017276067606e+00
      1.1553162094885427e+00 3.7568100894029239e+00
      1.4851924622725776e+00 -5.3603837999854598e-01
      2.1114224801276938e-02 -6.0452676076869560e-01
      9.4510291758440768e-01 -2.3491166305497386e+00
      -7.8424089787205081e-02 -8.0855312323643425e-01
      -8.2605989203656605e-01 -3.1152762513097043e-01
      4.8948936460723097e-01 2.7275576932420381e-01
      -7.7511728905667210e-01 -1.9430730762878279e+00
      7.1351955499146325e-01 9.5075235484947218e-01
      -5.8368550589937354e-02 1.4606208413372370e+00
      -6.6695976951277647e-01 2.5203881111281485e+00
      1.0970152994856972e+00 2.4287957198906649e+00
      7.3420590196605029e-01 5.0267447839982060e-01
      -7.3754640137862115e-01 -6.6864364450781769e-02
      7.1255332187085041e-01 2.3114033249846516e-01
      8.4757944840643207e-01 7.5468786784062303e-01
      4.9685233665965486e-02 -1.1489510330054340e+00
      -1.2568291141287075e-01 -9.8577260158588564e-01
      4.9057498315495118e-01 1.4695160710752189e+00
      -1.4208193708613295e+00 -1.3615239080220956e+00
      2.6350554460723594e+00 7.0942369293950036e-01
      1.0920087883653320e+00 1.6224927910542017e+00
      -7.6427844459104355e-01 -2.2293814000162611e+00
      2.9675875783490158e-01 -8.9548692606046185e-02
      1.5168977448078815e+00 -1.0695120471400661e+00
      5.2278588666642622e-01 -1.2782321435260677e+00
      1.9709840179573397e+00 -8.2000305392565453e-01
      -6.3373224711748921e-01 -3.4195483743951932e-01
      -1.4218748516521369e+00 4.9447336376035939e-01
      -4.2651650234133331e-01 1.1555351223279119e-01
      8.1479092814260534e-01 -3.2624142845643780e+00
      7.8053249940079922e-02 -4.6958468232249839e-01
      -6.2912193148436135e-01 8.0490201567165498e-01
      -5.5201494929863287e-02 -1.3480022384095514e-01
      -9.8991098890912876e-01 -1.2679497204692562e+00
      -9.4077874085030377e-01 -1.5096938307598493e+00
      1.9482184292718037e+00 -1.1387399160142608e+00
      -4.4922950243621096e-01 -1.9862889892855157e-01
      6.1908172195499067e-01 -2.1843138479534530e-01
      2.3224786776900003e-01 -9.1245095643312868e-01
      8.2237791709606567e-01 -1.4372788813512907e+00
      -1.6691954151700330e+00 -5.9296235826551513e-01
      3.4029425943114443e-02 8.1089696308949233e-01
      4.8340322781534556e-01 -4.6827295063894997e-01
      1.4047547247450893e+00 1.6584403036414055e+00
      -1.0184440816352014e+00 -2.0393326776949356e+00
      1.1008974905889855e-01 3.8064435276977648e-01
      6.5411674586933721e-01 -5.8983110660768123e-01
      -1.3991691150700165e+00 -6.6582674001062692e-01
      -2.9582335893904799e+00 2.5948236486224924e-02
      -1.8950728266709194e+00 -1.4427800840874714e+00
      -2.6079495184185952e+00 2.5045462911760876e+00
      2.8341362731733017e+00 -2.2821211377935620e+00
      -1.2249489592398641e+00 7.7924050625608721e-01
      6.0464330483780604e-01 -6.7965447443850302e-01
      1.4283531474116997e+00 1.6881626539689301e-01
      -5.4616218698667840e-01 5.4131076558708413e-01
      -5.3978987924524557e-01 1.8108775710837972e+00
      -6.6996600803198603e-01 6.7712579350996518e-02
      2.7191912646004868e-01 3.1079711511510705e-01
      -1.2434029048512449e+00 2.3233069342407013e+00
      1.3326603797463037e+00 -6.4136010491214246e-01
      8.7923331539423588e-01 1.1881682507014923e+00
      1.8172988279841122e+00 1.6366005547274434e+00
      -1.2501194366439659e+00 -1.2067077652894989e+00
      1.0640030071960853e+00 -1.7401204157614195e-01
      4.6503891340424147e-01 1.4941404864886876e-01
      -1.3287828510840278e+00 -3.7046569144864866e-01
      -9.2387339094318588e-01 -1.0350647081155064e+00
      1.7983627674598364e+00 -1.3218874419042276e-01
      -1.3725648284242201e-01 -8.0081427250775228e-01
      -3.6366649369996268e-01 1.0548256096562936e+00
      -7.4847791367136551e-01 2.3361136533218998e+00
      1.3820217285570595e+00 -6.2233031416139090e-02
      -3.0097010355881322e+00 -3.5013822990570564e-01
      2.1139128140805249e-01 -1.8852498023603135e+00
      3.4424574223908261e-01 -1.3769667385954238e+00
      -1.1414168065536023e+00 1.5120418259479643e-01
      1.2866387961719961e+00 4.5383105838077231e+00
      -1.8073291250134207e+00 7.5207452054512486e-02
      1.6846310603602033e+00 1.3015219735621291e+00
      -5.1062208482173910e-01 -4.9020250089491185e-01
      -1.3865192175123819e+00 -8.1910830952169211e-01
      -5.7766309493455359e-01 -7.1011537197679231e-01
      -8.7471306381025948e-01 -1.1077839441021367e-01
      -5.6070681100969899e-01 -1.8966809245273339e+00
      -1.3461484920961331e+00 9.1735341040148233e-03
      2.4564796696020952e-01 -2.0293077969898623e+00
      -9.6941483161805864e-01 1.4999296905295441e+00
      1.1238314720226736e+00 1.5588346863300488e+00
      -4.1222894093277118e-01 8.2151661711980917e-01
      -7.1820038870435210e-01 7.9130978558115905e-01
      -3.3277187612651526e-01 1.6797052851261485e+00
      -3.5209954240221680e-01 2.0703512403818705e+00
      -1.3573332232683495e+00 7.6491031643403018e-01
      4.1821424210869196e-01 3.1007888664749184e-01
      6.5729519667709690e-01 -5.0911122235205375e-01
      8.0709790939628845e-01 6.6406085577907475e-02
      1.3324739964482804e+00 1.0574603945261127e+00
      6.3653070368605547e-01 1.4426632613271626e+00
      2.0907182709140656e-01 2.0847074856113781e-01
      -5.0264645857784707e-01 3.1898365893119512e-01
      7.7842842901820775e-01 1.5865319118138113e+00
      1.3955001261351976e+00 -5.9073647549985997e-01
      -1.2023242010554507e+00 9.4612043555841652e-01
      9.4223794412739992e-01 -1.1028957061665521e+00
      -4.7741991305402709e-01 -1.2970795409189897e+00
      1.1506467331148609e+00 -1.1178699570193826e+00
      -1.9609087676448947e-01 -1.0286976696844807e+00
      -1.5089362228364998e+00 -2.0307776734875613e-01
      2.7819669472455977e-01 -1.3037832720331901e+00
      8.0685207369766221e-01 -1.8576358444841676e-01
      -5.4999508916261763e-01 4.1452314395406320e-01
      -3.1233380645439462e-01 -5.8841394660072766e-01
      -6.5703296273553535e-01 8.0518973004257155e-01
      -3.4307686254945535e-01 -8.6780715573433498e-01
      -1.4764710235714045e+00 5.7871401588478133e-01
      -2.2056367056372626e+00 -8.4511114643351293e-01
      -2.3564795384273225e+00 -9.3487424255828219e-02
      2.7655521149950796e-01 2.1033031138857448e+00
      -2.4848841028486439e+00 8.2662393554405122e-01
      6.8927789879719803e-01 1.5383174329138256e+00
      8.5114923934989750e-01 6.8193603476130848e-01
      -2.4141253845710758e-01 1.9020745447378443e-01
      -1.3251523021723446e+00 -4.6711885503930428e-01
      -1.2314617809932866e+00 -5.2439245856196770e-01
      2.7550340177636817e-01 -7.6607868090902576e-01
      -3.0744443303396674e-01 1.1024037622339609e+00
      1.5253278195495235e-01 -4.0892985512487889e-01
      1.3846641185686452e+00 -1.7814156037643053e-01
      -7.2041131730816754e-01 4.6641668365846412e-01
      -2.1043911590975890e+00 6.0098682921416580e-01
      -1.3042958113275567e+00 1.9693748458332391e-01
      5.0406404893141288e-01 1.8797187592907467e+00
      5.8845405186912514e-01 1.5591654508040617e-01
      3.8186724722396936e-01 -5.9473724514501747e-01
      4.9159372181069090e-02 5.8539143360664136e-01
      6.8256580706861580e-01 -6.8080325417822152e-01
      -1.3764534186564690e+00 -2.5277789616561304e+00
      7.8758964327393888e-01 -9.2931305490208627e-01
      -8.1374625306224591e-01 -4.3643187508465542e-01
      6.4841698894619715e-01 -7.8456848290824810e-01
      -1.9955527956263960e-01 4.4149262991787469e-01
      8.0841805679221931e-02 3.0800096327897164e-01
      3.5332257111703796e-01 -1.1123500167678972e+00
      -1.2096389651377547e-01 1.7515632228197491e+00
      1.2734955312676082e+00 4.4025671962296267e+00
      1.1480688198573923e+00 -6.3598303348016949e-01
      -1.6266406110756042e+00 1.9835308784214565e+00
      -1.9962599976378166e+00 -1.3970204829067496e+00
      1.0776909085388182e+00 -1.5106029865974300e+00
      2.0051057791751839e-01 -1.3403077109533330e+00
      -1.8290150575725048e+00 8.1877421176086163e-01
      2.4719992018142576e+00 -1.9500877003056982e+00
      8.7527516472896494e-01 4.7818570043654796e-01
      1.8862825205999963e-02 -1.8894821851620351e+00
      -1.5237506297818506e+00 2.6803044910034851e-01
      5.4890189042708437e-01 -8.7825327658063745e-01
      8.0029993001019650e-01 -2.8362375535972634e-01
      2.4020527852443814e+00 -6.9652907882794779e-01
      -7.9503273542388064e-01 2.0778129323544028e-01
      -4.8617189798677185e-01 3.3983150012499772e+00
      9.5762461129862908e-01 2.9045637307576172e-01
      2.1963250731409922e+00 -1.4745097605384461e+00
      9.9987724400570688e-01 2.5146235183325407e+00
      -3.7301565239053386e-01 1.6767478612413265e+00
      7.8503016750714938e-01 1.6202705264130028e+00
      3.2593447746484411e-01 1.3979406665332634e+00
      2.5663457503850401e-01 1.8463034638485818e+00
      -2.1567788251279914e+00 1.7634021163349194e+00
      -9.5556522979461642e-02 1.2441213107211764e+00
      2.4080506783975819e+00 -6.8784190548948021e-01
      5.6601405014750616e-01 -4.9618833517763217e-01
      3.6562503879455061e-01 -7.9189980562315709e-01
      -8.7034280258120233e-01 -9.1499263713901868e-01
      1.7107873891560549e-01 -6.6695127535418541e-01
      1.8107562229990046e+00 -8.5974354567667621e-01
      4.5416419261588437e-01 -4.4668139601864532e-01
      3.5410522841970482e+00 -1.4166082926960446e+00
      1.9653258728233109e+00 1.3176717183872200e+00
      -5.8116065990299615e-01 1.8303432233351435e-01
      -6.1107658527574027e-01 2.7443043379060699e+00
      -1.5105871953221450e+00 -6.3172815049936193e-01
      -1.3293064155151854e-01 -6.6572645720752333e-01
      1.8451156944085825e+00 -1.1991017941223001e+00
      1.3079198546803956e+00 -1.6942845447739143e+00
      -8.7581555831425106e-01 -5.5027997329043521e-01
      3.1043827080059785e+00 -3.3358307941738050e+00
      -2.0521330317692779e+00 -5.4775516862038098e-01
      -1.3714179685422800e+00 -9.4517078589761605e-01
      -4.6853444781868703e-01 1.3643616388275530e+00
      1.1752884544055724e+00 1.2294071053255262e+00
      -7.8118477087293026e-01 -2.9152635684598555e-01
      -1.1123976393090310e-01 4.0626361271158284e+00
      -2.9532416920944944e+00 -2.0925561957533539e-01
      -2.0899840097362969e+00 1.3724775360163624e+00
      -1.3379955564315045e+00 -4.2097923896304495e-01
      -2.5654294167490715e-01 -1.0559535622868683e+00
      1.3822476158720902e+00 8.7057649971191309e-01
      -1.0264532958125874e-01 3.2733063685963526e-01
      -3.1944595308469470e+00 8.6947499370909020e-01
      -2.4199882370526997e+00 1.0487328642052307e+00
      2.5095629643131945e-01 -7.4471497075401039e-01
      -5.6340144021788952e-01 -7.1493310072848495e-02
      2.0588864623931431e+00 8.8594617171418055e-01
      -9.6149592342883422e-02 8.3844784122177729e-01
      2.3412657923719080e+00 -1.3365787855009936e+00
      -2.5112038485851760e+00 1.4810974194500726e+00
      5.6677041330558908e-01 -2.5901418985485356e+00
      -1.2215999386519185e+00 9.1750367841142308e-02
      1.1986082384815033e-01 -6.1852540151866797e-01
      2.1400944060814906e+00 -1.5227415492492511e-02
      1.9630586956843435e-01 -3.0023345941613711e-02
      4.2360537112862384e-01 7.3209833288303139e-01
      3.3257511620781748e+00 2.3817559839683282e+00
      -1.6608440172339991e+00 7.2834030080408518e-01
      -2.1119906547796936e+00 -3.1565146758511148e-01
      -1.4187728021739532e+00 -5.3209607899673772e-01
      -1.8213229306108445e+00 3.5138291440564955e+00
      3.3175851469235573e-01 -3.4894518899668681e-01
      -4.4458093908227916e+00 -1.4946535085050092e-01
      1.0719234935411404e+00 2.3928024884932841e+00
      8.7310555820920777e-01 -2.0315377546720530e+00
      9.3722931380288121e-01 3.6224621818304157e+00
      -9.9299828664049339e-01 2.1373168288684909e+00
      2.9549813105546952e-01 -2.3377923192084044e-01
      1.8135646628664695e-01 5.3422246843718291e-01
      -5.9591449797569951e-01 -8.8529203770183762e-01
      -1.3611585700020912e+00 1.3519875445631773e+00
      2.1440704261272923e+00 5.1613376926302201e-01
      -1.3322823434417914e+00 2.1921292458276551e+00
      -5.3874075774457364e-01 -1.5272015117877313e+00
      1.0283302643001582e+00 -1.2270126467103017e-02
      -1.7627345051001457e+00 -1.1129349427781985e+00
      2.5007178839527584e+00 1.3388395982236636e+00
      3.3257379393350019e+00 6.7456303381154992e-01
      1.4384818609654348e+00 -6.8772087303875551e-01
      -1.5345556005487579e+00 5.9271695305148720e-03
      8.6224268970192131e-01 -4.7788231589171692e-01
      4.7480193554074956e-01 4.7559855225662229e-01
      -9.0526928092458758e-01 -2.4845315819128544e-01
      9.5801413163258997e-01 6.8492429380559300e-02
      -2.6702516261188319e-01 7.2228745809313410e-01
      8.9195956275299332e-03 -1.8943679464039429e+00
      -4.7214597555556093e-01 9.7355410017130783e-01
      -2.3815894399831263e+00 3.4191451457572422e-02
      -1.7626910407971819e+00 6.8759573242795990e-01
      1.5694922382640260e+00 -5.2731431255463868e-01
      2.8439471267161669e+00 3.7148122634649607e+00
      -2.6242046482803278e+00 -3.0388076215007964e+00
      -1.7742226197906921e+00 -7.8929608393423090e-01
      -3.4962594843344114e-01 3.1664890702671755e-01
      -7.2386741589485848e-01 -1.5271438797100922e-01
      3.2960858564675594e-02 -5.1181843007357275e-01
      -9.7086686302873493e-01 9.9747078753959018e-01
      -1.3555411275903176e-01 -1.4499259238462761e+00
      3.4262122368609993e+00 -3.5710280287393631e-01
      1.5295126061745663e+00 6.9346691518038861e-01
      -3.2323096614500479e-01 1.9328413771906732e+00
      -6.4376149360348001e-01 -1.8877144325866009e+00
      1.3172001736708758e+00 -5.7843775254695438e-02
      -6.1514080637449717e-02 2.9699841101777933e+00
      -2.8843047118927756e+00 6.8884969051223510e-01
      7.2440017439489535e-01 1.4945319548984035e+00
      -3.2112836607000399e+00 1.5512865992356082e+00
      -2.2793531666434175e-01 -9.3349479498258148e-01
      4.0087484051535576e+00 -1.7657230811574391e+00
      5.6094646229716927e-01 9.1398604654770832e-01
      2.2139308043197143e+00 7.0799262476048053e-01
      -6.6341845816441847e-01 3.0704975903279075e+00
      -1.5796429978322385e-01 -1.8693899557369058e+00
      -4.9508422402547598e+00 2.0498041221363361e+00
      1.1103785330658940e+00 8.9573410133320186e-01
      4.2422375923257105e-01 -9.7650549521740376e-02
      1.5068043103228925e+00 1.5988085222964219e+00
      -3.8223855118766437e-01 1.7457692348536755e+00
      1.2193308868010429e-01 -2.2924739661260505e+00
      8.9583229072448356e-01 -1.4159876311541456e-01
      -4.3965580926200215e-01 7.3805812894670886e-01
      4.1021570158298454e-01 7.6172199817590036e-01
      2.8981916004490706e+00 2.3559810672187278e+00
      3.7218759642350334e+00 -1.7664175056670406e+00
      7.7886475825786150e-01 -1.3675725119577535e+00
      -4.0864912563795314e-01 -1.1756190476497901e+00
      -2.4990886326380291e+00 9.0403754481101217e-01
      -5.1663197760418311e-01 1.1132336969837289e+00
      -8.5995012461244291e-01 2.2535259006946984e-01
      -1.9579158740948013e+00 -2.3415814591203346e-01
      -2.4000976083907291e+00 -1.5279087299558296e+00
      7.7113583206339154e-01 1.6722507182596102e+00
      -3.2292648029338880e+00 -1.3705314799519479e+00
      3.9826908434691666e-01 3.2621501045142276e+00
      1.3571674194723868e+00 1.3152974459871438e+00
      1.4815290527802774e+00 -2.3862699294118204e+00
      -1.9768512240098892e+00 2.4527025635268049e-01
      -2.1044720468605909e+00 -2.1139377907785035e+00
      2.6400259448210245e-01 3.7344776909527660e-01
      1.0495728739539623e+00 -2.8905406212989271e-01
      -3.5170395571592944e-01 1.1165205373043481e+00
      -3.6080881555549782e-01 1.4854994832504977e+00
      8.4568019917321868e-01 5.0516829397000884e-01
      1.3355446690500514e+00 2.4893869265629167e+00
      2.0452498296367092e+00 1.0478541433325510e+00
      1.9123172181857180e+00 -7.2470339829932107e-01
      1.5134147158323161e+00 -3.5067638206531133e+00
      -1.1910981854739412e-02 -5.6494731777746676e-01
      1.6276436847898090e+00 -7.8166506826417137e-01
      1.1951118600945199e+00 -2.7322502900238149e-01
      4.7406186665637434e-01 1.7174574369412877e-02
      3.4449720366228054e-01 -9.2584709537160903e-01
      -1.6283632476769810e-01 2.0592417811686712e+00
      -1.3949013373818182e+00 1.7106313609740859e-01
      -8.7870723935204498e-01 -2.3820525931416667e+00
      -1.6308760202865702e+00 -6.4496684364433110e-01
      -8.5372376626543989e-01 -5.3652902673488168e-01
      -2.3965462029682494e-01 -1.6257555129158663e+00
      5.4961335359958730e-01 9.5691203287856497e-01
      2.9461500368823851e-01 -1.6548520998249658e+00
      6.7806305812350376e-01 4.0863158697273461e-01
      6.4757899591415446e-01 5.0035861645201463e-01
      1.7710252473291910e+00 5.4266559544529613e-01
      -3.7063780599649515e-01 1.2875308685002032e+00
      6.9572963844822766e-01 8.4507531024371962e-01
      -1.1080981789999668e-01 1.7270016370611390e+00
      -4.1505900886062908e-01 1.9214912941608917e+00
      -1.8296271193288691e+00 -3.3880638570673560e-01
      -1.6575241638315492e+00 -9.9577222411613597e-01
      -1.5463373780925120e+00 2.1140619950161377e-01
      1.7556415483457901e+00 6.0079006557503323e-01
      -1.5350690533096098e-01 -1.5385478838196769e+00
      -1.0822804531642043e+00 -5.6146347182752343e-01
      1.0635467786981794e+00 2.6542955913075350e-01
      6.4798552018399536e-01 -2.0481599446581771e+00
      6.4113782014603848e-01 -6.0096203188896946e-01
      -1.7188479627358457e+00 -3.1587094260619125e-01
      8.6509890868541661e-01 -1.5591397406509706e+00
      3.8426986673073071e+00 -3.3450961649508831e-01
      1.3145329094562015e+00 -7.1921225454328919e-01
      2.9820202083951219e+00 3.3118594215484265e-01
      -1.9927005534241760e-01 6.9112935554626231e-01
      1.8225100019139312e-01 -1.3796153725710589e+00
      4.6958530103266888e-01 -5.6665051800166577e-01
      -1.9549999442270869e+00 8.0360048449509502e-02
      2.7622264227149942e+00 1.6852844734965984e+00
      1.0355995866933028e+00 7.2249665841260391e-01
      -4.6742005335431358e-01 -4.3523127147418550e-01
      6.0087218506260287e-01 -6.7922702792769862e-01
      -7.2401740381706214e-01 -1.3594376269163406e+00
      -8.6512190875417316e-01 -3.5271784467977335e-01
      -2.0284835977591889e+00 2.0146898962032402e+00
      -9.9604855177644636e-01 -7.3299262584474140e-02
      -1.6291542427618675e+00 3.8413518890526877e-01
      1.3079648095752781e+00 -1.0561045188677911e+00
      2.6447714816176058e+00 -2.5733446372003377e-01
      -6.9442297985986379e-01 -5.7934942789403487e-01
      1.7007714262928531e+00 -1.5082003081654649e-01
      1.7605799235122093e+00 -1.7926623437651539e+00
      -9.1324376322117373e-01 -2.8235327571646742e+00
      -5.8566502179945745e-01 -2.4134936830717035e-01
      2.0091918012149587e-01 -1.4429622266762481e+00
      3.4732093520778138e+00 -2.2266663113069471e+00
      -1.6273218891512435e+00 -9.7507236911159756e-01
      3.2029902613137068e-01 -1.0824971704993174e+00
      7.4209684350721694e-01 -8.5566804615225545e-01
      -5.3722712459257727e-01 1.2237756464443754e-01
      -1.1211642192839943e+00 -6.5466338956602887e-01
      5.2010956534595387e-01 6.0857397169783112e-01
      3.6463295276010521e-01 3.9171441928819889e-01
      9.7855885697392320e-01 1.7088694365047608e+00
      2.4432580983339456e+00 -8.5265733725428561e-01
      -7.1405607542252780e-01 1.1992359000116593e+00
      -6.5931877683495987e-01 1.7849348397585793e-01
      5.0629361648069837e-01 2.1974250668562420e-01
      -1.4045116732006266e+00 1.0983402899225152e+00
      -3.5586345922717622e-01 3.4783933688929930e-01
      4.9703105939953814e-02 3.5455764701357373e-01
      9.8068197667864551e-02 2.0486337582710576e+00
      -1.2031308595830291e-01 1.9305794230672541e-01
      2.1710839386889194e+00 -2.8045695958279998e-01
      -1.9851598412820797e+00 1.9509056125977514e-01
      -1.0303565711995433e+00 2.8623841955696633e-01
      -5.0600968616931918e-01 9.9027056768400137e-02
      -1.2477791178853919e+00 -1.4551018026005811e+00
      1.1824119582576713e+00 -1.2123736181191647e+00
      -4.9917798517290402e-01 -2.7300254466995852e+00
      6.4452764833335530e-01 5.0306310352653272e-01
      -1.5469589694656543e+00 7.3816276274134796e-01
      6.3200664018843444e-02 8.2687125595221678e-01
      -1.0208952401993285e+00 2.3231789082278229e-01
      -6.5011577071997828e-01 1.0363355729683488e+00
      -7.7412189815987675e-01 2.7720802221190477e-01
      -5.7147069426469022e-01 1.3624098535649671e+00
      -1.5780111538645974e-02 -2.6225761138438763e-01
      4.1311479979908644e-01 -9.2210484676834981e-01
      -1.4068861331405531e+00 2.0731667923169890e+00
      -1.0201785466498874e+00 1.2089592371336821e+00
      6.0610667470057322e-01 2.7332732681215316e-01
      5.5808571836142318e-01 -2.4419797968350776e-01
      -1.2499336393296610e+00 7.7977312036250968e-01
      -6.2248055717432527e-01 8.5994707287726346e-01
      1.1969621339847976e+00 7.8007239373840354e-01
      1.3797041015513363e+00 8.1503243696760963e-01
      1.4463142332421045e-01 7.2447692773822703e-01
      5.6671772818297417e-01 5.6051791559155573e-01
      -1.1752856675876369e+00 2.6847703038634074e-01
      7.0496406912949605e-01 2.1226796654661889e-01
      3.7027261224404709e-02 3.0330301000959697e-01
      1.3083876154478395e+00 -3.5572714179668913e-01
      1.1886947874181183e-01 1.0027894380664777e+00
      1.0762860805581571e+00 -3.6011548334128335e-01
      -6.5313025728763441e-01 -5.0230211985877156e-03
      -5.9474177305315490e-01 7.6306114531176347e-02
      -8.5239055542923903e-01 5.4579060021598269e-01
      4.9744549252791559e-01 -9.8233635359409421e-01
      -2.2607486522897427e-01 7.1786814000858368e-01
      -7.3191635940882471e-01 -1.1230907129812564e+00
      -3.7317643843622922e-01 -3.8291169435546230e-01
      1.0976125857892798e+00 -3.0882968462155054e+00
      1.8115514909861627e-01 7.1735196547468905e-01
      1.4299204920368120e+00 -5.0972950960374602e-02
      1.8964131294515418e+00 7.3929066614219563e-01
      1.2033024800539684e+00 1.0816956720463728e+00
      -1.8428905716347432e-01 -1.4336235639960895e+00
      1.0229469288027542e+00 -1.0403397362740087e-01
      2.8717549927599078e+00 9.7676312701913826e-01
      -1.5509503433122027e-01 3.4770232133366413e-01
      1.2569153904959958e+00 2.0469849472230410e+00
      -5.7152846004211166e-01 -2.1409930928893353e+00
      -1.2756978031116424e+00 -1.9714960297377693e+00
      7.4554503738568345e-01 -7.3781006654113435e-01
      9.2091321468604126e-01 -7.6526124666560291e-01
      -2.2631996362891109e+00 1.6491403574870276e+00
      6.3781895607677497e-01 -9.5046086456762580e-01
      -3.6186009952638665e-01 5.4712768353481844e-01
      7.5604378206440925e-01 -2.9294380637091808e+00
      -1.2087412228199496e-01 -1.9957058732689403e-01
      -3.0740429822417181e-01 -8.0824490625647938e-01
      -2.1463052830602531e-02 -1.5447945689398856e+00
      4.4085913785483644e-01 -3.0031958765055783e-01
      -2.0637722174144910e+00 -7.1065712899098310e-01
      -9.6854333522063518e-02 3.2284136998438850e-01
      -1.0958014137274086e+00 8.4957021787747899e-01
      8.3370652639283216e-01 9.9190950553861812e-01
      1.8782178378286380e+00 9.5949655267782730e-01
      -1.0129444601164184e-01 -4.5020853438164204e-01
      -1.2386877746328302e+00 -6.4740195505166620e-01
      9.3170913391255417e-01 -6.2827048234865290e-01
      6.9086803750726209e-03 -8.6994454581472380e-01
      -8.3069455029740402e-01 1.4146589369438716e+00
      2.5271369140334432e-01 -4.0564233108453512e-01
      1.9868479573275697e+00 -6.3356042666872181e-01
      -2.5566699262155007e-01 -1.1756228015831365e-01
      5.8801013644629607e-01 2.8594938641068102e+00
      -1.8107629936392773e+00 2.6472350164996192e+00
      8.4149311220130096e-01 1.0115454993592101e+00
      -4.7374796576579131e-01 -2.1892083731046029e-02
      2.6443029915418714e-01 9.8883319624635824e-01
      6.5268461081181817e-01 -1.5686854178610583e+00
      5.5456155123750692e+00 -5.8460642556361540e-02
      8.9740017935481620e-01 -1.2318120778815376e+00
      -2.7394958738255965e-01 -2.3301646101371534e-01
      -1.1323586291799657e+00 3.6544807199779856e+00
      1.8910242973360269e+00 3.8065188422082757e-01
      1.7871982164621475e-01 1.0228654631784388e+00
      -9.1831978447272489e-01 -1.3862470163574292e+00
      -2.2841792315190066e+00 1.3024413200966847e-01
      -2.7064532143318037e-01 -1.4343539967321861e+00
      1.0435655392659884e+00 4.7241289842853723e-01
      -1.8938529805466018e+00 -2.2291203530396728e-01
      -1.3250565682212869e+00 -4.4425950073963449e-01
      3.9873505506879048e-01 -1.0064373012893852e+00
      3.4467596361760680e+00 -4.1676792867850221e-01
      -8.8352172749823588e-01 -1.0030209865740754e-01
      -1.6691156404257328e+00 -8.0904118321703411e-01
      -1.1076993961388637e+00 -1.1630410177862769e+00
      -8.8614278989295814e-01 -3.0451470436006107e+00
      1.3351962942329143e+00 -1.2715895923865583e+00
      4.9309597222797252e-01 -1.1444295974131686e+00
      5.0522274642701959e-01 -1.4921129203700161e+00
      -7.9811686469029253e-01 1.1389389101096210e+00
      1.8206796772308316e+00 -9.1657381942294114e-01
      -4.5479440360746476e-01 -1.3059423947145756e+00
      -1.5689561390936169e+00 -9.9915990019738055e-01
      -2.9648381848407879e+00 -2.0236407863420802e+00
      6.5663183328248853e-01 -1.7472252892819329e+00
      3.7015864116642341e+00 -1.0479944393948402e+00
      -1.6451025427640349e+00 -1.1905093198603094e-01
      3.7152872213491517e-01 7.1370435437822055e-01
      -4.1414655732254912e+00 -2.8452299395185903e+00
      -8.3191704165300018e-01 -3.5578359489099581e-01
      7.2667811490905709e-01 -1.1916552299923024e+00
      -4.5950672130705508e+00 -3.3507014775760596e-01
      -1.3376122510247288e+00 2.8320046585684575e+00
      1.1183152136988006e+00 1.2600359030660879e+00
      -1.3410001406813066e+00 -2.7669223630847357e+00
      -8.5918069941019171e-01 1.6260111852151762e+00
      -4.9471712114824307e+00 1.0682511319506796e+00
      -1.1580454662616702e+00 2.1553975687954177e+00
      -9.9384895800773199e-01 2.6820737438178623e+00
      3.5910599976840285e-01 1.5931331410274858e+00
      -3.6531853254099040e+00 -7.3427533166990766e-01
      -5.6160817144615216e-01 -4.0294157984033396e-01
      1.8671369587859854e+00 2.3380442408307731e+00
      2.5628979808829082e+00 1.3325387873698107e+00
      -1.6638468391545277e-01 9.7296527180948411e-01
      1.6926104849486621e+00 3.1964321686135002e+00
      -3.8278124067762329e+00 -6.4211628305936685e-01
      -1.9958171529423019e+00 2.2731397365291475e+00
      -2.2566976629156446e+00 -1.3203211035202504e+00
      -4.8781849752200068e-01 -1.2770853435897844e+00
      4.1358650800762415e+00 5.5016017220393865e-01
      3.0388149502125099e+00 -2.4530083220745338e+00
      1.3157464767672227e+00 2.2670303934741756e+00
      -1.6010657366114520e+00 1.9361389151285304e+00
      -2.3595123248800092e+00 3.3530428613918994e+00
      -2.7747664308040015e-01 1.2060980445136691e+00
      7.0172561727872240e-01 -5.3747360619113960e-01
      3.0937530803641726e+00 2.7076718215777693e+00
      -2.5023806417549599e+00 -2.1553481016074429e-02
      -6.7321423955551629e-01 -6.3715168093793773e-01
      1.0115785357142111e+00 -3.8477322246182402e+00
      -6.1532639754051677e-01 9.4897775121372985e-02
      -3.4913415105454684e+00 1.2372599415781607e+00
      8.9656984359991893e-02 6.7878237062947466e-01
      -3.1873970246868004e+00 8.1366082039419652e-01
      -1.3866659442075591e+00 -8.5967709577191354e-02
      -1.9665731101087465e+00 -1.2489155640204697e+00
      -1.6296017162766034e+00 1.4291250522504169e+00
      -3.0880998921659346e+00 -3.9740425260550620e+00
      1.0027343411090031e+00 3.5521068200315581e-01
      -2.1344290063450899e-01 9.5338496865267641e-01
      -6.2702815001621448e-01 -1.0643864333898392e+00
      1.8204849110166164e+00 -9.6439870411871431e-01
      -6.5534872615956752e-01 -1.1379334990650289e+00
      2.3213962969955221e-01 8.2833290970786022e-01
      -1.7970932978236562e-01 -2.7253838262751634e-01
      1.8735873983389097e+00 4.3632092984859350e+00
      1.4166515786836122e+00 -9.5284359654635675e-01
      -1.4122255119843281e+00 -8.4940567745540166e-02
      2.6086062635834635e+00 -8.6313570907587789e-01
      2.9688994110244900e+00 1.3339553850234889e-01
      2.0491044499987478e-02 6.0229162611451070e-01
      5.1996661541563827e-01 8.3337884406362273e-01
      2.2349158786115555e+00 -5.7160184947177659e-02
      1.1318102376329371e+00 6.9341165125276516e-01
      -4.7718745715912925e-01 6.8809726444660685e-02
      -6.4645951265605950e-01 7.0070879687865545e-02
      1.7304439685848505e+00 -2.4296935584440118e+00
      -1.5661016398978955e+00 -9.8493240642745450e-01
      -7.2592820091072241e-01 -9.5154628774091021e-01
      -1.7987285479159734e+00 -4.2159784433371861e-01
      -5.9080879592371560e-01 -3.6112927750434420e-01
      -8.1263249570384000e-01 -1.4706582702484861e+00
      1.8425373260310787e-01 -8.5278903563243780e-01
      2.1806257774698534e+00 -2.0172709121657345e-01
      -2.3714799424265093e-01 -5.7938770174911725e-01
      1.8204073971698647e+00 1.8909396241397244e-01
      -1.7682954488214953e-01 1.1754721557365910e+00
      5.8802160799689929e-01 1.1147301377090482e+00
      2.7886284011079243e+00 3.6629104679493679e-01
      -2.1264144853411517e+00 -1.3518925907442015e-02
      2.8657736693617371e-02 -6.9953133124214265e-02
      -9.8396365727816654e-02 1.9959762801718930e-01
      5.3117113909040017e-02 -1.2123485337301674e+00
      5.3384054821580473e-01 -2.3624280742710174e-01
      -1.9349300732927822e-02 -1.5199946023176785e+00
      1.4036549866434631e+00 -6.2182473875372912e-01
      -4.2083283217420958e-01 -1.5430767187593284e+00
      -3.2127786603740516e-01 -1.4343591817324306e-02
      5.4175191347315543e-01 1.0042653365111472e-01
      -1.7094451384207334e+00 -1.1399590662674068e+00
      -2.6182997849858786e-01 -1.9892705078284876e+00
      -7.0761407291193706e-02 -2.3405412828938141e-01
      -3.4324481727377520e+00 -1.9865811982234893e+00
      2.4017086396346947e+00 7.3176214816316454e-01
      3.2918378565614431e-01 -1.9051415156324616e+00
      8.4763308085134070e-01 -3.0101089474884917e-02
      4.3481833521898600e-01 4.6720602469380340e-01
      -1.7942928026831153e+00 1.2537292101945561e+00
      1.2586670517758153e-01 -4.0432308827342317e-01
      -2.7140609061962535e+00 -1.8828494036078960e+00
      6.9438997438029149e-01 -1.2291557289208170e+00
      8.7905306743387301e-01 -2.6430067277762932e+00
      -7.5581108235484495e-01 -1.8276262140177497e+00
      -9.9422586085586750e-01 6.4246794367871674e-02
      -4.3230641782569967e-01 -1.1613879416883011e+00
      7.0875095500627172e-01 -6.2306786237790746e-01
      1.3010843835016389e-01 1.2369340681800718e+00
      6.3010669065412961e-01 6.1060530577403599e-02
      3.4028828618387068e-02 1.9627406321660390e+00
      -2.4224073958491110e+00 -1.6915759412842366e+00
      -1.2760808308980283e+00 -8.4533187057041392e-01
      4.1723183716999360e-02 -1.2016577885249702e+00
      -1.9860726332720968e+00 -1.4361150909483933e+00
      -1.8932666888249579e+00 -3.9621079752210941e-01
      3.6703216817115064e-01 1.9973712308270519e+00
      -1.3601453400666363e+00 -1.6701025277179407e+00
      -5.8722457658462368e-01 1.3249357632722429e+00
      -1.5651542487526577e+00 -3.9224419706574254e-01
      1.5428966773691253e+00 1.3878918558963493e+00
      -2.5569368369957446e+00 3.5934476014019623e-01
      -1.4168811931067779e-01 2.0013208385347920e+00
      -1.1830048762935292e+00 1.3835420614501426e-01
      1.5465213720179289e+00 5.9694156818771736e-02
      -1.3898510579088832e+00 2.8974777095227497e+00
      1.2792439240294805e-03 6.5130284113178660e-01
      1.4541598827492206e+00 4.2422860797903103e-03
      1.6733448643771949e+00 9.4773303259135366e-01
      3.0518534621262337e+00 -8.4167943365642439e-01
      1.1275344413742450e+00 6.4597608519239325e-01
      9.0017172472331108e-01 -9.5242287507715384e-01
      -9.6911745091013901e-01 -5.6705251810346358e-01
      1.9439823601853470e+00 3.9965328429819963e-01
      -1.1964578498226734e+00 4.6932086371129472e-01
      1.0498154487082894e+00 -4.5290673094465728e-01
      -8.5718028330386054e-01 1.3110610068834083e-01
      -5.4638548963554778e-01 -6.3535038388068066e-01
      -4.3488544310595090e-01 -5.7936023064000930e-01
      1.4392485510157538e-01 -3.6652202785207050e-01
      -6.3377197661436802e-01 -1.0073008075910592e+00
      -1.0650889021458811e+00 -1.2049508518871272e+00
      1.0902447087404759e+00 6.5100047954620238e-02
      -9.8387110202176198e-01 -3.1992692872454757e-02
      1.1119154325221046e+00 -1.8854914490372510e+00
      1.5485704268228231e+00 8.4547142991786217e-01
      -2.7593205444906821e-01 2.5247540592242470e+00
      -1.0026468379585967e+00 8.5741417934432462e-02
      2.2450793661436106e+00 -2.2615536922932206e-01
      -1.0067142410152943e+00 -6.5175925358941600e-01
      -1.1450281893293925e+00 2.3793069394167960e-03
      2.4955053696875504e+00 8.2832649749981516e-02
      1.4463544878626495e+00 -1.1373411671871909e+00
      1.2075941644171514e-01 -1.2983951075106534e-01
      1.1685577955180835e+00 4.1900087189769047e-01
      2.1560928232913699e+00 5.3913571423610351e-01
      6.0078832188762843e-01 3.7118622142922292e-01
      9.4052930350964770e-01 -5.6804949750177958e-01
      -2.9484352108205862e+00 -5.7897509512283521e-02
      6.6638103081685579e-02 3.4428542181352562e-01
      2.9759388887549082e-01 -1.8491065984369561e+00
      5.3699445755623709e-01 3.4713170536820964e-01
      -4.6641909912905011e-02 -7.9069682196024282e-01
      -5.5228281637631813e+00 -1.4272362325283294e-01
      -1.4123539515883530e+00 -1.4763188906338309e+00
      -8.3559839651358137e-01 5.1644531343945865e-01
      3.7450047044876006e-01 -8.4066694663792810e-02
      -1.2672794401221679e+00 3.1083050025096293e-01
      1.1025181854616262e+00 7.7015501393861596e-01
      6.7524654811744411e-02 -1.3128412803884426e+00
      -6.2148801986738511e-01 -8.5775103240177664e-01
      -1.1742836026773215e-01 -2.2397499562832518e-01
      6.9738847861358444e-01 7.9549398453599134e-03
      -4.4684555741979803e-01 -2.4747411699352057e-01
      7.8898388183163626e-01 5.4968298919322200e-01
      1.8524833047617366e+00 1.0421518205262056e-01
      1.7203790921556448e+00 -5.5822233151204037e-01
      1.5029155004748312e-01 -1.0915360146509778e-01
      9.2383784199074526e-01 2.9573680669125726e+00
      -2.1191356153592933e+00 -3.1042577406564358e+00
      -9.2490877573433794e-01 -8.4555350621198899e-01
      1.9398718482964212e+00 -7.9387693675016824e-01
      -1.7349129653831705e+00 -8.4555675181346446e-01
      7.0435434488591553e-01 2.7275895776554786e+00
      1.6286190906233693e+00 3.2421127226323937e-01
      6.0567184241712424e-01 -2.8586013487080092e-01
      2.5931298327416297e-01 2.3778339581834871e+00
      -3.3236658393140622e-01 2.2277061866757895e+00
      -1.2171050667553354e+00 2.4132327384127694e+00
      -1.6693338727831244e+00 8.7350574694056615e-04
      1.2877120961029407e+00 2.7481342199303547e+00
      -1.2811069715199022e+00 -9.3008435424450797e-01
      5.7036208750976281e-01 2.5562709375667184e-02
      1.0721176753161357e+00 2.0026454855981854e-01
      8.9263788182276282e-01 2.2634269715790563e+00
      -1.5852713315473537e+00 1.1491972726602011e+00
      -9.3315609954193479e-01 9.6860852007175691e-01
      7.3778151194143590e-02 5.7438445956297268e-01
      -8.0716529561085537e-01 2.4426355075070356e+00
      -3.5876099736155254e-01 -8.9547825785958379e-01
      2.8665078168253846e+00 -9.5457515527951697e-01
      3.2556838645777666e+00 7.0988542338729010e-01
      2.1009278668118392e+00 -2.3982401425298621e+00
      1.7919370965785986e-01 -3.6425426149087614e-01
      6.6685752670801690e-01 1.3634861720142222e+00
      -1.4764276127129106e-01 7.8915122270865579e-01
      -5.3173265299909767e-01 -4.1799015510765258e-01
      4.1094098947755692e-01 -9.0316118529595257e-01
      1.0011670484678410e+00 2.0283887818932587e+00
      -1.0077422650912558e+00 -2.2994126865309097e+00
      -1.9643585665905329e-02 -2.6371091830838074e+00
      -2.7660821108616513e+00 -1.9140155332228073e-01
      -2.8292732154160344e-01 -2.7349235484564982e+00
      4.5664220818537143e-01 1.8567221898066280e+00
      -3.1349293670299094e-01 2.6427131739086041e+00
      -1.8133460165443658e+00 -3.4366954421297811e+00
      -7.8627638620699802e-01 -2.5097864310725632e-01
      3.1713281574337965e-01 -9.9677736120530025e-01
      1.9920441782167750e+00 -2.6307506131470388e+00
      -7.0933233008983043e-01 -1.7164176572317467e+00
      -4.1568305706222546e-02 -2.2523235339388292e+00
      -7.8477121019087348e-01 -7.0675497099411533e-01
      5.3571776989917586e-01 1.0691030157857469e-01
      1.5795518419217567e+00 1.8967434661893290e+00
      5.6184693900275606e-01 2.8393251723484463e+00
      2.5834587906549262e+00 -7.5465290395541629e-01
      -8.7095616877521245e+00 -1.6687981759225421e+00
      2.2914347309656430e-01 2.4744071092666671e+00
      2.4975018414302856e+00 8.0776112248088963e-02
      1.3637368058428545e+00 8.6696698943704209e-01
      1.7362487555180179e+00 1.0326419940028071e+00
      -1.2971545350861913e+01 -4.1976868122890987e-01
      -5.4018169164329404e+00 -2.3101180663611762e+00
      -1.3644377128203036e+00 -2.1429755674144890e-01
      2.2335056153831250e+00 5.1937659077224130e-01
      -5.8963106068481330e-01 1.5514814453489294e+00
      1.4517403995185152e+00 -1.4582101831188259e+00
      2.4894486426539282e+00 -6.1144253903563439e-01
      -1.3242492948974047e+00 8.7598559402536094e-02
      -4.2325227311099706e-01 1.2179973867571725e+00
      -1.7683561427302097e+00 8.2537827213240800e-01
      -2.5053574392027316e+00 1.5107188096892632e-01
      1.3667786049144413e+00 -2.1827013509019266e-01
      7.4172214925772406e-01 4.8145619264338982e-02
      -2.9967813959918305e-01 -5.1386309911022021e-01
      3.3665958965825085e+00 -9.3140563701185730e-01
      1.0071604662235489e+00 -4.8035864433669445e-01
      -4.0773944937839751e-01 -8.8193623530803356e-01
      6.1300009083277074e-01 5.6320344814581469e-01
      -3.8690576121582373e-02 7.6433077969266972e-01
      -7.3546399533408702e-01 -5.6380631148827319e-02
      -2.6627224264695881e+00 1.6421508160965694e+00
      -2.8703995997809933e-01 3.9602115773838418e+00
      -1.0290785226414179e+00 4.9276735243362335e-01
      1.2258964838696307e+00 2.3001276260502586e+00
      -8.5828118877997805e-01 3.4994093339269050e-01
      -1.5355586348825359e+00 1.1555341456208388e+00
      -1.8412454304346419e+00 4.3050079607715945e-02
      2.7441979543030742e-01 6.9930273456881153e-01
      2.6331183397728120e-01 -2.8482522142226263e-01
      4.4683126177153616e+00 7.7189896698516086e-02
      1.6633770322135550e+00 -8.1627593419654657e-02
      5.0708034889361031e-01 1.5804808231511456e+00
      -2.5703349265138922e+00 4.8377099356659803e-01
      -4.7770620207886272e-01 1.7608878534554590e-01
      8.6362783099280769e+00 1.2163045858302215e+00
      2.3976450067351034e+00 1.8184318619164290e+00
      8.0571139055946162e-01 -6.9194488093929096e-01
      2.3388046359144896e-01 5.4153310998527215e-01
      1.1392928279839654e+00 1.8370177598492448e+00
      9.3167153262049529e-01 -1.6012592808047186e+00
      -2.5015076130846148e+00 9.9217032405359296e-01
      1.9486849138856507e-01 9.9886145492625356e-01
      6.2615540465165531e-01 1.5138162226687464e+00
      -4.4114123758076884e-01 -1.1388978770703426e+00
      9.7136706984980126e-01 4.2485230479905574e-03
      -1.3160500490312335e+00 2.6632465226043380e+00
      2.1700353286506449e+00 2.5435579486610749e-01
      -2.4708589009382576e+00 9.7283552179037436e-01
      -7.4107465075437873e-01 -1.3581744593860885e+00
      -7.3580823158349606e-01 -4.4030909865982428e+00
      1.1061838624141900e+00 7.0571819145391190e-01
      -8.3759230329678169e-01 1.3324331037029020e+00
      -6.5364145670670515e-01 2.0378852502332285e+00
      -2.2101414629381404e+00 -2.0455855138567451e+00
      -4.9302029908473095e+00 5.4269614201480989e+00
      -1.2601484375747163e+00 3.8760975150933943e+00
      2.0304144655150531e+00 -2.6494544393969111e-01
      1.2666580724682330e+00 1.2643543652145701e+00
      -1.4652982997048836e+00 -1.9235264419604221e+00
      1.4244783535792724e+00 1.2420724624233914e-02
      -1.4257222545598150e-01 3.3926634382237961e+00
      7.7433205802663052e-01 8.1683392564261570e-01
      -2.0494789697733182e+00 1.7189567085422217e-01
      7.1436170430995471e-01 -6.0890592777665085e-02
      -7.9751088606537668e-01 -8.4021887058619782e-01
      1.6216362025975672e+00 7.8282168357370496e-01
      -4.0243319678010309e-01 9.4308906739521928e-02
      3.7097748804484412e+00 2.2609120985698315e-02
      5.0914037221310204e+00 -5.1370915473055812e-01
      4.0231564076757104e-01 -1.5961317990887434e+00
      2.3106759989562820e+00 2.6601018151373208e+00
      -1.1697124687419671e+00 3.1370696305120425e+00
      2.0686061897457433e-02 7.9413718807952338e-01
      3.0008234675723209e+00 -4.0915196956412636e+00
      1.0538779107945757e+00 7.2302512462003266e-01
      4.3076136826985167e-01 -1.4347762950801235e+00
      -1.4489580747381483e+00 4.1331376638354351e+00
      1.4965717532811889e+00 -1.0287047878829378e+00
      7.4903571731686747e-01 -1.1667659973640916e+00
      -4.0367033518656568e+00 -5.4405182105848204e-01
      3.5604424658257983e-01 -1.2736406961814264e-01
      3.8452339124698143e-01 1.5721841161065879e+00
      8.5697219192197993e-01 -1.0509943148929568e+00
      9.4815690415047074e-02 2.3349415582310198e+00
      -3.6880645154051215e+00 -4.7500009210588823e-01
      3.0395783879159866e-01 -7.6104519458977882e-01
      5.4934621945828410e-01 -1.3421466452801323e+00
      2.0017491993557612e-01 5.6061848212888954e-01
      -2.2466183333932707e-01 5.7985280831536659e-02
      3.7105750706176893e-01 7.7852516859830390e-01
      -8.8613443924231261e-01 -9.5918982264590058e-02
      -1.3283432486042110e+00 -6.4331998672366753e-01
      2.0866898250657937e+00 -4.2241619655570867e-01
      -5.8621947537126073e-01 8.6167816795369534e-01
      -9.1024461501008708e-02 3.5005306283504789e-01
      9.5352377798989263e-01 2.2395892664893062e+00
      5.7080676591115334e-02 -6.5917773765088761e-01
      1.4578918759773105e+00 -2.3591795473248661e-01
      8.3194138157087294e-01 3.4096107802562498e-01
      4.3589750147478429e-01 1.8221642573140813e+00
      8.9781767806414337e-01 -2.7871917632699483e-01
      3.2263327862688634e-01 5.9437856585443050e-01
      2.2161586406041631e+00 1.3985170201381931e+00
      1.0038937604607287e-01 -2.9624073735317158e-01
      -5.5299332503210874e-01 3.8429261654982372e-01
      2.7583193062466532e-01 7.0807198243564373e-01
      -7.2856085472279752e-01 1.7316722733231666e+00
      -1.5179122346673829e-01 3.5776277193405398e-01
      -1.5956453098921008e+00 -2.5196191111123839e-01
      -7.0422281776709739e-01 5.7002155476493219e-02
      -4.2672280915215260e-01 -2.4859685938451986e-01
      -5.5988959428146867e-01 2.0733708513154431e-01
      -3.1288291287982611e-01 4.3062171268919847e-01
      -8.1301437515529462e-01 7.6639433560854220e-01
      -1.6480546457852741e+00 2.8446734453009115e-01
      -1.5892395360128582e+00 1.6171015478913193e+00
      1.2690246443557232e+00 -5.1390114008872689e-01
      1.0172808085403873e+00 -1.5728157057837924e+00
      3.2801398386185472e+00 -2.7427885665155333e-01
      1.4081865895613161e+00 -3.4224418013294344e-01
      -6.0543896122075436e-01 -9.8533511040205091e-01
      -6.8109783479713987e-03 -4.4791617721040256e-01
      -1.7292136328793699e+00 2.5899027643139423e+00
      -5.9148840268906400e-01 -2.2084374119409070e-01
      1.5339490477162325e+00 2.2278172927028046e+00
      1.6166474374990571e+00 -9.1324362717009644e-01
      5.2647066987679758e-01 -2.0112523280724450e+00
      1.1234921398680603e-02 4.6070271284646573e-02
      2.1261424127380311e+00 2.9765810172616169e-01
      3.3812970022187011e-01 -6.2705891726249430e-01
      2.5274645315084054e+00 -1.3983662176474904e-01
      -4.3314852405895499e-01 -1.3323389221959461e+00
      1.3214620880065766e+00 -1.6325330627044228e+00
      -1.6280728399582434e+00 -1.0507565525960016e+00
      -1.5596270730436037e+00 -1.0980151728312322e+00
      -9.6674174333467200e-01 -4.6205621672244762e-01
      -8.4550496840058076e-01 1.3730452251860004e+00
      6.1203887033844284e-01 -4.5702843203888843e-01
      -1.4631855730214727e-01 2.2841771719724724e-01
      -2.2529085815882026e+00 2.7386869738852391e+00
      -1.6905450051479229e+00 -6.5105841590086241e-02
      -6.7454741663475348e-01 1.6662213266632050e-01
      -2.6676657530061170e+00 1.3498988422155689e+00
      3.7601889599660915e-01 -1.1042816746091139e-02
      1.8465457985687401e+00 -4.0749805360977598e-01
      3.3170051725909012e-02 -6.4290442567140982e-01
      1.1682943095496818e+00 -3.3902981028642076e-01
      -5.2394391193481926e-01 1.8079185759229848e+00
      1.3494960217555593e-01 1.0420633748725521e+00
      1.1925583715003729e+00 3.7934146810811015e-01
      -6.1035482579995540e-02 2.8585008749411474e+00
      -1.5203471099718169e+00 1.7042105057219770e-01
      1.5823560036060605e-01 1.0523972138864337e+00
      -7.6789351956809120e-03 -5.3689509362926879e-01
      1.9185857332104594e+00 -7.7972753153880181e-01
      -2.1656576618133392e+00 -7.7883075148341996e-01
      -2.4102107334829319e+00 2.2708061546525610e-01
      -4.5409920787695846e-01 4.5842353660257540e-01
      8.1328623542333847e-02 -1.6196352625964427e+00
      -7.8262567881743206e-01 3.1435932883890660e+00
      8.4254846164044017e-01 -2.3814444416598887e-01
      1.4001111415637331e+00 -5.2994518463148998e-01
      -2.3553246490057873e+00 2.0613804159744320e+00
      -6.3453508941612780e-01 8.9066018962668125e-01
      6.6491985255142799e-02 -5.4233941437329947e-01
      6.8326162673128610e-01 -1.7977615278868924e+00
      -5.6256694017727915e-01 2.2743817742328005e+00
      -9.6471170366252701e-01 7.0188904487826864e-01
      6.8877596578298306e-01 8.3511257050892418e-01
      1.2474815682878142e+00 1.9350139056930331e+00
      3.2725732503420901e-01 8.4450057865316577e-02
      -1.7788938214225627e-02 6.2382584126918272e-01
      -8.0977424647780671e-01 -2.0769174873438221e+00
      -3.9169261553535051e-01 6.0785996574251211e-01
      1.4650783641172338e+00 -2.0534491144425537e+00
      7.7528362312455046e-01 -1.6271423383648520e+00
      6.9581301899380654e-01 -5.9973580871736698e-01
      -5.0597924104738567e-02 7.1508985394264701e-01
      4.1783553629542669e-01 6.2111861323417006e-01
      -2.9328418002245854e-01 3.0658881040002717e-01
      -2.9814661277001120e-01 -1.1033037945896826e-01
      2.4525760946257757e-01 -2.6190742300478365e-01
      2.3277723571579034e-01 2.7958909121090986e-01
      -1.3788932562770073e-01 7.8469241141719837e-01
      2.9838231220260691e-01 8.8743360250682168e-01
      2.0930063984667298e-02 -9.3009053276764864e-01
      2.6084912312404294e+00 -5.7969344167908743e-01
      -5.7479167005423201e-02 2.9837396860349147e-01
      -6.3988639815103099e-01 6.8649066679147541e-01
      -1.4084325400634927e+00 -2.6862823999856877e-01
      -2.1447657239457905e+00 4.8920684414127830e-01
      -1.0514027636085364e+00 -3.3128855374430521e-01
      1.1169224353537408e+00 -2.7802873616229806e-01
      1.7237521711213775e+00 -7.1750452013567090e-01
      -5.4404910383807537e-01 -9.9672742647900570e-01
      -5.7661754460578596e-01 -5.5868957963874610e-01
      1.1061362552334419e+00 4.6868001500089213e-01
      5.9091767876364850e-03 6.8649220095558117e-01
      4.6199037362671408e-01 6.8241364717794684e-01
      1.5304101976587012e-01 -7.6609668912014151e-01
      -5.7682272710855209e-01 3.3574999155173002e-01
      9.2413328304868994e-02 -4.1269906441673254e-01
      -7.7536956626837572e-01 9.2005735587447934e-01
      1.8712732123427076e+00 -2.6390180037279505e+00
      2.7329347887406652e-01 -6.9982440888202690e-01
      1.8463053533611888e+00 -1.3379659847005692e+00
      1.2627403523976422e+00 7.6614585954756143e-01
      -6.9477391495368401e-01 2.7415707274097800e-01
      1.4303352051641782e+00 2.2239002274763235e+00
      1.3382189394517727e+00 -7.6845499045112586e-01
      -9.4252505208477366e-01 1.0301822369644291e+00
      6.5092567300154203e-01 6.9353247037712085e-01
      -4.0792975655720248e-01 1.0807374385025825e+00
      6.6258506876592527e-01 1.8054917961469566e-01
      -1.3319190103107115e-01 8.8266038431647195e-02
      -3.6848957495407436e-01 -1.5279427058181480e-01
      4.1382368538824565e-01 -4.8169463877845053e-01
      -3.5960513178909326e-01 9.7317065178878803e-01
      9.9402259853060759e-01 9.2930819626675909e-01
      -1.1159920538958386e+00 -8.4239316246242113e-01
      3.5971058416739804e-01 -7.6671660339729886e-01
      2.7529665967016820e-01 3.5445183819232512e-01
      1.7629629584476911e-01 2.9396223585337083e-01
      -5.7075232171730717e-01 3.1847986698317116e-01
      -4.0900234924401406e+00 5.5471123914795817e-01
      9.7764909093398944e-01 -4.2347220069246500e-01
      -1.1741289349406334e-01 -1.3509074862804549e-01
      -2.4113979597159715e-01 1.1392679640804093e+00
      -1.7868418191352152e-05 8.1680533580389889e-03
      9.2249511714527777e-01 6.1911652757515512e-01
      1.3384748359806908e-01 2.1017675751097314e-01
      -3.7289508660687426e-01 -1.6751570560403717e-01
      5.6180048894081858e-01 -4.0893378380458888e-02
      1.8946958694851637e+00 -8.0418532898399828e-02
      1.1884371837377448e+00 2.1136653295709612e-01
      1.5651384785469804e+00 -1.0055280544135505e+00
      4.8316778292164814e-01 2.1168398164432496e+00
      1.2574922850336663e+00 5.6076924701544117e-01
      3.0921719745411358e+00 1.2669449001480262e+00
      7.8097634780010849e-01 4.0169520179832274e-01
      1.7463213879477195e+00 -1.4490673935369234e-03
      1.2366486088101305e+00 4.2444401114609431e-01
      -8.4016535637956447e-01 -1.4713466157219479e-01
      1.3475661587201104e+00 6.5815513823033223e-01
      2.7513478659685688e+00 3.0484095795191446e-01
      2.0247735741737509e+00 6.0313220414312529e-01
      7.9647065167552000e-01 -5.2549193936775385e-01
      -1.0203005145916542e-01 -1.2352595031693443e+00
      -5.6748931422202897e-01 9.7745720983144657e-01
      -3.0887483979184900e+00 -4.8075977272358278e-01
      1.9780937776507482e-01 -4.2567327635668234e-01
      -3.8533051148007380e-01 6.5731900214249614e-02
      -1.0190333380564738e+00 -1.2197968311495340e+00
      -2.4424868876305603e-01 4.3512210069396690e-01
      -7.8882673730841135e-01 -9.8163987268227171e-01
      5.0026817449839478e-01 1.2165881449164444e+00
      -9.4445338911106103e-01 6.1156883504118154e-01
      -2.2646845302777405e-01 -1.9110271922041258e-01
      -1.4535335489811532e+00 1.5202549740710145e-01
      1.3741947179425981e-01 3.1443341535237629e-01
      1.7508651422022178e-01 -1.1631717525231353e+00
      4.9648948449842978e-01 -4.8367947203993544e-01
      -1.5306410295285916e-01 -3.7902156844374052e-01
      5.6220195249291394e-01 7.5796949404665870e-01
      -3.0416332384029454e-01 2.2395075573786194e+00
      5.8691357976656822e-01 1.0729860050940323e+00
      1.0098577413767960e+00 5.6298593273032893e-01
      -3.9748531039949672e-02 -6.6083083935083747e-02
      -2.5382723813975222e-01 1.9909564907747901e+00
      5.7024471531674203e-01 -7.3065996965026137e-01
      7.6160290241877460e-01 1.3336347062626548e+00
      1.1894732165516237e+00 -3.6275759318498685e-01
      9.5824063308744967e-01 5.9308354949843989e-01
      -1.4580884433359993e+00 -3.7729307902047032e-01
      -1.7597685315313494e-01 1.5972799633922723e+00
      -6.2548460667817052e-01 5.1862142710434023e-01
      -9.2177263871002690e-01 1.2357758412490409e+00
      2.7423332194574612e-01 -9.6092936048281219e-01
      -5.9463826689969013e-01 4.9356284689271074e-01
      9.2645778994332539e-01 -3.8569348530066000e-01
      9.9267131022835009e-01 6.4221119577517283e-01
      -1.1371416764996655e-02 2.0822217622308245e-01
      9.5429858913676757e-01 4.9800763395891035e-01
      3.0153423126746925e-01 5.7078124922497819e-01
      4.6709096869931638e-01 7.2711500058632458e-02
      -7.3362514191226635e-01 4.9748372778342292e-02
      3.3904248501292793e+00 -2.0123088877987982e-01
      3.6246708222391133e-01 4.6110070893326932e-01
      -3.5236594351144390e+00 1.2226639164964359e+00
      -5.6595461236767042e-01 -1.7161963300597896e-01
      -5.2042505126163485e-01 2.2333121486746296e-01
      -7.8784412129769754e-01 2.0553828241149069e-01
      -9.5563873367358720e-01 8.7203532818628512e-02
      -6.9848411932457821e-01 1.5456982089137092e+00
      5.6891599032749385e-01 5.9968265905344542e-01
      7.5783769993223826e-01 -1.2741214925247781e+00
      -1.5223673445026389e+00 -1.5546364706282796e+00
      5.5504880149206082e-01 -1.9916567021960758e+00
      6.1353656398943435e-01 6.3284675357048695e-02
      9.2026697893738152e-01 3.8759150360363448e-01
      1.0231462619377687e+00 -4.1975113563419503e-01
      1.1487674352018076e+00 4.6842198073757341e-01
      -4.5170602294132794e-01 -3.5627665103933093e-01
      1.4289645547448038e+00 -1.6808842395605217e-01
      -4.3559198688644307e-01 1.1384100810014268e-01
      6.4283720572402869e-01 -4.2353281035233387e-01
      4.5235444414444865e+00 2.8895346994104877e-02
      2.4750437000643610e-01 -1.8943634701892063e+00
      1.2007051488136933e+00 9.0408965157967225e-01
      -1.6425416397351600e-01 2.6838163487784090e+00
      2.3256217712003940e-01 8.3796878356885196e-01
      2.7725794704001044e-01 5.8951454015006288e-01
      1.7014518431141883e+00 -1.6235157569235930e+00
      5.3195588018396878e-01 -2.9061932889580500e+00
      -1.3842546590888010e+00 2.8761311699418988e+00
      -1.3399752069007447e+00 -1.1670479055146925e+00
      -5.0896398858880665e-01 1.0929646461285858e+00
      -1.0026694382505088e+00 5.7139575299491963e-01
      -1.3425949469116492e+00 7.9707602276922374e-01
      1.1685651315118861e-01 -7.5068647524539112e-01
      -4.6411265128337211e+00 -7.0572639023435746e-01
      1.9650589899513842e+00 3.5732170970399344e+00
      -2.7093979707482596e-01 2.5237696325469869e+00
      6.4044884749978159e-01 2.8510667658306704e-01
      -1.2112633960078556e-01 1.0787324177204025e+00
      -1.3162762124746623e+00 -1.6227780204746740e+00
      3.5938463587281415e+00 1.0784554784467550e+00
      -2.2229890999415263e+00 -1.6796408127833322e+00
      1.3357923916221457e+00 1.0170654284180145e+00
      1.8724625445403231e+00 -2.6747406373466389e+00
      -2.3207692681200420e+00 -1.5052334409987096e+00
      3.0843490258776546e-01 5.1016295782690868e-01
      1.3209549790292205e+00 4.8146616338535964e+00
      1.2019050307247459e-01 -4.3303960267990158e+00
      2.7672326987726663e+00 2.2411360723935574e+00
      1.4982603465084308e-02 -6.0197560257217797e-01
      -4.8377195695254951e+00 -1.7683555377411508e+00
      1.0778433611334515e+00 -1.3707479437022585e+00
      4.5304251846881476e+00 1.5509508154284799e+00
      -1.9386331666767898e+00 -1.0496886599251327e+00
      -1.5439828057923499e+00 -2.5595200500837882e+00
      1.5936291268950846e+00 -4.3813845331631107e-01
      -1.1669954422987132e+00 -7.8913901560060673e-01
      -4.1696120957429761e-01 -1.4775269926579460e-01
      -2.4564063347550986e+00 -2.5873088441384193e+00
      2.0134937707991329e+00 -1.7397272927436251e+00
      -5.0039429314465922e+00 2.7237398754122881e+00
      1.6913866770636636e+00 9.9529006014575871e-01
      -1.6009017042357225e+00 -1.7459222802907708e+00
      -6.8622305013127571e-01 1.8407663252099553e+00
      1.5593651897649490e+00 9.2712724200202412e-01
      1.3173768482559505e+00 -4.6959198456235912e-01
      -4.5686679484959830e-01 1.7362305925753543e+00
      1.6080010592124785e-01 4.1811721321226625e-01
      5.3576842027144245e-01 1.5937476229554117e+00
      -3.8284503374795531e-01 1.1081873757867611e+00
      1.5596385473218546e+00 4.7528639772012682e-01
      -9.4873145224120659e-01 6.2444724134263141e-01
      5.6564708524389484e-01 -9.9789857378210112e-01
      -1.9385793040027328e+00 1.8339108038410273e-01
      1.0179846047521939e+00 1.0511873212877157e-01
      -3.6828253050122273e-01 -1.2000339802514002e+00
      7.1548236200225146e-01 2.0440208512599450e-01
      -3.4710243932373258e-01 -1.0043137496064338e+00
      -7.4412405242416624e-01 7.3570684791720631e-01
      9.9158715418882404e-01 -5.3720391513722332e-01
      1.0479865636415033e+00 8.0917530672063886e-01
      -9.0835744316548492e-02 -1.5303351189609211e+00
      1.3736906922531186e-01 3.8166428807544356e-01
      -2.2174990808828801e-01 7.2907363332184771e-01
      -1.0757343278749389e+00 3.4855754281337753e-01
      6.4976892163958813e-02 -3.6713333951243921e-01
      1.0116414101594742e+00 -1.3246720155508385e+00
      5.8179571818751963e-01 -5.8545324446492808e-01
      -1.1373874016409360e+00 2.1143687507408862e-01
      3.9527844889383590e-01 -1.8291713676730996e+00
      -1.2604893006686897e+00 3.4742285655027583e-01
      1.2057438256278592e+00 -9.5885356096282026e-01
      -1.7502455118352482e+00 -4.3594146258957306e-01
      5.6334816345517646e-01 -7.5171862763414976e-01
      1.6151098958655628e+00 8.2827733921895866e-02
      -9.1016935405232446e-01 -4.6993288556951368e-01
      -5.2108514292198094e-01 -1.1332562379779101e+00
      -3.3244843016975129e-01 6.2959911737296748e-01
      3.6382752416210161e-02 -1.4936511174267374e-02
      6.0748069374497371e-01 -1.4253373413677441e+00
      -2.5951004894736823e-01 8.7041336133542568e-01
      -1.0715246026525925e-01 8.2344655762297991e-01
      -1.4972318600493271e+00 -2.0772845974361713e+00
      5.8874791125626313e-01 -7.1273042203353648e-02
      6.7609234741455959e-01 -1.7462860096433669e-01
      -8.9953682343618901e-01 -9.9962531502054397e-01
      -2.9247517042519211e-01 1.0646241519021280e+00
      5.2026281631900562e-01 -8.1469986487535861e-01
      4.8601913487713595e-02 -1.4567574169503095e+00
      -5.9152966814530250e-01 -8.6565863506908336e-01
      1.0803578938063987e+00 -5.4202134798958768e-01
      -4.7101273809805688e-01 -2.0609085914874983e-01
      5.2699003797235699e-01 -1.3537339358525509e+00
      5.7686193854215029e-01 -6.1862326981055954e-02
      1.0052768783874212e-01 7.8726453412674147e-02
      3.4312830886952034e-01 -1.0021644291759984e+00
      1.1414341499197282e+00 -1.8846539787408093e-02
      9.9596851666445352e-01 -1.3432708848605421e+00
      1.6653490981019317e-01 3.8030829373136782e-01
      1.0238013759527973e+00 -3.3953132992426843e-01
      -1.3529140800595094e+00 -1.0563452866252612e+00
      9.5758684278355555e-01 5.9527177675345398e-02
      -3.1419137241294619e+00 2.5176364295753367e-01
      -8.8555277722747783e-01 1.5099265490011784e+00
      -1.4154942804545758e+00 -1.6046553392807461e-01
      -4.5270455301094503e-01 1.6356780283077452e+00
      -8.5625252141987174e-01 1.3808797609944241e+00
      8.5188419211108368e-01 4.2854682226371635e-02
      -2.8661956639993553e+00 5.1871199909853130e-02
      -1.5016937560082461e-01 1.7581317725786019e-01
      6.2027977391417577e-02 -3.0222748541617117e-01
      -1.0422262501614796e+00 -8.5580407056900409e-01
      7.4099152857855344e-02 -7.8515252028683546e-01
      1.2245169531335974e-01 -2.6616340454217119e-01
      -2.1917612961599797e+00 1.5520161826989782e+00
      -1.2680697976745545e+00 1.4315105001226398e+00
      -8.1427737105044184e-01 2.3483608580195781e+00
      1.9894890180687921e+00 -2.9242259760294799e-02
      4.6232118857249449e-01 7.9850217801474754e-01
      -8.2597750790694513e-01 1.2514340495392666e+00
      7.9143163798816119e-01 -8.8129947126436334e-02
      -1.1933838855202139e+00 1.2182262367084973e+00
      1.8993241121008531e+00 -5.2998634788332144e-01
      -1.1101569054578753e+00 -1.4417384139540013e-01
      2.5792650525192142e+00 -1.6425627458243621e+00
      2.7390762116305445e-01 -2.7851887119825984e+00
      -2.8998118781281965e+00 1.5888126251214585e-01
      1.6042897010671548e+00 2.0611334434638934e-01
      1.0905487951827603e-02 1.8154075704735528e+00
      2.8046208594748445e+00 -2.5919388522861739e+00
      -5.9541418695798864e-01 5.4897279285478862e-01
      4.3142688671790269e-01 3.6388867020663856e-01
      -7.8629469355797388e-01 1.4299888237994069e+00
      1.0777813791936302e+00 1.0732860845084739e-01
      2.8362801609619064e+00 -3.5290423852568265e-01
      1.3939597588459265e+00 -7.9470535866288405e-01
      -2.6487858603213881e+00 -1.2549680931865854e+00
      1.4074064861782671e+00 -1.4869517328525064e+00
      9.1743356849541524e-01 -6.5535791509915634e-02
      6.7954041422587930e-01 4.2877341984097950e-01
      -1.5132600090820003e+00 -5.1266651778294692e-01
      1.5954671480459495e+00 -1.5043755047714673e+00
      1.7483158217197552e+00 8.3960132192957093e-01
      1.9205184291714397e-01 -7.6989021328824195e-02
      -3.4626416602902982e-01 1.6815251493119456e+00
      5.8692570586452486e-01 4.9390309541405214e-01
      1.1357184447741930e+00 -8.6230361014709170e-02
      1.2958069059672512e+00 -1.0944927113245682e+00
      2.1228062857260238e-01 1.3800400905771681e-01
      1.0486125375286888e+00 1.7326705385563888e+00
      1.4462728714077000e+00 8.4102887216759581e-01
      -3.5351526163197694e-01 3.6318437278903098e-01
      -1.3029141231970029e+00 1.2197724850119374e+00
      -2.3540332151017274e-01 3.0290071970241722e-01
      -1.1415096522270417e-01 3.3435709871638292e-01
      -2.8204996630961188e-01 1.4661796395726434e+00
      -7.0070480779964217e-01 -7.8110677989679522e-01
      -3.0077521877772384e-01 -3.4056148261157371e+00
      -1.4733968762857614e+00 4.9217290772663141e-01
      -6.0301104091770186e-01 -4.2937878827375109e-01
      2.4258130699981584e-01 1.7243721300350667e-01
      -9.4502700100483161e-01 -1.4255263117240731e+00
      -2.3173612813906894e+00 5.4097651584943007e-01
      -9.4468343510214370e-01 -9.9184473483426938e-01
      -1.2918630553855250e+00 -6.6073136766892360e-01
      1.2952698830163498e+00 5.2142722204637149e-01
      1.0187367264779854e+00 -1.2298761422250289e-01
      -1.1131427463278585e+00 -4.6591646581003071e-01
      1.9528342414099416e+00 -9.5027190616482771e-01
      -2.9381601878996594e-01 -1.0308435290066322e+00
      3.3957126858734652e+00 5.6459196360082009e-01
      -5.2449622168230847e-01 3.9787708666210669e-01
      -4.2703877941991514e-03 1.1813756276322200e+00
      -1.1148541744864242e+00 -1.5088510736220606e-01
      -3.5299988750461520e-01 6.3838687602081967e-01
      -1.9877293995849734e+00 -4.7881560133569218e-01
      2.2649262684234670e+00 9.2862224843588442e-02
      1.0157192545970473e+00 -6.9048367712469139e-01
      4.8023109511438700e-01 2.5913618166346775e-01
      -8.0856124177384991e-01 -3.7537770493724615e-01
      6.9095801664900147e-01 -1.6282353104938565e+00
      -5.9889564954456131e-01 8.1795370918486474e-02
      -6.5156700787136967e-01 4.3829621837899135e-01
      7.1219062255186694e-01 -1.1352790504253878e+00
      -3.7606864041215424e-02 -1.5940311462685344e+00
      1.9609807221259594e+00 -3.4238401281269787e-01
      4.7665152306960190e-01 1.5264965588800716e+00
      -3.6648734117835180e-01 -8.5942080489879946e-01
      -9.0489987228227009e-01 -2.2928628516897107e-01
      -1.4544127382642096e+00 2.0478960586558828e-01
      4.3862004673480622e-02 -7.4300651077953916e-01
      1.6338535365288634e-01 1.6928026842002757e+00
      3.9172901029043983e-01 1.3255747995274403e+00
      8.8673688055763825e-02 -3.0267923447269574e-02
      -7.1714603065351024e-01 1.0773331071945289e+00
      -9.1112646885051840e-01 -1.5705816870709302e+00
      -3.5902985354707284e-01 -3.2514735098118031e-02
      -8.9724457421198123e-01 -1.5183957151793050e+00
      1.0902824220728806e+00 -2.8345584841119092e-01
      7.6454259767956334e-01 3.2548545575243271e-01
      3.3139392162224157e-01 -1.3164956977222082e+00
      1.3548001950222796e-01 7.7846673970786162e-01
      -1.7887242378584314e+00 -5.5009213457178630e-01
      -6.8157394848314967e-01 -1.0415367075772470e+00
      -1.1753553915129178e+00 -5.0315796966314152e-01
      1.2263001217212408e+00 -4.4134503522708096e-01
      4.6107540898487709e-01 -7.6529669737189880e-03
      2.2141762157839864e+00 -6.7460419623639822e-01
      9.9438941608670006e-01 -3.7657149086843722e-01
      -4.7880408887461223e-01 -6.8566650876319812e-01
      -7.1051109207289032e-01 1.1245295531421651e+00
      5.7595513209463711e-01 -1.3362407429138148e-01
      -5.2523738717012247e-01 6.3512974796337918e-01
      -1.0589132299943225e+00 -9.3569327278126069e-01
      2.8187480682570837e-01 -2.1390682114745574e+00
      1.0263998435295600e+00 4.6689961552634368e-01
      5.4332774401728949e-02 1.4519022186176453e+00
      3.5339829378210208e+00 8.1502122586445946e-01
      -2.2339928750402032e+00 -1.6758011754870356e-01
      2.5246379837848065e-01 3.2430156468465010e+00
      -6.4564438697202098e-01 9.9009626551098096e-01
      -6.3361478032106522e-01 6.7935843628156156e-01
      2.3878314931465838e+00 3.4105101033044494e-01
      8.3751710685304059e-01 1.4652981309168169e+00
      9.5743215779882762e-01 -5.7245514161551803e-01
      -3.1478803305218644e-01 -1.8256268262663184e+00
      3.6764187893644480e+00 5.5880114634055666e-01
      -3.0198692941909866e-01 -1.3250168158035198e+00
      -1.2253864867509114e+00 1.7884738128213304e+00
      1.5569583250240410e-01 -2.8920229566103419e+00
      -6.9807505293696370e-01 1.9155116732616704e+00
      -1.9253446324847021e-01 -1.2660564075349439e+00
      -8.6482656425328075e-01 5.7398123917890120e-01
      -7.6778828270252497e-01 1.6857243235811514e+00
      -4.3846359992518593e+00 -7.4652849120196552e-01
      1.6989687733200693e+00 4.4256100969941170e-01
      4.0890472294850309e+00 9.2689114325066713e-01
      -2.8276008595893298e-01 -1.8686632477534202e+00
      -1.2823567192036676e+00 -2.5861206791678253e+00
      1.8072363887406642e+00 -3.7963519996452211e-01
      -3.5408330516076303e-01 -8.6271722141602869e-01
      -8.6861038289595427e-01 3.3713491968327391e-01
      -2.9211333419951022e+00 -1.6175311771176590e+00
      -5.3332511727765997e-01 3.5060137990612885e+00
      5.9131706530418049e-02 -5.4495020036325514e-01
      3.6558453565780152e-01 1.1590082976621954e-01
      -3.0099147090238570e-01 1.2093753542687566e+00
      -9.0288178900284988e-01 1.8447755457219639e+00
      -1.0504321427023353e+00 5.3031014687660838e-01
      2.5007618544139745e+00 -7.8878024236008881e-01
      -3.1435166699384171e-01 2.2526585102834944e+00
      5.9795963469099833e-01 -2.0690261759893125e+00
      8.5778941121225249e-01 1.2032699665445106e+00
      1.3468486529269934e+00 4.9151809858289147e-01
      -6.6083311119683208e-01 3.7566600564974753e-02
      9.7899446682687213e-02 9.7299726399917308e-01
      2.3478169175456567e+00 -7.1199293613600931e-02
      3.3198767947326879e-01 -9.1179964099903554e-01
      3.5962611704573000e+00 -4.5180264750467874e-01
      -1.8929615895247289e+00 1.5551245606470265e+00
      -2.7869693532195083e-01 -8.2011219507925992e-01
      4.7430314785330063e-01 -1.2379199839518501e-01
      -2.4930278354141562e+00 7.5602585604661077e-01
      -1.3922658482283737e-01 -2.0590899961224829e+00
      -3.4633759586380386e-01 -1.3544993169307735e+00
      -1.7427310154670315e+00 -1.3526925147073350e+00
      1.9563734135865991e+00 9.3317300989188709e-02
      7.0659381628852713e-01 -1.3460961389082018e+00
      4.3091095493816822e-01 7.3589564290628817e-01
      1.3620453743360544e-01 -1.1472673622293394e-01
      1.4901138648360451e-01 -1.1808574984078206e+00
      -3.2984058612812830e+00 1.0780105435984362e+00
      6.4907352190772460e-01 -3.1360376154090974e-01
      7.8156332230863823e-01 -9.3105881902207210e-01
      -4.4962787888669870e-01 -9.6240833424045080e-01
      -6.5607153322588263e-01 4.7472726454824965e-01
      -8.1081464163586769e-01 -7.0423639087594725e-01
      -8.1797649537650141e-01 3.0502818066079942e+00
      -1.1999263331510197e+00 -9.0587683226363613e-01
      -8.0734248012517149e-02 -1.2710695598116626e+00
      -9.9144237926759204e-01 -8.1833342634655870e-01
      1.8651824173499401e-01 -1.1193855571988518e+00
      -6.9294449941666514e-01 6.1576629509066283e-01
      -1.4168792925285381e+00 -3.6683556631036540e-01
      2.1612243959720439e+00 9.2638194363507365e-01
      1.4090635222321574e-01 -2.2420815797138798e+00
      6.8313775011165645e-02 -1.6820219922426121e+00
      3.8936676373284268e-01 2.4263530581504691e+00
      -1.2058884722522418e+00 2.6953716502566918e+00
      -9.2085459401189385e-01 -3.4763852203449090e+00
      -2.7063625260300117e-01 -8.6665033970858385e-01
      -9.7391963370251600e-01 6.8831943469543133e-01
      2.1148812013652507e+00 -2.3975556549266046e+00
      6.7529140938202570e-01 2.3284853637559615e+00
      -2.5820518124129603e+00 2.3491308696155828e+00
      3.1346994112750315e-01 4.9258726560822008e-01
      -1.9158219442427666e+00 -1.7267590179745318e+00
      1.0880684172615243e+00 1.8226248750549423e-01
      -2.0395098132181642e+00 -5.5161659039830679e-01
      -7.4512254241347708e-01 -1.0905583833696568e+00
      -4.4308923750851475e-01 -1.1036895630763666e+00
      9.8818714180089628e-01 -7.1506366314819025e-01
      -5.1999741844657651e-02 -2.3777207860130551e+00
      2.7614202378101110e-01 9.7779081998634543e-01
      3.5738150457554557e-01 1.1718771179801607e-01
      -3.1948388527171373e-01 -3.5496734774512562e-01
      1.8983128224101964e+00 -1.5314036239090596e+00
      -3.7885490911427219e-02 9.5602623396509406e-02
      -2.2146298355807245e-01 1.5861109229206554e+00
      1.4865767489202120e+00 1.3962786346931042e+00
      1.4759287321194825e+00 2.9522412155630852e-03
      -4.7893772879290075e-01 -1.3370748965054762e+00
      -7.0160425872865806e-01 -2.6219567726037472e+00
      6.3752691070444245e-01 7.7313045534618730e-01
      1.5006928025416673e+00 -3.0716117216059113e-01
      -2.6739910489797554e+00 -2.3975207848671327e+00
      -7.5773512309432223e-01 1.2446361429218387e+00
      2.1733014434363063e+00 3.1107713340163456e-01
      1.3815177753242607e+00 1.3738007657149403e+00
      -4.7745109822619830e-01 -1.2623437846888923e+00
      2.1909540563010470e+00 1.6672717987192192e+00
      8.4812975017838932e-01 8.9577999459034663e-01
      4.9146898331294075e-01 2.0827918901671700e+00
      -1.3594244442289141e+00 -4.5128395057108944e-01
      -2.0009767699274512e+00 1.4293094366520802e+00
      -2.2661936641780103e+00 -7.3763111241575507e-01
      -2.0354952914113551e+00 8.7684088679369887e-01
      -2.0369082827783842e+00 -2.2684600754511799e-01
      7.1846970183365144e-01 -4.2342911769242925e-01
      7.6417381103311566e-01 -1.9730060441306758e+00
      -1.8883332078237267e+00 -1.1846178311808948e+00
      2.8448717405549784e-01 -6.4472933944253930e-01
      -1.2896031202419960e+00 -8.3585804464371871e-01
      9.7046886568184054e-02 -1.5507323593661093e+00
      -8.5656376828584568e-01 3.6059685267135794e-01
      7.0448764437440270e-01 1.1042991695065554e+00
      -5.7300302127065328e-01 7.0041691234745587e-02
      2.0890861451738334e+00 -5.9145231292832379e-01
      1.1376281319375832e-01 -2.3627884244312312e+00
      9.0558468482931564e-01 3.8886259254371786e-01
      -1.3843971533774464e+00 1.0316626871084521e-01
      -1.1531334283690695e+00 -7.4292869772950676e-01
      -6.5573325266579408e-01 1.9155521965410820e+00
      8.8151456891043134e-01 1.2754270435366604e+00
      -2.3522525902307452e+00 -2.8405912226604695e+00
      -2.4951215565975363e-01 -1.7650095260413745e-01
      -5.5074660568653906e-02 6.3825936184460674e-01
      1.1799395794403977e+00 -2.5670865240531500e+00
      -9.0296932381164108e-01 -5.2554957756787379e-01
      -3.4663786484656972e-01 -6.1915472279920480e-01
      -1.4127729142307930e+00 -5.2943814449682636e-01
      -9.1794396046625093e-01 -1.1344510386452225e+00
      -1.0465925691037574e+00 4.4489401148447638e-01
      -9.1633685980246959e-01 2.0807789490420734e+00
      -9.5365493676726254e-01 -1.0986463149112093e+00
      6.6866195779059900e-01 -3.3129706348320342e-01
      5.0581400919555142e-01 5.5401071314214057e-01
      -1.7314441804645453e-01 -1.4761112849425689e-01
      8.7278401036302311e-01 2.0396056858828544e+00
      1.4589502566689808e-01 7.7160271970399402e-02
      -9.1015600853766776e-01 2.2829002928096576e-01
      -2.1067954330844962e-01 2.2360535103888166e+00
      8.8030489926101896e-01 -5.0111937632441206e-02
      1.0308547713461562e-01 8.7571432617590012e-02
      -2.3981376376445662e-01 -2.5207283506261030e-01
      9.1874114390207606e-01 4.5946972338173647e-01
      2.2854812362793195e-01 3.4138741456885624e-01
      1.0945719615919225e+00 -4.3660200969119978e-01
      9.8124879287457145e-01 8.2468820536180398e-01
      -8.1266486050363143e-02 -5.0101991594979822e-01
      -5.7891458740734780e-01 -8.6746312141526261e-01
      1.9353227663881684e-01 3.3371796717005664e-01
      5.5482751852018364e-01 1.8816891993289489e-01
      3.3527994495444990e-01 -7.7559431073210094e-01
      1.5337709573120023e-01 -8.9553677336902515e-01
      -1.1993889160021456e+00 -7.8458714066652135e-01
      -1.1949172042857057e+00 -6.4067931949334989e-01
      9.4045267776290553e-01 -3.3395439941588129e-01
      -2.6304841882296994e+00 9.1030844367859765e-01
      -1.7341800301658579e+00 -1.2075342848217638e-01
      9.0756256271820501e-01 1.4586332883057895e+00
      1.1284962305986248e+00 -1.3699772538061157e+00
      -4.8722449537071977e-01 7.3525226133512156e-01
      -6.1889877815816696e-01 -1.6336984212607992e+00
      1.2308802372015131e+00 -5.8612185239373016e-01
      -2.5749841091076658e-01 1.2406975647727236e+00
      5.9635613787207986e-01 6.4776719712829622e-01
      -6.3009469641733401e-02 -1.0941929186698136e+00
      -1.3666956384522206e+00 -2.6114491493887559e+00
      2.2958652292717581e+00 -1.6266276760767506e+00
      -1.3138306589729387e+00 -4.5913495380742228e-02
      9.3090226417427049e-02 -4.9964792736027824e-01
      3.0143222173197054e-01 2.4050044486336275e-01
      1.3609857984114098e+00 -1.3151672843567913e-01
      1.1526683911835698e+00 -5.9333473857275587e-01
      1.2188347472213175e+00 6.6985739028509084e-01
      6.5336077532762615e-01 1.7828050470910416e-02
      2.6043999032583093e-01 -1.1376101995920338e+00
      5.2693179683245073e-01 1.9179912259918059e+00
      -4.7104782479672674e-01 1.4502293812234026e+00
      8.7196387326117908e-01 4.5056264704095461e-01
      2.1254163933426664e+00 7.4429057783862096e-01
      -1.3004122034661772e-01 -4.5743220416826103e-01
      4.4259495522382403e-01 -6.2058554015314504e-01
      -1.0317226040963445e+00 -2.6126306768687063e-01
      -5.7348913516572881e-03 -3.0989533363893684e-01
      -1.2682088778243019e+00 1.0358077000487447e+00
      -1.2096486424861215e+00 1.1947220332885473e+00
      -2.5667900416558670e-01 -5.4017936874960215e-01
      -2.3895898764014559e-01 5.4638443072215503e-01
      1.0233830804803742e-01 -1.1810734098457636e+00
      -5.2984785769813580e-01 -6.0979625691781857e-02
      -1.0365307451224648e+00 -3.0839683826506232e+00
      6.5836658602021125e-01 2.6674474273129967e+00
      -1.2363556042604520e+00 -1.4546270513726775e-01
      1.4717039849214379e+00 2.4007646615277012e-01
      1.0486711002246181e-01 -3.9129419799943949e-01
      -1.5486317964381964e+00 4.3475992574431144e-01
      7.6355546198653257e-01 2.8896077607931830e-01
      -8.9841895417735718e-01 3.3208474061415938e-01
      1.7209233596482956e+00 1.6205753429161521e-01
      -1.1027279440965756e+00 1.9625400938066921e+00
      7.0724142846582538e-01 4.0693626581288713e+00
      3.0721685344073851e-02 -3.1177547227591074e-01
      1.7263063744233496e+00 1.5099575070738518e+00
      -3.0342977802591706e+00 -1.2469428859605907e+00
      -2.1355640594716827e+00 2.2959698893888985e+00
      -3.6219967599412142e+00 -6.8478251606908858e-01
      1.6151650037028360e+00 1.4027190070151689e+00
      -2.3734596348533188e+00 -4.2510946195948934e-01
      3.9889883675755735e+00 -1.9931376095793731e+00
      1.3118430487014934e+00 -7.7386004070346404e-01
      -1.2935167549300157e+00 -1.0454734109835415e+00
      -7.3221186933949667e-01 8.2146995322746774e-01
      8.2388504359561454e-01 2.5392353587139267e+00
      1.8165482702030027e+00 -3.8302055217195372e+00
      2.1224783107156855e-01 -1.5329098451521067e-01
      -1.6183965639574165e+00 -1.8338806411716644e+00
      -1.8101956211095911e+00 1.7335186116400902e+00
      1.1044082242219375e+00 4.2519078916753118e-03
      1.4905212054006769e+00 -1.5334174885702858e+00
      1.2947928525450429e+00 8.2913794443442268e-01
      -8.2705318606716399e-02 2.3335920623245038e-01
      4.2977641246855963e-01 -8.0272150135888531e-01
      2.7238528485572258e+00 2.1246918331431086e+00
      -2.0196399254735667e-01 -2.0327598811411662e+00
      1.2618765771446330e-01 7.8011273886002552e-01
      1.9015949722362591e+00 -4.3250372902057563e+00
      1.2198399546326102e+00 -1.2251548321683599e+00
      2.7793076023312295e+00 -6.3595318531751888e-01
      -1.7761949048609105e+00 1.2207160567735520e+00
      2.7453631692658642e+00 -1.1150459963284585e+00
      -2.4389446973109390e+00 -1.1820830479821072e+00
      5.3221688677856938e-01 -1.9546299989149853e+00
      -1.5862194532844904e+00 1.2767383832988352e-02
      -1.1865910119474992e+00 -1.0292357489670516e+00
      1.9011802093427927e+00 1.5187729080474008e+00
      4.1533502457149890e-01 2.5562722120964247e+00
