<?xml version="1.0"?>
<opencv_storage>
<opencv_ml_ann_mlp>
  <format>3</format>
  <layer_sizes>
    108 62 31</layer_sizes>
  <activation_function>SIGMOID_SYM</activation_function>
  <f_param1>1.</f_param1>
  <f_param2>1.</f_param2>
  <min_val>-9.4999999999999996e-01</min_val>
  <max_val>9.4999999999999996e-01</max_val>
  <min_val1>-9.7999999999999998e-01</min_val1>
  <max_val1>9.7999999999999998e-01</max_val1>
  <training_params>
    <train_method>BACKPROP</train_method>
    <dw_scale>1.0000000000000001e-01</dw_scale>
    <moment_scale>0.</moment_scale>
    <term_criteria>
      <iterations>30000</iterations></term_criteria></training_params>
  <input_scale>
    1.1777843271045381e+01 -2.7522417966709298e+00
    9.7322473204941780e+00 -1.5478208710615546e+00
    1.2131290111005502e+01 -2.8003035692927933e+00
    1.2153864566413059e+01 -3.1295081324465874e+00
    8.7434557630104877e+00 -1.4178508906707459e+00
    1.3243227118697401e+01 -3.4865541887929083e+00
    1.7984701049327704e+01 -5.9207932389941282e+00
    1.3772871612867023e+01 -4.3302369637033777e+00
    1.5102680417527719e+01 -4.8450878028569129e+00
    2.1476293312746101e+01 -7.2355250173651715e+00
    1.1461399323697268e+01 -3.4864384132136341e+00
    1.8124741055320197e+01 -6.0000456072442345e+00
    1.1558873408604660e+01 -2.7468515401120874e+00
    9.1251227468629867e+00 -1.2334107931751688e+00
    1.1238401070467717e+01 -2.7271895793936030e+00
    1.2828745198633987e+01 -3.5941872436831175e+00
    9.4547263264835255e+00 -1.1918742305524279e+00
    1.2274355231139095e+01 -3.1831956575980493e+00
    1.9218934104007374e+01 -6.4933397378946918e+00
    1.0129907980495389e+01 -2.8845784052248296e+00
    1.7298838731135934e+01 -5.7847818031161324e+00
    2.0591466101745127e+01 -7.0128732707256951e+00
    9.7668777871574086e+00 -2.7582878313600445e+00
    2.0910064157616269e+01 -7.1279515076658209e+00
    1.2625829410598650e+01 -3.4419250875827281e+00
    1.0469595626626521e+01 -1.0213239871345221e+00
    1.2071219749279363e+01 -3.0833700504418680e+00
    1.1233679007014214e+01 -3.1150515613556009e+00
    1.0414404281305583e+01 -1.2829049792356573e+00
    1.2428690507971268e+01 -3.3574014383585125e+00
    1.9180637835977357e+01 -6.5836382962100384e+00
    9.3846758945504991e+00 -2.2496073378851675e+00
    1.9060534049508590e+01 -6.5274343720088766e+00
    1.8885479772652367e+01 -6.4749752897711534e+00
    1.1310934558682115e+01 -3.1646461171091844e+00
    1.9832076649609483e+01 -6.8161886475923881e+00
    1.5901934794091106e+01 -4.4033083609551591e+00
    1.3618476761550333e+01 -3.8386725047984345e+00
    1.4071007008537240e+01 -3.7118796640574940e+00
    1.7981873959412699e+01 -5.1431851955707915e+00
    1.2046598069123412e+01 -3.3474195801530069e+00
    1.6821306818984098e+01 -4.7111877979742189e+00
    1.5094010366594203e+01 -4.1289684291458437e+00
    1.3792170454497656e+01 -3.9480793064711870e+00
    1.8158234699973189e+01 -5.1861448847826610e+00
    1.7481973397880918e+01 -4.9400142453073075e+00
    1.1266343583917729e+01 -3.0648684376870903e+00
    2.0647168541435221e+01 -6.1029427531808818e+00
    1.5137431888596343e+01 -4.1779188222497909e+00
    1.1020823381304286e+01 -2.9003035933959835e+00
    1.4545400139557756e+01 -4.0240570965301998e+00
    1.6993792306630041e+01 -4.9220840047025236e+00
    1.0704310369296003e+01 -2.8080582978606636e+00
    1.7154300569868131e+01 -4.9596017795326883e+00
    1.5690311789229360e+01 -4.4177478120523777e+00
    1.0518014273002850e+01 -2.7523694823287794e+00
    1.7631008446677221e+01 -5.0650840436875830e+00
    2.1490179970899963e+01 -6.4304464809030968e+00
    1.0226427734922311e+01 -2.6601534649343006e+00
    1.9899133313846960e+01 -5.8886524362024737e+00
    1.5021705741821769e+01 -4.3783411797773519e+00
    9.8870585555795252e+00 -2.1053903078039951e+00
    1.5422180123769698e+01 -4.4618849816691677e+00
    2.0108389687384896e+01 -6.1059906366486505e+00
    1.1163808492031468e+01 -2.7711876419520913e+00
    1.8973488636300033e+01 -5.6698302454409824e+00
    1.7686987830313615e+01 -5.2698236404715431e+00
    9.5473028058682559e+00 -2.0806881131539012e+00
    1.7722241570853679e+01 -5.2484857666829416e+00
    2.5603550768030747e+01 -7.9840633513897252e+00
    1.0385872962775068e+01 -2.5871927867639490e+00
    2.3971771545288963e+01 -7.3626995785291465e+00
    1.3638961504626797e+01 -4.4587396794620506e+00
    1.1113025593567654e+01 -3.3317591430571389e+00
    1.7021195746264514e+01 -5.8317679145349786e+00
    1.7614963748198445e+01 -6.0572156094515393e+00
    9.1469734600523367e+00 -2.5230082806804663e+00
    1.8198918072618909e+01 -6.2645246330453412e+00
    1.0173093384413910e+01 -2.2698133799051341e+00
    9.7284754174992951e+00 -1.2166284969640806e+00
    1.0921119761790525e+01 -2.6600407412840106e+00
    1.0758252048393565e+01 -2.8275716907869137e+00
    9.2797948002484389e+00 -1.0734049134825059e+00
    9.5695367785568468e+00 -2.4841579415889838e+00
    1.5273570733978625e+01 -5.1863651516791904e+00
    8.5491357573723494e+00 -2.1484568343749038e+00
    1.5529312079870440e+01 -5.3857695425102019e+00
    1.8839796431350944e+01 -6.6582630012460626e+00
    8.1538942721643171e+00 -2.1656946037584843e+00
    1.6740193644531249e+01 -5.8388302667763652e+00
    9.5272465310639642e+00 -2.3400423287694641e+00
    9.7458158715741767e+00 -9.5728113244058799e-01
    1.0139310040485984e+01 -2.4434425096170957e+00
    1.0929134228098869e+01 -2.8494677563193327e+00
    9.3414426051642732e+00 -1.0632401233913542e+00
    1.0378355730327254e+01 -2.6994944027558154e+00
    1.5989988225060603e+01 -5.6633227882806372e+00
    7.5893586734896745e+00 -1.8410822150571997e+00
    1.5905296264743644e+01 -5.5868693038946988e+00
    1.6331697157419189e+01 -5.6820173126784059e+00
    9.1380945868073926e+00 -2.4093256100364648e+00
    1.4351964118381769e+01 -4.8787088357756758e+00
    9.9797232346401774e+00 -2.5096602530024175e+00
    8.6605850863266003e+00 -9.7735106198795552e-01
    1.0385579179228579e+01 -2.5565713102360430e+00
    9.2624480279978272e+00 -2.2348711540343755e+00
    9.1002627103830758e+00 -1.0775681349459276e+00
    8.6069425256093552e+00 -2.0744420955816838e+00</input_scale>
  <output_scale>
    5.2631578947368418e-01 4.9999999999999994e-01 5.2631578947368418e-01
    4.9999999999999994e-01 5.2631578947368418e-01 4.9999999999999994e-01
    5.2631578947368418e-01 4.9999999999999994e-01 5.2631578947368418e-01
    4.9999999999999994e-01 5.2631578947368418e-01 4.9999999999999994e-01
    5.2631578947368418e-01 4.9999999999999994e-01 5.2631578947368418e-01
    4.9999999999999994e-01 5.2631578947368418e-01 4.9999999999999994e-01
    5.2631578947368418e-01 4.9999999999999994e-01 5.2631578947368418e-01
    4.9999999999999994e-01 5.2631578947368418e-01 4.9999999999999994e-01
    5.2631578947368418e-01 4.9999999999999994e-01 5.2631578947368418e-01
    4.9999999999999994e-01 5.2631578947368418e-01 4.9999999999999994e-01
    5.2631578947368418e-01 4.9999999999999994e-01 5.2631578947368418e-01
    4.9999999999999994e-01 5.2631578947368418e-01 4.9999999999999994e-01
    5.2631578947368418e-01 4.9999999999999994e-01 5.2631578947368418e-01
    4.9999999999999994e-01 5.2631578947368418e-01 4.9999999999999994e-01
    5.2631578947368418e-01 4.9999999999999994e-01 5.2631578947368418e-01
    4.9999999999999994e-01 5.2631578947368418e-01 4.9999999999999994e-01
    5.2631578947368418e-01 4.9999999999999994e-01 5.2631578947368418e-01
    4.9999999999999994e-01 5.2631578947368418e-01 4.9999999999999994e-01
    5.2631578947368418e-01 4.9999999999999994e-01 5.2631578947368418e-01
    4.9999999999999994e-01 5.2631578947368418e-01 4.9999999999999994e-01
    5.2631578947368418e-01 4.9999999999999994e-01</output_scale>
  <inv_output_scale>
    1.8999999999999999e+00 -9.4999999999999996e-01
    1.8999999999999999e+00 -9.4999999999999996e-01
    1.8999999999999999e+00 -9.4999999999999996e-01
    1.8999999999999999e+00 -9.4999999999999996e-01
    1.8999999999999999e+00 -9.4999999999999996e-01
    1.8999999999999999e+00 -9.4999999999999996e-01
    1.8999999999999999e+00 -9.4999999999999996e-01
    1.8999999999999999e+00 -9.4999999999999996e-01
    1.8999999999999999e+00 -9.4999999999999996e-01
    1.8999999999999999e+00 -9.4999999999999996e-01
    1.8999999999999999e+00 -9.4999999999999996e-01
    1.8999999999999999e+00 -9.4999999999999996e-01
    1.8999999999999999e+00 -9.4999999999999996e-01
    1.8999999999999999e+00 -9.4999999999999996e-01
    1.8999999999999999e+00 -9.4999999999999996e-01
    1.8999999999999999e+00 -9.4999999999999996e-01
    1.8999999999999999e+00 -9.4999999999999996e-01
    1.8999999999999999e+00 -9.4999999999999996e-01
    1.8999999999999999e+00 -9.4999999999999996e-01
    1.8999999999999999e+00 -9.4999999999999996e-01
    1.8999999999999999e+00 -9.4999999999999996e-01
    1.8999999999999999e+00 -9.4999999999999996e-01
    1.8999999999999999e+00 -9.4999999999999996e-01
    1.8999999999999999e+00 -9.4999999999999996e-01
    1.8999999999999999e+00 -9.4999999999999996e-01
    1.8999999999999999e+00 -9.4999999999999996e-01
    1.8999999999999999e+00 -9.4999999999999996e-01
    1.8999999999999999e+00 -9.4999999999999996e-01
    1.8999999999999999e+00 -9.4999999999999996e-01
    1.8999999999999999e+00 -9.4999999999999996e-01
    1.8999999999999999e+00 -9.4999999999999996e-01</inv_output_scale>
  <weights>
    <_>
      1.1691465480568308e+00 7.1089293187195912e-01
      -1.0519587146584495e+00 4.2274356922036510e-01
      -1.2808632479742392e+00 1.3071417660973279e+00
      4.6029332344609813e-01 7.2292040641595301e-01
      -1.4733864361515772e+00 5.6091252760793930e-01
      1.3791042658673294e+00 -1.4634557274243727e+00
      -6.7756490257644006e-02 -1.8473631362157183e-01
      8.5989269178572547e-01 -5.5827332540526786e-01
      -4.2423685657341098e-01 4.6487295969140904e-02
      -8.7272929945087141e-01 1.0213525275313153e+00
      3.0960281739106577e-01 6.7842119403128065e-01
      5.4490276692611772e-01 -1.1920921367996595e+00
      -9.0639431827543515e-01 1.0873039671605298e+00
      7.0421407158922900e-01 -3.4279216199343038e-01
      6.7919821013417564e-02 1.0846966377110800e+00
      1.7201305436462860e-01 -2.2162096280597463e-01
      -6.3812716535733380e-02 -6.9284366764991390e-01
      3.0625682667493009e-01 -1.5192682852884813e+00
      -8.0278861816330838e-01 -1.4131151155188337e+00
      -1.0656968994512330e+00 -1.2708916378787847e+00
      6.5604375525068714e-01 1.1553236512798468e+00
      -4.3725980382188501e-01 -6.1222083710438947e-02
      4.1906358431175156e-02 2.5822818462764757e-01
      2.3667023396458902e+00 -1.6951653140276419e+00
      -4.4896934413048101e-01 -9.4753788857839039e-01
      6.4627871572473006e-01 -1.6154857410792260e+00
      -1.0987797293142112e+00 -8.9698767959925041e-02
      -6.1109211525714546e-01 5.3893936536761988e-01
      6.1590228771558904e-02 5.3261815558626580e-02
      4.3299352665864771e-01 9.2232884149603706e-02
      3.0374685249820355e-01 -9.7722120625961173e-01
      -2.6084552808701406e-01 -1.4017776768653101e-01
      6.4165323724853141e-01 1.2151943551307858e+00
      6.5895312188630562e-01 -4.1373819178591431e-01
      5.6733061210316282e-01 -1.4130970480433439e-01
      1.1751049544343022e+00 -3.0274828465800013e-01
      2.5783898895275909e-01 -2.4700487584619879e-01
      -1.8655627280813467e+00 -1.0789743983713003e+00
      1.7028213277252394e-01 -8.2617675071205904e-02
      3.0152067607283956e-01 -8.0529550146197637e-01
      -2.5155895832550973e-01 1.4601579149388111e+00
      -4.1683235083947701e-01 7.7202258623617459e-01
      -1.1343955762424771e+00 5.6421119525894614e-01
      8.7921922034329214e-01 -2.6247659443683724e-01
      -1.9282174624310169e-01 -1.4204293070456369e+00
      2.9240804454819708e-02 -2.1732477956958980e+00
      -3.1576915544771966e-03 -3.3253861188747480e-01
      6.3477005942767284e-01 -7.6890095042638917e-01
      1.2795221251201017e+00 -2.0995757140853883e+00
      1.8707358406294300e-01 -1.1586467614646971e+00
      -1.0818265595780172e+00 1.0919718866022214e+00
      -2.5365444736505427e-01 -6.8891549042641997e-01
      -1.3179234807052367e+00 1.7706923846940321e+00
      -1.3160284751588511e+00 -1.7774356949401902e+00
      -2.8164905378970837e+00 1.9423296484002295e+00
      1.3100921196920204e-01 -5.2524072955206524e-01
      -2.8407074966221518e-01 -1.6148449585125502e+00
      -5.4368038786911665e-01 3.1104290464529882e-01
      3.7292260181287751e-01 7.7832984582865383e-01
      3.9507975037952170e-01 6.5775037417920079e-01
      -2.3322604729396201e-01 6.1342356382448830e-02
      -1.7206211218376453e+00 -1.3518694726963936e+00
      1.1617908814246514e+00 -2.3765563730935352e-01
      4.5159555994386293e-02 -3.2574631928348480e-01
      -3.4579424908533907e-01 7.4956007521673373e-01
      -5.9529622726996045e-01 -4.4373567757316651e-01
      1.8905512246133471e+00 5.6437682730405458e-01
      -5.3058005290171284e-01 7.7274566521994303e-01
      -1.6498392994317745e+00 5.4552154035690836e-01
      -5.0131800242762437e-01 5.5103265739061580e-01
      -7.1308325718285936e-02 -1.8227264406557764e-01
      5.5105530800649360e-01 4.1919598468434897e-02
      4.8019361568269048e-01 -6.1448296128599411e-01
      5.7419218009149109e-01 -1.9048144887312515e-02
      2.2594855605455394e-01 -1.1812142831786343e+00
      -3.7450042963219637e-01 1.3700364137053760e+00
      5.9757643097216140e-01 1.6185049454555261e-01
      1.0798288908369243e-01 7.8122997270811290e-01
      5.1281828719818379e-01 7.3747238826111750e-01
      1.1513600277607225e+00 6.9730638665357747e-01
      -1.0168630131073806e+00 5.0047044034840771e-01
      8.6584662740101592e-01 7.5025987966893048e-01
      -4.6458434068710850e-04 2.7160692833378025e-01
      3.1204051179996328e-01 1.4605257581492936e-01
      -4.9457228404119835e-01 3.9969495209103578e-01
      -6.2217826431313639e-01 1.7755795305180549e-01
      -9.7288107209323113e-02 5.0476477766703354e-01
      8.1078703186984846e-02 6.6736499669294702e-01
      3.3208550382697627e-02 5.3456631438018387e-01
      1.1968531843937329e+00 8.8026998337037055e-01
      -1.3663272832270940e-01 -5.0566512465570523e-01
      -1.8056162370928412e+00 6.2706347539920426e-01
      4.3158865941173613e-01 9.1046747232958125e-01
      1.1748962199052038e+00 -1.1317825280078826e-01
      1.4278895601108534e+00 -2.9162305452910538e-03
      2.6555628640773357e+00 3.0827299275551462e-01
      1.1758410434946378e+00 6.5503449363802546e-01
      8.6306440838938547e-01 -1.6056115407298044e-01
      -6.2341987812163518e-02 9.0529493546868367e-01
      -4.4138919589643416e-01 -3.6778784872945092e-01
      -7.5821863378535348e-01 2.9936438845010288e-01
      3.7609695060410353e-01 -2.9524053056206234e-01
      1.4563446632314281e-01 1.7804987356917387e-01
      3.1179619081191073e-01 -1.0089514307551363e-01
      7.7756878261345183e-02 -4.8911172950555615e-01
      4.0744689324387545e-01 -3.1082434288150734e-01
      9.8913402825812324e-01 -5.0767999260328645e-01
      3.8155098020210210e-01 -6.4164133459870143e-01
      -1.9514273864619083e-01 -2.5478338247051857e-01
      1.4445886955412202e+00 -2.6247367237194563e-01
      -1.5144822792874448e+00 1.9183643644457842e+00
      -5.3782009248196150e-01 9.9685616982790448e-01
      -1.8749930776063277e+00 6.0881466333931999e-01
      -2.8796072072707091e-01 -7.9012040319940158e-01
      -2.2271879396962266e-01 -1.4114122621728031e-01
      3.7660744800509210e-01 -2.1021387680753425e+00
      -1.3603968261923425e+00 -1.7294603743486414e+00
      8.5582151473346768e-01 -2.0440584268529058e-01
      2.3727091193801478e-01 1.3845786046482826e+00
      7.6245475544437780e-01 1.9859169409052102e+00
      4.7087926010683445e-01 -7.0771726604792506e-01
      2.4004135424841824e-01 -2.7636708869331873e-02
      -1.5549629951906365e+00 -1.3201305663633502e+00
      -6.1512010602414313e-01 1.6615023559001822e+00
      -7.6008798752225049e-01 -1.1687656572817826e+00
      -2.3874944222456767e-02 2.1497381675142122e-01
      -1.9717340903850460e+00 1.2756277421796872e-02
      1.5547571474141937e+00 -1.1357954830269748e+00
      -1.6217519250484919e-01 1.5265609378183342e-01
      5.7778974847935105e-01 1.4328575728721138e+00
      -1.2020240420385346e+00 -1.0300459455579103e+00
      -1.4253004961495499e+00 1.1356449996219606e+00
      -9.7704630568981687e-01 1.9716964927913300e-01
      -8.8829241873855702e-01 -1.8653215114339552e+00
      8.7691962074777807e-01 2.4661198252376101e-02
      1.3423913441538442e+00 1.9397862785399525e-01
      -6.7003406458004755e-01 1.7419484385837669e-01
      -6.4945871819106793e-01 1.1635968818396962e+00
      -2.5257958671393381e+00 -7.2403733283656757e-01
      2.7528089900311736e-01 7.3395803841191354e-01
      2.1499136857017548e-01 9.5094219273150538e-01
      -6.3716398217739167e-01 -7.9945898335361720e-01
      -2.6492877934063692e+00 -3.4752355014626901e+00
      -6.3590754248988648e-02 1.2862648757737833e+00
      1.7487311808099879e+00 -1.3783632890336436e-01
      7.0780514372236136e-01 -2.1591998300859250e-01
      9.0006743584755466e-01 -1.9998524846155681e+00
      1.2927039589569793e+00 7.4157748273735979e-01
      1.3196327402447430e-01 -5.5257638878989479e-01
      -2.2805735135398142e-01 5.8125178289558899e-01
      3.2041078325062271e+00 -3.8603156130641836e-03
      -1.3299205819100766e+00 3.3606917552322380e-01
      3.1087904010280443e-01 -1.6082075586768734e+00
      -1.1276732044828355e+00 1.6693376640215304e-01
      -1.1803896830359861e+00 -1.4582385426558455e+00
      6.5137799546019992e-01 -5.9728806238337172e-03
      -5.9534748631367529e-01 5.3646084129286964e-01
      7.9970495844582101e-02 -9.6995675639713716e-02
      8.2836013378896090e-01 1.2617951498038056e+00
      4.3072724122103900e-01 -2.5759414603519937e-01
      6.6606839528325179e-01 1.4219056372572949e+00
      9.2219393933684601e-01 -3.6993768888355039e-01
      -2.1429483969181895e-01 -3.0097145237404704e-01
      7.6471341740151555e-01 2.3009992289998871e-01
      8.7963270982182629e-01 1.6266154696661808e-01
      7.9770437299464358e-01 1.5677085476179209e-01
      -1.2877233385689077e+00 1.3120728051954702e+00
      6.0878221976578173e-01 4.4787986222912246e-01
      1.1874236790022668e+00 2.0750963024456137e-01
      8.7476885774555568e-01 -1.9310073925167867e-01
      -7.2776953037982162e-01 -1.1102548506039502e+00
      -6.3955741978910552e-01 -2.7624053856736237e-02
      -2.6476653487623414e-01 1.2592896457441607e+00
      -8.6912393768233931e-01 -2.3498285856526044e-01
      4.9128940786869274e-01 4.8839743358178311e-01
      -1.0613063628103729e+00 -2.7033663157013005e-01
      5.5261306425732082e-01 1.4233258438655112e+00
      1.0810649603334881e+00 2.0464510720721960e+00
      -1.1380790458061802e+00 -2.0928111918190337e+00
      2.1672055017515521e-01 8.1132486181248187e-01
      -2.0685894526067075e-01 6.6652667504410540e-02
      1.7502513490534546e+00 -3.2942413179215930e-03
      6.8988254966830465e-01 -1.1117882261416716e+00
      2.5073836519107018e-01 2.7305243427167580e-01
      -7.4237754780874643e-01 8.0523730536062030e-02
      2.1735709284685573e-01 9.2340520236897594e-01
      1.7601757495494721e+00 2.2606065728571257e-02
      -6.6453618976979989e-01 3.5176341751599713e-02
      -2.7298967752927672e-01 8.2385259966354218e-01
      1.1771740801310577e+00 1.0415494400562033e+00
      1.1157470189286717e-01 -7.3936121618245088e-01
      9.1170761576306736e-01 6.5732368850893663e-01
      -3.7686001742193886e-01 4.0820701426579914e-01
      -3.8993273994128885e-02 7.4408021068806995e-01
      3.9668602504752082e-01 2.5510082353415092e-01
      4.5113643909721712e-01 -4.6376969159670695e-01
      1.7864705988560019e+00 -9.9764444982602549e-02
      -2.3278386352088792e-01 1.6210638655391840e+00
      -2.3293267918434779e-01 5.0763491631862812e-01
      3.3201806775151846e-02 1.2814332717793400e+00
      3.2336186649778881e-01 -1.5776558492422057e+00
      -7.1392422150301160e-01 4.5194023581343806e-01
      8.5963425162332607e-01 4.5599607100616840e-01
      2.5611515705105958e+00 6.6602659961424981e-01
      -2.3230016546719245e-02 1.7145616037847658e-01
      4.0644190782868356e-01 2.5474729927569686e+00
      -1.3716324850440138e+00 7.2391671824457904e-01
      -4.7734215143867248e-02 -1.7917458138093139e+00
      -2.9531164033081908e-01 -4.6700669836280334e-01
      1.1108416280143880e+00 6.3055176844064187e-01
      1.0148101030560400e-01 6.7240547651349170e-01
      3.2500847358245610e-01 -7.5558689691015102e-01
      2.3505184316404883e+00 -6.9932934401344160e-01
      2.6210333598311703e-01 1.2483691034977318e+00
      1.5378636706332316e-01 -2.3485561559181006e-02
      3.4710977339020371e-01 1.6967690004712166e+00
      1.4973334505587621e+00 1.5528289913076661e+00
      -7.1091260966979164e-01 -8.5908933537450882e-01
      -1.4501150316175841e+00 -1.8874830669675560e-01
      3.8008525834055401e-01 -4.0154870621675504e-01
      3.5436601543685893e-02 -1.0484446949438126e+00
      2.2943369113698004e+00 -1.2664586933056956e+00
      -6.0174138286316214e-01 7.9114666349934026e-01
      1.1922226340523481e+00 2.7057912747852786e-01
      -6.6941633303451675e-01 -8.7206896854466054e-01
      1.8726531158782372e-01 1.2834136066860362e+00
      -1.7088293038398183e+00 2.1320435193087481e-01
      3.9204342489488503e-01 3.7169827457116966e-01
      -1.3215901787891400e+00 -9.4664883650466214e-01
      -8.9090452000584575e-01 -4.3080809678273557e-01
      4.4558576111882137e-01 1.4245323993958365e+00
      -2.5820399175198277e-02 1.7797508932998369e+00
      2.4569532956109145e-02 -7.6872227509267721e-01
      8.8337365387754341e-01 1.3134305324938926e+00
      -9.6636885354619961e-01 2.0616784962110343e-01
      1.3845880711955281e-02 -1.0036235927505752e-01
      -9.8730550762628366e-01 1.1711535731468947e+00
      1.3316101237961311e+00 1.0261762302103847e+00
      -1.1880254239833654e+00 1.0391191163123632e+00
      -1.2812556198457443e+00 -1.1276085740238455e-01
      -1.7684064760726761e+00 2.1461269169583996e+00
      2.4572755152415532e-01 5.8434135026444345e-01
      5.9181632454401489e-01 8.1386357629219730e-01
      -1.1565411174855715e+00 -1.5653566765202176e-01
      8.0534335208162622e-01 -1.6422218688654495e+00
      -1.5017719421633340e+00 5.0079945508437196e-01
      -1.4921408650502526e+00 -7.9357214919890418e-01
      -1.6583166059860481e+00 1.7151157918310784e+00
      8.3379569230919603e-02 4.5960312448328089e-01
      -5.2411548165607513e-01 -7.4188530008202536e-01
      9.2805357034861458e-01 1.6062076747029183e-01
      2.4831412420232002e-01 1.3469084729905956e+00
      8.2765640362876658e-01 2.1346645906602429e-01
      -2.0792168795869556e-01 1.1756903995980443e+00
      -8.3840229070831093e-02 2.1974761524837352e-01
      -8.6206335829934300e-01 7.5489190793368355e-02
      -6.2496931313694060e-01 6.5201709992886925e-01
      4.6251194239418891e-01 -5.3182557479097015e-01
      9.2970325213418814e-01 8.0884040835514492e-01
      4.1425893545831832e-01 -1.3686387789932514e-01
      1.0322497787477090e-01 -3.3566792879480367e-01
      2.1880605680519594e+00 7.9259381013670671e-01
      -7.4430176835365702e-01 -5.6831043919206137e-01
      1.0078124173720389e+00 -1.5590474399218137e+00
      -6.2691277115874688e-03 -2.5567757956467635e-01
      -4.3078609244485744e-01 -7.4848418140108464e-01
      8.0227277264378261e-01 6.1959057885035362e-01
      -7.0124604413220115e-01 -4.5095452861802610e-01
      4.4301846121315896e-01 -8.0153467429853764e-01
      -5.6776445838692968e-01 -5.3030046262741681e-01
      -3.5132335939791488e-02 -1.5146057800795405e+00
      -7.9128869752758502e-01 3.9684273257039293e-01
      -6.9825623437420353e-02 6.2747543954342455e-01
      4.6481237038377926e-01 2.6833327560843956e-01
      -6.8186758065516295e-01 1.4611547724243745e-01
      1.6724233636549776e-01 1.7909718721468340e-01
      7.0152621559083272e-01 -2.6436684666083915e-01
      -9.6647080062372048e-01 -3.8587374184881057e-01
      -2.5054087134580433e-02 -1.9007870297317406e-01
      -3.7788950814277628e-01 -7.9063661902897886e-01
      -1.2077247890374174e+00 1.5172213082759531e-01
      -5.9106762411816571e-01 4.1830002392203485e-03
      -1.0876331115938411e+00 -1.0905620695977847e+00
      -2.6854374451874113e-01 -4.4285943146003304e-01
      7.6747154035912879e-01 6.9878952074986811e-01
      -2.1755896648763309e+00 -1.2005211257159287e+00
      -4.9920704127701238e-01 -6.7138472403996105e-02
      7.8228489553434744e-01 -1.0265707408286806e+00
      1.5675933397789619e+00 -4.1950510571616478e-01
      -1.4231402870060510e+00 -1.7385662766818535e+00
      -7.5394516229888950e-02 -1.2840955015911588e+00
      -1.3838513945860639e-01 -4.2987112848459952e-01
      7.4925865909658396e-01 -4.4251977797023556e-02
      -2.7374109872954105e-01 -4.2979475838182951e-01
      -4.6814527489644681e-01 2.6344967376120604e-01
      -6.8994846732097881e-02 -2.4919060369766388e-01
      2.7649174385287729e+00 -1.1314895110243951e-01
      -1.1795821064417722e+00 -9.8778236149601822e-02
      1.0072203123092858e+00 -6.5230534590388370e-02
      -6.3233228127308438e-01 1.0904088349431920e+00
      -7.1169429561913899e-01 1.3880581349436745e+00
      -1.0346415991031102e+00 2.3236547364098548e+00
      5.9711401616447024e-01 2.4854848682987710e-01
      -9.3150506300862801e-01 5.2574169165212614e-01
      -5.9308507260465848e-01 -1.0389751168608401e+00
      -1.2835415455504848e+00 6.6373780466178567e-01
      -9.5392385462898788e-01 -1.0508906833475162e+00
      8.0767784630110473e-02 6.8011593211017474e-01
      6.2377818610543081e-03 4.4255939391959753e-01
      -1.8130632781938119e+00 -8.9638999918578155e-01
      1.2326861570312013e+00 -1.3480820701797508e-01
      2.0287131397676786e-01 -1.0988565307473488e+00
      1.1412469603167574e+00 1.3756587826739171e+00
      -3.0759186461358272e-02 -2.1129197877362343e-01
      5.1235246356564967e-01 -6.8025165750306926e-01
      -8.1451064829260822e-01 -4.1660017908776387e-01
      -3.7757444491714309e-01 9.0115577786156850e-02
      -2.4878229853625661e-01 -3.7088772648657475e-01
      1.4463417337728851e-01 2.5954200732688953e-01
      -8.2514355482422219e-01 -6.5221462469693370e-01
      4.7979746646138960e-01 1.1538296228535243e+00
      -1.1127261280770269e+00 4.1741473587362332e-01
      -2.9713086105758322e-02 -4.6419542938283785e-02
      -3.2730874430497137e+00 7.8407327352218992e-01
      3.2756427276461919e-01 -2.5442450048240906e-01
      -1.4519225598037463e-01 7.5755123466701735e-01
      -2.7282457326953102e-01 1.5899932451770662e+00
      3.3472246834669045e-01 1.0510606197662486e+00
      -1.0530139156830152e+00 2.8194254655060041e-01
      7.7472968192985892e-01 9.0109706814958945e-01
      -2.5094321517380815e+00 -9.7611352985296185e-01
      3.9093572571451496e-01 -5.5514597113928388e-01
      4.4960036810540266e-01 -4.1629139216170818e-01
      -1.5802749458525207e+00 1.7773002795184938e+00
      -1.9685935827502679e-02 1.5176257664089781e+00
      8.9751116995678859e-01 -7.8322752329092382e-01
      -6.2986435980542799e-01 1.7513960088382177e-01
      -8.4593709680735629e-01 -3.1956968533009811e-01
      6.2279875537297513e-01 2.1551893555308207e-01
      -7.5430211654484625e-01 -4.2578894725707299e-02
      -7.6433623799226202e-01 -8.2617354020310607e-01
      1.4146733897756425e+00 1.2150266641218763e+00
      -1.0661859194625514e+00 1.5483581031332345e+00
      1.5790090981277614e+00 2.5545230045233458e-01
      1.0115115580725464e+00 6.7843218019294771e-01
      1.1134843987289027e+00 -4.0366113602785608e-01
      -1.1835849609874185e+00 -1.0572678802303022e+00
      -6.2025873715710500e-01 -6.1169511785838723e-02
      -1.0884969961092581e+00 5.4447501231131101e-01
      -8.2540244132004621e-03 -1.2786015462218863e+00
      -2.5190467620213924e-01 9.6566646209176321e-01
      2.1390252811090389e+00 1.4769889317449982e+00
      7.0872459059189152e-01 -2.3643024976550038e+00
      1.1549162646020762e-01 2.6056086860855338e-01
      6.0839813833121359e-01 1.0729361391032690e+00
      1.2760825586141836e-03 3.0402200210903430e-01
      -5.3603574461538994e-01 1.3748729870133369e+00
      2.4634719933304297e-01 2.6207813821667419e-01
      1.0619362118222806e+00 8.1693700236141453e-01
      -7.8427517066245667e-01 -8.2715603567722717e-01
      -1.4302232150190199e+00 1.1344700548518727e-01
      3.2596950274568109e-01 -1.0459743670091366e+00
      -9.9883356359154096e-01 -5.4961000937564997e-01
      4.7614765613897070e-01 -5.4461280028470549e-01
      1.7896084161248116e+00 1.1900600645731676e+00
      4.8153701072285830e-02 5.9905842684452193e-01
      4.3848327042137858e-01 3.9895631661097830e-02
      6.2888986168957120e-02 -2.0154717319392498e-01
      1.8530334538628732e+00 1.1168567229952731e-02
      -8.1007867677003476e-01 -1.3675118845907611e-01
      3.7868109094956309e-01 -9.8243981738126351e-01
      -8.9949023854455556e-01 6.2047667256785599e-01
      -9.9884950874076439e-01 1.6333924840660713e-01
      -1.1984452613498533e+00 -6.6041209978849591e-01
      -1.4740334825573760e+00 -2.2505705929558315e-01
      4.4969967236879696e-02 4.6730249336397389e-01
      1.5783926105399995e-01 -3.6491122675612070e-01
      -6.5368322544490898e-01 -1.0001763387096521e+00
      -4.1577119374705795e-01 6.6591379943079421e-01
      -1.3753113192050379e+00 -1.4498654588928719e-01
      -4.4509798871696393e-01 -3.6198423613091707e-01
      1.3901098606902302e+00 6.1982082950895723e-01
      1.3735372403996249e-01 -4.2684468654249941e-01
      -6.5513046411403530e-01 -1.5887201155384464e-01
      -1.1322393649580170e-01 -9.2483317749981497e-01
      -3.7866016730345714e-01 -6.3698430150299012e-01
      -2.4942527385107027e+00 4.8097002007637024e-01
      1.1472291813972989e-01 1.3789205882013327e+00
      1.2066697578113141e+00 5.1710886275177237e-01
      -9.4327548659138816e-01 -1.7192131760515456e-01
      1.2322975260573872e+00 1.2115083702089471e+00
      -1.2401345760568112e-01 5.7608281267549477e-01
      -6.9972592688948010e-01 2.0227954875859397e-01
      1.6860794171961693e+00 -1.6501932638951684e+00
      1.7575767081371152e+00 9.3000391964103002e-01
      3.3178951147113717e-01 2.5916746975009541e-01
      3.5919010555921720e-02 7.5498006128635820e-01
      7.0792973893462585e-01 -9.9689123671376811e-01
      1.1750873482608295e+00 -3.4672967391349681e+00
      -3.3178069592701431e-01 4.9840854105201515e-01
      8.2997579674786048e-01 -5.5805095724009846e-01
      1.5079296535306452e+00 1.1064991973256102e+00
      -1.5153083756778671e-01 9.1185141713279982e-01
      1.8091976873018127e+00 -2.0540766060610718e-01
      8.4670843707310928e-01 -1.9046546061182041e+00
      1.5416339472917182e+00 7.2734065503064937e-01
      4.9009088692240618e-02 3.9943257425297524e-01
      -1.8482112958691403e+00 2.9135763243766521e-01
      -2.7809569991874010e+00 6.4209398138929308e-01
      1.1968440088717922e+00 -1.4855258501815187e+00
      -7.3215403158798875e-02 -7.6981827356993093e-01
      9.2881901011737056e-01 -8.7726111477659063e-01
      1.1987944058926064e-01 -2.1701225177006508e-01
      -4.2213077866674797e-01 9.5259208645112403e-01
      -6.6114527586223271e-01 -8.9478686081600589e-01
      1.2273374875383970e-01 -3.1629330444038045e-01
      -2.6676792462496135e-01 2.7567060277464792e+00
      1.1536705102320466e+00 6.8205759269566912e-01
      -4.4601489917718468e-01 -2.7856523263726034e+00
      -3.9287804280499999e-01 -1.4250159052279174e+00
      -9.4944285434205800e-02 1.5416739537726918e+00
      6.0954330061171702e-01 -9.8343914429677781e-01
      2.7543320682375488e-01 -4.9815388800962729e-01
      -1.7502910998313652e+00 2.1172369625767233e+00
      2.0561557692531363e+00 8.2065891981810180e-01
      -3.6195158657586340e-01 5.9446162658713875e-01
      -1.3905340277794278e+00 1.1288328860242756e+00
      -9.2595234552119243e-01 1.8155747043777735e+00
      8.1189765559719473e-01 2.8088877838950705e+00
      -1.0683986999479989e+00 8.8867611565064186e-01
      1.9335610979988338e+00 -8.4987384248984832e-02
      -2.8783137417584631e-01 1.4354478808485210e-01
      5.9740656244500689e-01 1.4356061590757177e-02
      1.0648741569109599e+00 2.7025745743981995e+00
      6.7357727430464398e-01 4.7211869157240499e-01
      -1.4649305860511710e+00 5.2208544859432482e-01
      -6.1422589826368768e-01 9.0742037552517862e-01
      -2.9563559775305026e-01 -5.6334863031381166e-01
      -9.8105691859049449e-01 1.5796920241683163e-01
      -2.8031768283528335e-01 -2.3428285534212154e+00
      9.5936507210796507e-01 9.1807513694332810e-01
      -9.2501487173913466e-01 1.8182886257859579e-01
      2.7665829979341439e-01 3.0132943636537979e-01
      -2.9721466218648102e-01 -9.7856971486506150e-01
      1.1066840563450886e+00 -1.7379621551484206e+00
      -2.7320138541970246e-01 -2.2824006727723232e+00
      -3.4270131970354439e-01 -1.5244887636994908e-01
      2.1473860641463189e+00 -1.3082284062623082e+00
      -1.4360923385173043e+00 -4.1409298830525304e-01
      -1.1802697575205483e-01 1.1579561637814766e-01
      1.1328651483890855e+00 3.0369178396798646e-01
      5.0754262005627682e-01 -1.1421650854588423e+00
      1.8596333516583328e+00 3.4307839807505678e+00
      5.9613559895955637e-01 -4.4029768921046819e-01
      2.6478626669691324e-01 1.3308460523273755e+00
      4.1617062643783631e-01 4.1383285329918790e-01
      -8.4922684949170824e-02 7.3031307484806862e-01
      9.1301598479026413e-01 2.0485453820050465e+00
      5.5350738477235462e-01 1.7778947304981724e-01
      3.7854433269851223e-01 -8.3713875064207369e-02
      3.9391774165548538e-02 -8.5436946833955374e-01
      -7.1347469741547806e-02 2.6650680793041648e-01
      1.4185457748914243e-01 7.2936465888407631e-01
      -1.1933328002291409e-01 -1.0702538745593859e+00
      6.6978968233089964e-01 3.4230980393832555e-01
      1.2388559454680548e+00 -1.0319705757022279e+00
      8.5592126757928666e-01 1.1153751873162578e+00
      -2.5257554434114188e-01 5.6142682063874919e-02
      3.5024799735942153e-01 -8.9309970290418605e-01
      -8.5950197830793229e-01 -6.7352943281871180e-01
      -1.5999249703765012e-01 -1.1010180075543330e+00
      -7.9553200935505164e-01 -9.4404893096400000e-01
      4.1843759596029484e-01 -5.7492539443741919e-01
      -1.1208426639749791e-01 -4.8788161084937204e-01
      5.3272693362488126e-02 -6.5814059178146611e-01
      -8.9779434252709933e-01 7.2216532318305060e-01
      -3.3632651848078815e-01 1.3164078462243001e+00
      -1.7667443545545094e+00 -1.8106942653362694e+00
      1.1987703418064084e+00 3.9521205914428109e-01
      -1.8970496218400905e+00 8.7808441596871886e-02
      -3.2166469383096685e-01 -9.4235606922496762e-01
      -1.5895364772280582e+00 -7.2944040867286974e-01
      -4.0187395322223285e-01 -2.3165188851842524e+00
      -1.8066956120324471e-01 -1.1401309620262055e+00
      2.7278884349361396e+00 -8.6392558654899021e-01
      2.8372881835235009e-01 2.2849221644025869e-01
      9.0153447547189647e-01 2.0372792062459473e+00
      -4.4235102406822635e-01 -1.2054788911838039e+00
      -6.2958532192495351e-02 -8.0919102550717670e-01
      1.1036651928492140e+00 1.4415237907471850e+00
      5.3532289054384952e-01 -1.1778730385207827e+00
      1.0696566189688717e+00 1.2142797967506684e+00
      -2.5862644831736836e-01 3.8305585536624343e-01
      -1.0688615151206380e+00 4.1624682546408703e-01
      -3.3735832718005021e-01 7.7333096516408475e-02
      -4.1968852948251278e-01 -1.6567830464796252e+00
      1.6633288799568786e+00 -2.8981487198125039e-01
      -1.4137887431245002e+00 1.5334511944267217e+00
      -3.5124384623803095e-01 1.9427861768784035e-01
      -7.0365880944200176e-01 -2.1550786129059145e+00
      8.3394363831530771e-01 -1.3524364741548545e+00
      5.1497074987391735e-02 -1.2158568402714094e+00
      -1.0785721223717859e+00 -7.1434112854295151e-01
      -6.1074263345800428e-01 2.5017892125821817e-01
      -2.0768680608742990e-01 1.9269731080815675e+00
      -1.4413654860021652e+00 9.6855111208912559e-01
      -1.2973453620832900e-01 -4.5792954905756328e-01
      -8.0765695625975653e-01 6.8528328788986709e-02
      3.9071528608714268e-01 7.6395708428780607e-01
      4.5674658678975144e-01 -6.0342637590477655e-01
      -8.9752507751042732e-01 -9.2967648916522772e-01
      1.0074466697093232e+00 7.2173626801773472e-01
      1.8337778031441854e+00 2.2674891313930270e+00
      7.4309276292868154e-01 -3.2296624996252743e-01
      1.0273376617564818e+00 -2.0578431287381074e+00
      9.3236520557815028e-01 -1.0654905308195068e+00
      3.0767175954436421e-01 -9.9873046244928898e-01
      -2.6436241003540681e+00 1.3663305286646878e+00
      -2.3799049559301522e-01 4.2671656566876381e-01
      2.2857444329975847e+00 3.2005862243993971e-01
      -2.4872604808880705e-01 1.5261629416821467e+00
      -4.3142193505574128e-01 -1.7279518673405319e+00
      -2.6313601708152656e-01 -6.4195262055951703e-03
      -2.3161224040383170e+00 -1.8937441532266479e+00
      2.1196957484790554e-02 7.5612648323188592e-01
      -2.6251915019863219e+00 -1.2306520329815924e+00
      -1.5982335022224168e+00 2.6345272232975201e-02
      -7.4074642973931548e-01 1.1961226268434586e+00
      -1.5921179989062961e+00 -3.3300411454867634e-01
      6.7040435476037807e-01 1.3739663553665624e-01
      1.8560072031348102e-01 6.6879010404352435e-01
      4.4401913250492053e-01 3.4746830726342787e-01
      -1.2905276858456345e+00 1.1997942298007815e+00
      9.9172432071636163e-01 1.7591411033253759e-01
      8.2869248040760268e-01 1.2932111289703803e+00
      -5.0687999101420844e-01 -6.8396031669925139e-01
      -1.7801530278166213e+00 -1.0362223411913687e+00
      -1.7678645281057333e-02 -6.1105179994487868e-01
      8.9418727993040481e-01 -1.0824293819242072e+00
      1.3686322615949440e+00 1.2862271482504408e+00
      -5.7603201433519768e-01 -9.6045671601125227e-01
      -2.6804017387729115e+00 -4.2999809669209965e-01
      3.6006663027465613e-01 1.1407844108544427e+00
      1.4794623366876796e+00 7.3033017582135917e-01
      -2.7147412357406980e-01 3.3068630493091439e-01
      1.4357690154278885e-01 3.0420516377558016e-01
      -1.2037900385058655e+00 7.5426576584775884e-01
      -3.6647048571034313e-01 1.9389777077129828e+00
      3.5173791312265956e-01 -1.7418769100270788e+00
      -7.2287966851941143e-04 -5.9633446876446994e-01
      2.0045397581340381e+00 -1.0144842049910519e+00
      -3.9266383018673595e-01 -1.9161974678997704e+00
      8.0409309977428761e-02 1.1822833597321367e+00
      -1.6301211290253996e+00 8.7557467686691121e-02
      1.2109580749719691e-01 -3.0859449214010809e-01
      1.9043733826365983e+00 -2.4909890359232245e-01
      2.7335404818534353e-01 -3.5126314329909025e-01
      5.9091201370532831e-01 -8.3993430954060078e-01
      -2.8391704325830555e-03 -6.8678916894138098e-01
      -1.1658100871473138e-02 4.6493572230410035e-01
      1.6573794194853675e-01 -3.1838690930485253e-01
      -5.5044804069719233e-01 3.9497155325920769e-01
      7.8134289319732253e-01 -1.7536450883167625e+00
      -1.9901883144050209e-01 -6.6357353584547785e-01
      1.4514192436179276e+00 6.8545633410186171e-02
      -5.1589645157918995e-01 1.0575565348858507e+00
      -2.0935042350206053e-02 -8.7732687919784980e-01
      1.8725311417189250e+00 2.8073090935838332e+00
      9.3371348293664547e-01 3.5320463242761879e-01
      5.6218155210289800e-01 1.8871048813454538e-01
      5.0165761692973199e-01 -6.4243957030686794e-01
      2.1001925128327228e+00 4.0838600711041867e-01
      -4.1214494370250543e-02 -2.3042083738016315e+00
      -1.3973722837497082e-01 -1.1485797130352811e+00
      6.7630363151694139e-01 -1.7075573441689515e-01
      2.5864053807710385e-01 -6.1852442410805775e-01
      1.7017478200863856e-01 8.4229833778472352e-01
      -1.1603890454431138e+00 2.5793390807625044e-01
      1.1111643208760009e+00 -4.6774719244296004e-01
      1.0693623333178616e-01 1.6994806078113396e+00
      1.1109668697500270e+00 -8.5715799579403751e-01
      -2.2698036658278634e-01 1.7520891892388080e+00
      6.1303862109513285e-01 -5.5824030463160668e-01
      -2.0443021762009397e-01 -9.1728505887938327e-01
      -1.0581230179547909e+00 -1.1312815401488852e-01
      -2.5502433337350700e-01 -1.1773732137025967e+00
      3.3509020407205825e-01 3.7254143964439647e-03
      -3.2697803308764994e-01 6.1190165491195281e-01
      2.1606286904530961e-01 1.2463304643082140e+00
      -1.6947877820786612e-02 -3.6465821371282864e-01
      -1.1563606909946075e-01 8.4746719014114208e-02
      -1.1552141091985690e+00 -7.4532296390965491e-01
      -7.1543526052803874e-01 1.1145406181883022e+00
      -2.0542099533403638e-01 -4.1534413497681749e-02
      1.0549918285974278e+00 3.6460976460682148e-01
      -5.8822536342910514e-02 -4.1079254385019798e-01
      -8.0908069143193773e-01 -7.1354362063258947e-01
      3.2389568684402320e-01 -1.0761388558543722e-01
      7.4530597758231865e-01 3.9764285193366200e-01
      2.8228673951872901e-01 -5.5097902038628965e-01
      1.1662803095950566e-01 5.5359491525361670e-01
      -1.4299798660366339e+00 -4.4444308653671533e-01
      -5.1638314476024061e-01 1.1090440721755668e+00
      -1.6593754591936910e-01 -1.6611752821195145e+00
      -1.2918648679477280e-02 3.7337552324440210e-01
      7.9723710898385947e-01 4.2253071724745600e-01
      1.3859034175881764e+00 1.1890600567986966e+00
      -7.3113512674208736e-01 -9.5706896189034196e-01
      4.2772407450256111e-01 -5.7876736983789145e-02
      1.2827660032295789e+00 4.8526172447930238e-01
      6.7627688006102904e-01 3.1141856214947905e-01
      -1.1300082732956271e+00 9.3903095737983763e-02
      -9.6025391580008634e-01 1.4791461226662037e-01
      2.4013569739374305e-01 -4.6296897540362980e-01
      8.2883732674947463e-01 -7.7503834015376150e-01
      4.5372048209279858e-01 -2.8306974806297186e-01
      7.9008425669065596e-01 1.8458723333833114e-02
      -5.8389418974212383e-02 4.0699804357793096e-01
      -8.8857106598911950e-01 -3.0680847836266417e-01
      -5.0194756912735117e-01 -4.5002649064874117e-01
      3.8328643730071860e-02 5.6277930465311288e-01
      -6.3099318795390935e-01 -9.3942989449491054e-01
      -6.4735312421002633e-01 1.2635733725093709e-01
      6.0895485424862394e-01 -3.5942660070650423e-01
      1.0989555245489655e+00 5.3212606254313544e-01
      1.1699025043088682e-01 -6.8437364815123003e-01
      -2.5215717799369441e-01 -1.3336646903634617e+00
      6.4407692853219581e-02 1.3258661599488131e+00
      -1.3324809341940143e+00 -5.5637879451521455e-01
      5.3252539333294335e-01 -5.2498166902300702e-01
      -3.4862489747857983e-01 -1.1578628806379412e+00
      8.1708183230708364e-01 -2.7552786348003049e+00
      -3.5098508377929577e-01 5.1361857552890033e-01
      -3.6604911360520009e-01 -1.8466511179135368e+00
      -1.0008506405986101e-01 8.7552603270725649e-01
      3.4590298270753789e-01 3.2945906180283996e-01
      1.1027166524754330e+00 1.9363589973265613e-01
      -1.5487647058994338e+00 -4.0631712951947324e-01
      1.9843844309331959e+00 -8.3603153244040540e-01
      1.1357045596651456e-03 1.7913050101603978e-01
      -4.2229952321840281e-01 1.8004260073289131e+00
      -1.0105905480743009e+00 1.3170141381050005e+00
      -9.1270014814399103e-01 -6.9944529324840676e-01
      -1.4230502961946506e-01 -4.1053440384842449e-01
      8.3706605862515260e-01 -4.8243797567796931e-01
      8.1785411832708133e-01 -1.5372365271054629e+00
      2.2737506634505095e-01 1.2243904849543303e+00
      1.5823870080778011e+00 6.2417569641382342e-01
      3.1891349235832722e-01 -1.1821317474289821e-02
      7.0447554021882874e-01 1.1988452084563218e-01
      -1.6250801537994808e-01 -2.0624084315490330e+00
      -4.2439633430309842e-01 -3.3675746619911312e-01
      7.5403324261791438e-01 -9.2306271227393644e-01
      -7.7162017724879706e-01 7.2238250853919961e-01
      -8.5157844000532967e-01 -2.5449774168068362e-01
      -6.4964590637205544e-01 -1.9386885595385769e-01
      -9.2938617001065593e-01 6.5278446166684656e-01
      1.0084119587092180e+00 -2.8723506722842607e-01
      -1.7729479133160020e+00 -1.7914147878652098e-01
      1.3764648190185680e-01 -1.6163255282953906e+00
      -4.2990661188783286e-01 -1.0198862684032126e+00
      1.0464303628292688e+00 1.1971387560463853e-01
      1.0684436168453870e+00 -9.5140629897032891e-01
      4.1083973325471085e-01 1.0638520199535642e+00
      3.1612190154321124e-01 -9.3131239515843633e-01
      2.6844666062579470e-01 -7.4584006932337121e-01
      1.2056427983688012e-01 7.0295915253208674e-01
      -4.8994413224529920e-01 6.8249128953372029e-01
      -1.5741760299804028e-01 7.9322489948662889e-01
      3.5616753211676561e-01 7.9653601651961337e-01
      -1.1722969677500499e+00 4.6499576445832874e-01
      -1.9586011216639018e-01 -4.3064897901172278e-01
      2.5198695812379199e+00 -1.3599639159740220e+00
      -1.2507956436858501e+00 1.1582016756940714e+00
      6.5422355073752014e-01 -1.6405373997534067e-02
      -9.8149921231052095e-02 -5.3262041564996965e-01
      4.7401502698462183e-01 3.9522429435239100e-02
      4.2060009106011564e-01 1.4161948617227422e+00
      -3.2033850989565640e-02 -1.3019398695527717e+00
      -1.0460474753430171e+00 -3.6327969195874327e-01
      -2.4437070146555978e-01 -8.4823626660322324e-02
      -1.3005398695494923e+00 2.7179101635251418e-01
      6.9570877470140235e-01 -1.5660890770532938e+00
      7.4524551685293694e-01 1.4935632686893685e+00
      -5.3476698454731530e-01 -1.8496252432803864e+00
      3.2162442887256615e-01 -2.1533628057759086e-01
      -1.3847074246521902e+00 4.4136668319748507e-01
      4.9292137398471975e-01 3.6518741621835438e-01
      9.0527812038478694e-01 1.9406896787460795e-01
      3.5421115772737471e-01 -1.3864888993695488e+00
      -7.2028025470109547e-01 1.0353942127366746e+00
      -1.1025265129071136e+00 1.6081147893607819e+00
      -9.5653038053584549e-01 1.2589058961734330e+00
      -1.2521718392874248e+00 1.6217548180678880e+00
      1.2588207738900947e+00 9.0876838212806954e-02
      -1.1122814397693406e+00 1.9801962423514343e+00
      -1.3328807006967982e+00 1.7975870851367870e+00
      -2.1767312129596428e-01 1.3571426713286261e+00
      5.2869175733728915e-02 -2.6426118934589915e-01
      -1.8862714200445976e-01 -1.1573616698605291e-01
      1.5588524910742994e+00 -2.9083094964089433e+00
      -5.4585781150308221e-01 -1.3987558589822566e+00
      1.3910410723107669e-01 -1.0740392293480672e+00
      -1.4898119011284858e+00 1.8095936495189100e+00
      -2.3529690120689670e-01 1.3040914139518371e+00
      -5.5177046148310049e-01 -1.2978496202040288e+00
      1.2680860231624022e-01 2.0451851962847951e+00
      3.4522292151865702e-01 -1.3448397958651137e+00
      -4.7428445553227588e-01 8.2475993987736229e-01
      5.0779251248123602e-01 -1.0718219734145613e+00
      2.1520289256548528e-01 -8.6318872276322955e-01
      -8.1220569920848185e-01 -1.3855907023827170e-02
      -1.3819364225167587e+00 -3.0466418406236624e+00
      1.1648068172659474e+00 1.1288878732508253e-01
      1.1324336479765529e+00 -3.7873492633340347e-02
      -4.4061869234792400e-01 1.4812261496667459e-01
      9.7785492854873590e-02 -1.5487692103036832e-01
      -1.0168233379416785e+00 3.8487231159042506e-01
      2.0214853758534279e-01 -7.8320568092911713e-01
      -5.5211957384748678e-01 1.5988240451001385e+00
      -9.0027940865768996e-01 7.3709935178343122e-01
      -3.0744369381216458e-01 4.4664936063566058e-01
      5.9872634772701350e-01 9.1635405771405942e-01
      5.8929241321215464e-01 -5.1617367854619889e-01
      -9.2343676563383748e-01 -2.9886194778078100e-02
      5.5832608857440558e-01 -2.1570891996834354e-01
      -2.2355240788790426e-01 9.4786371611335948e-02
      -1.1671464181774664e+00 -1.7413860828736630e-01
      6.5621539569523724e-01 5.3336689256773773e-01
      2.9520181227931377e+00 1.1492877504086551e-02
      9.2702570059160705e-01 -1.6785986439077130e-01
      -1.1398305944615315e-01 -2.9669854354847830e-01
      1.1893784847599711e+00 -2.1976243092712355e+00
      -1.2947758330916814e+00 -3.6751009792018247e-01
      -1.9397904543108104e+00 -4.1498708576457828e-02
      2.7575949675335987e-01 -2.2132813049656549e-01
      7.5788780636476205e-01 -1.3487289350596303e+00
      1.4814038181293104e-01 -6.0485967611102823e-02
      -6.0280463712585020e-01 2.5933317073837827e+00
      6.9668631962419314e-01 -1.6424256101041383e+00
      4.9338077961572141e-01 7.4755228578761268e-01
      1.1733890499464339e+00 1.0683407987647906e+00
      2.5580565711581527e-01 -2.7625273863160915e-01
      2.1024502481512100e+00 2.2880612117756747e+00
      -1.1218938064041164e+00 4.0335150696580302e-01
      1.6206903738612716e-01 -1.5260832858585274e+00
      5.9003011689416929e-01 -6.1104407717463893e-01
      -1.6278402699271419e-01 1.0768899224218628e-01
      9.0834403734192171e-01 1.2722441699933598e+00
      4.4130755754215623e-01 -1.1138649068005930e+00
      1.5984860800068588e+00 -3.8314212775948181e-01
      -6.9314284687795957e-01 1.4055234527982852e+00
      -5.3431023970779723e-01 -7.8465138674470725e-01
      -2.0526628492077489e-01 1.5002617455624194e+00
      1.1515878914166557e+00 3.3024240277001557e-02
      7.6071053532221400e-01 -3.1468746077614107e-01
      7.4721855030005990e-01 1.2848658595147775e+00
      3.1049638292874080e-02 1.2933954406301458e+00
      2.2374249239897357e+00 -1.4269813988399324e-01
      6.0904389605604958e-01 -1.1365711119005797e+00
      1.0827059896476514e+00 -5.8490746177489929e-02
      3.2447945656005017e+00 -2.5429652830700644e-01
      1.4729495426953767e+00 3.2045738430202941e-01
      -5.7065155645255428e-01 5.4677372660106749e-01
      1.6746517398506752e-01 1.5753392199541958e+00
      1.3081334021118840e-01 -3.3921220959207798e-01
      4.3672549478250805e-01 -9.9776238494219738e-01
      -8.7030558457842255e-01 8.5936616082236864e-02
      -1.2081347408842305e+00 -1.5796987223665655e+00
      -4.2358253372935467e-01 -9.5342216388814971e-01
      1.4062354353022524e-01 -1.2963239286635055e+00
      6.3583650839595729e-01 5.4269827756376865e-01
      -1.5876626605747857e-01 -3.0862568205837526e-01
      5.7884269357058316e-01 5.6379384000220045e-01
      -2.8813807355320415e+00 1.9735274898047521e+00
      -4.2427409172676178e-01 4.9046447888164707e-01
      -8.1449026619482690e-01 -1.1896393715997897e+00
      1.0091402665674323e+00 1.5215953245053784e-01
      6.5013561074646106e-02 1.6830222802345479e-01
      1.6089150735291819e+00 5.3198773687768552e-01
      -1.6554002057606547e+00 1.6123286030454154e-01
      1.8277698985714280e-01 4.8334742384115781e-01
      7.0588716626376857e-01 -1.0315433644139340e+00
      3.5654532427926244e-01 -8.3590335525130399e-01
      6.3326173703730071e-01 -6.0269519959400379e-02
      -9.8202268654204103e-02 -1.7089414920592578e+00
      -7.4651873130781987e-01 2.1113867036576950e-01
      -6.6433413349633663e-01 -7.6307206606080535e-02
      7.1330746044355395e-02 1.6750296484332690e+00
      -1.2386925447188961e-01 1.6106144765306549e+00
      -1.5027709680701289e+00 1.3041414822966626e+00
      -5.1441824161084271e-01 -9.6019864355379281e-01
      5.6938572226147133e-01 -1.4881766749441820e+00
      1.0694269059062238e+00 7.8554891469139709e-01
      -2.1452632074511460e+00 7.3392164849231780e-03
      -9.6388120135441721e-02 1.7675442123353632e-01
      2.2663218364619309e-01 -1.3283637758679643e+00
      -5.6350771070774486e-01 1.5877449673770092e+00
      1.5307897486503483e+00 -5.6782922157943827e-01
      1.0034378772180690e-01 1.2103697897110637e+00
      8.3585562705801075e-01 -5.3174303810730916e-01
      -1.3534611322872254e+00 -1.7151899543598323e+00
      1.6249242896154075e+00 6.9222548145016849e-01
      -1.1331888067010101e+00 -2.5466299838327083e-01
      -5.6907975093911959e-03 -3.8316735735249541e-01
      6.7960781708070761e-01 -2.0219369885815430e-01
      -8.4377753519927889e-01 8.3480090481569980e-01
      -3.7358165817014111e-01 -8.9960179572774446e-01
      5.2308352808743996e-01 -3.6502557650918360e-01
      -1.5682803068128536e-02 1.3154589650110279e-01
      -1.3734357258406669e+00 -3.5601942748635895e-01
      1.1046836290233368e+00 -6.4916705623824456e-01
      5.7957566658725179e-01 -1.3876897989387785e-01
      -8.8753160341591386e-01 -3.9052596309389126e-01
      6.2865868479197573e-01 -1.4784548037830829e+00
      1.5972696373026971e+00 -2.9480797513751006e-01
      7.1194302919761243e-01 6.0269790212327357e-01
      3.9251993154994907e-01 1.8328736334332763e-01
      7.7592095059419497e-01 -1.2255424200549558e+00
      1.6359706318938367e+00 2.0856045131591588e-01
      6.5640416934968959e-01 -5.0579456320220006e-01
      -1.3042014569941023e+00 8.0633021892919510e-01
      -1.8001100811496549e+00 -5.2092215058621771e-01
      4.3857863741949904e-01 5.1698209532019856e-01
      1.3664593542309150e-01 1.1214434544355667e+00
      -1.0562699839534617e+00 -1.1701190903340621e+00
      -3.6224648890266264e-01 -5.9155741018790960e-02
      9.5208979440332608e-01 -5.8631775917664564e-01
      4.3552931955972723e-01 6.8445316504002551e-01
      -1.9563941236806295e-01 9.9660569850236236e-01
      2.5778565739291087e-01 -7.3665908272207911e-02
      -2.9695596013752640e-01 -1.4167951458907860e-01
      3.3189355400797227e-01 -3.4590089211377267e-01
      -1.5557660148916744e-01 -2.0722181648125676e-01
      -1.3316426658054734e+00 4.7990578228442403e-02
      1.3034458471202790e+00 2.2097236479714943e-01
      1.8869182528159032e+00 -2.8391059459392504e-01
      -5.1837984678889815e-01 1.0947886622299872e+00
      3.3045289395239696e-01 -5.6637471265191019e-01
      9.4582237478490228e-01 -1.2131526956027356e+00
      3.2232761421272549e-01 -1.7858045375153425e-01
      -6.1501185207670994e-01 8.9661012884396041e-01
      -8.0903899549906599e-01 -7.3200604214457721e-01
      5.9036383639157997e-01 9.2494036492359699e-01
      -4.6776129643998043e-01 -9.8014391907456266e-01
      -1.9229263442707059e-01 -1.1363475191389216e+00
      6.2695977891885246e-02 -1.7253103448483348e-01
      6.7920517041688097e-02 -1.2306599801727562e+00
      5.8404929825733788e-02 2.2549398140386315e-02
      8.5500415549729347e-01 5.3252703434242998e-01
      1.6942714926554068e+00 -1.2841286451362819e+00
      7.3224502370118139e-01 9.6981049328793034e-02
      -1.2901027557159733e-01 -2.3244247518904529e-01
      -1.3130178257453759e-01 -3.1797926664521492e-01
      9.0578377457270287e-01 -1.1359870023973839e+00
      -2.5672481311747297e-01 -8.8644079161279876e-01
      1.8594323782320576e+00 -4.6087772913974939e-01
      -1.1485627620194895e-01 9.9765676196392561e-01
      -1.5691780808860942e+00 -1.1385401466379935e-01
      1.1811557674206141e+00 6.8179747912378963e-02
      1.1990497953835582e+00 -2.3927301399593164e+00
      6.0718012839323909e-01 -4.4617854381397037e-01
      -1.1935235867380539e-01 8.1191592682861791e-01
      -5.7950128795052736e-01 2.5388295444223045e-02
      -4.0118761978090373e-01 1.6944542561045333e+00
      -1.8230732748612872e+00 1.7813623631877140e-01
      -3.9161425241113358e-02 6.3989935622894978e-01
      -9.8747807981426550e-01 4.4791349705803396e-01
      3.1545765090398825e-01 1.7478697012245961e+00
      -1.2904079573333782e+00 5.4254394424650687e-01
      1.0515366388672429e+00 -1.5967459287081059e-01
      -8.9585937089638149e-02 8.1215172891332910e-01
      9.7775108901817565e-01 -1.2178250922017877e+00
      1.1957964738614955e+00 7.0894998557679811e-01
      -1.6060008038568829e-01 -3.7973557005528025e-01
      5.1572674260464017e-02 -7.5625030589752645e-02
      -3.2430364847189830e-01 9.3795283442549893e-01
      8.3528881250424580e-01 4.3899136259293348e-01
      2.6130770724066972e+00 3.1342894583989694e-01
      -2.7842829056820406e-01 -1.8155722336549016e+00
      -1.2981332889837374e-01 2.9959682914129038e-01
      4.8765737745529375e-01 1.2637098253518328e+00
      9.7403578036736038e-01 7.6646872407698152e-01
      8.0388733458449213e-01 1.0785588482955080e+00
      -4.8424837353347561e-01 1.1508062697365835e-01
      2.5889300681784602e+00 -2.3103268359013984e-01
      7.7365258471914433e-01 1.1459464631065244e+00
      -4.9833511191094193e-01 5.0703234679960718e-01
      -5.7233360800881650e-02 -5.0896409358669059e-01
      2.2510684629426887e+00 9.1523930708823045e-02
      1.6578844118662233e+00 -8.6575757319534963e-01
      1.0392538578780877e-01 3.4878857897252996e-01
      1.9295764444375496e-01 -1.8241404107721593e+00
      -2.5517237362154288e-01 1.0196848632133453e+00
      -6.2777692622110393e-01 -4.7021380575163485e-01
      9.4177310062966302e-01 6.3415809532219924e-02
      -1.5963162812195020e+00 -1.6044124847554700e-01
      2.5351060370081357e-01 2.9093383497860997e-01
      -1.1758852055440197e+00 2.6981926752760316e-01
      6.1884249674463321e-01 1.2371740679638119e+00
      4.1248163365970904e-03 -1.2284662207936503e+00
      -2.6040245333483925e-01 1.0316025410982805e+00
      4.0778022102637285e-02 3.6212893182824897e-02
      -1.5388609008923704e+00 -2.7113036675580755e+00
      -4.2855348042413038e-01 -1.2111939511052612e-01
      -4.9608106043169051e-02 -2.8493540690909130e-01
      -8.2570729156483683e-02 9.2179143000768748e-01
      7.2118614549242510e-01 7.0471450959012927e-01
      -5.7414213313600215e-01 1.2508130727356779e+00
      -1.7770573688510860e-01 5.4291007199201491e-01
      1.3062282625525379e+00 -4.2329319747472949e-01
      -5.9239568387298727e-02 -8.9473131914220372e-01
      -1.1759162195945729e+00 -2.4673481375834210e+00
      1.4086701717889678e+00 -6.7167017693622166e-01
      5.5176628181993828e-02 1.0248679413708037e+00
      -1.1402745651814326e+00 -2.7581318712307890e-01
      8.1721374015950010e-01 1.6624227323864643e-01
      -6.8232825083684023e-01 -2.8055118231261650e-01
      -1.9257781478506124e+00 8.6721348001611842e-01
      -4.7758886699777331e-01 1.0492503251906211e+00
      -1.1479517171550402e+00 6.7024509016978917e-01
      6.7748729863133716e-03 -1.6550751217071655e+00
      -3.8264226451233679e-01 1.8869884089084388e+00
      -5.7964668854942070e-01 -1.7583559231066573e-01
      1.2116348610332950e+00 -7.8547035645864960e-01
      -3.4501232619910888e-01 7.7009334277714414e-01
      -1.1380803360126204e+00 5.5728680239356743e-01
      5.8993016084943095e-01 2.8485662357712982e-01
      -4.4231979836690594e-01 1.4853585513425898e+00
      1.2463162676380033e+00 2.2544336884821341e+00
      -2.5640033083507208e-01 -1.0985415724538093e-01
      1.2300429555794021e+00 8.1003693171947122e-01
      5.0336558986023183e-01 -3.2499014686769007e-01
      1.1315910425341271e+00 -2.1570349852281795e-01
      -1.4662327815995591e+00 7.9198313344635918e-01
      1.0828570385586958e-01 6.8131772186738282e-01
      -1.1278380413134028e+00 -5.7760200609364865e-01
      6.4516437780728653e-01 4.6393838082017247e-01
      1.0511939201190181e+00 5.9488347032378326e-02
      -7.7137651499421189e-01 1.6681460870366349e-01
      -9.9089185568392946e-01 -1.4272199896156705e+00
      3.7533715143213055e-02 1.3419556745526902e+00
      -3.8501516620986320e-01 -2.4590607616848742e-01
      2.3325842482402251e-01 -1.7266802444209943e+00
      -1.1369580193829250e+00 -2.4671615276124923e+00
      -5.4937345829420081e-01 1.3442525989237837e+00
      -1.3192329741015832e-01 4.8336015224830986e-01
      1.4673098983699251e+00 -1.9601877597972648e+00
      -1.3297389521695311e+00 -1.5986312297916776e+00
      -6.8891360583435785e-02 2.5591573003660830e+00
      -1.5946379595614163e-01 1.9100746182952186e+00
      7.5175641233680646e-01 1.3388285663101342e+00
      1.7385576396653912e+00 -1.9091977718352628e+00
      -3.2470815588470594e+00 -3.6922017676607028e+00
      -3.2970996408093634e-01 -7.7640191254547719e-01
      -4.0286527703872854e-01 -1.9977099813732895e+00
      7.0042964535869645e-01 2.0223732730978885e-03
      -5.2850064798853780e-01 2.6342211647173284e+00
      -9.2892299143796375e-01 -4.2095077832754424e-01
      -5.0781034788281010e-01 5.9923882575159726e-01
      2.8069827046148826e-01 -1.0004703163208901e+00
      -1.1680684690937488e+00 8.4033520880371926e-01
      -3.5899520511314564e-01 -1.5257156140217565e+00
      7.4180255054715497e-02 -6.9395590285104880e-01
      9.8673895729412109e-01 -4.6112027517755172e-01
      -2.0794994036504009e+00 1.6863419079043118e+00
      -1.9234396395785880e+00 -1.8004862576868534e+00
      -1.9136809072984182e-01 5.7584968794047375e-01
      -3.6193395802606648e-01 1.0119402220270850e+00
      -3.7995476024997454e-01 -4.2221520200580770e-01
      7.9337195277625450e-01 7.2891386369158639e-01
      -3.5810522694265393e-02 7.6989235906192333e-01
      1.5360214375976760e+00 1.7681094865769791e-02
      1.3542098436523300e+00 -1.4799268666385482e-01
      6.6689589148961670e-01 -1.8320340054354883e-01
      -8.5629608813034622e-02 1.7151995030441232e+00
      6.1902902402668623e-02 2.6081479234577420e-01
      -1.3009250894383217e+00 5.0380614219509934e-01
      2.9936491425680969e+00 -2.0495418604163302e+00
      -2.5537778819359810e-02 8.6176605835306175e-01
      -2.3164819743340495e-01 1.3136132107288594e+00
      -6.1789497992534104e-01 2.2382275752174659e-02
      1.5158599643648629e+00 -9.3538363850022632e-01
      2.1511785585085175e+00 -4.3863769047445067e-01
      2.0074211966250326e+00 -5.1698460188252811e-02
      -8.7138309755332555e-01 -1.4935391459274512e+00
      -5.4389554561622311e-01 -1.1276048388015094e+00
      -1.0776911709715307e+00 -1.0758152789698963e+00
      -2.8229730029283400e+00 -3.6084207374258534e-02
      -4.3923423011669205e-01 4.2359039348221550e-01
      -1.5228557942960870e+00 1.1706350863036825e+00
      1.3402209241794477e-01 1.7992745885929982e+00
      -2.9638623588415813e-01 4.7494342027912181e-02
      5.9831425434664975e-01 -1.2385682921488408e+00
      7.0737836405961563e-01 -1.1449501489547334e-01
      8.9371580254075725e-02 -7.0105767670363006e-01
      1.2233731853996965e+00 -8.8251139209173957e-01
      -7.8008865990098175e-01 3.8642057666962970e-01
      4.2053812219069098e-01 4.8851147653090371e-01
      9.2091458449770491e-01 -8.7130247005758810e-01
      -5.1898598366827742e-01 6.5229946966273578e-01
      4.6374182529400604e-01 -8.4976440701638556e-01
      -2.2463386982775660e-01 8.5279208122669803e-01
      1.9119118566137339e-01 2.1779075976508924e-02
      5.5958336226988661e-02 -2.5785951138815627e-01
      9.8269356137583475e-01 -9.7111182487521308e-01
      -3.4205928419381038e-01 -1.8143027916621592e+00
      -8.0668258659936098e-01 -7.1847024253240643e-01
      -6.3369493549475131e-01 -2.5135719065386312e-02
      -1.7720088082130963e+00 -3.9046442694718031e-01
      1.2716750086044695e+00 -5.6258796931776422e-01
      -4.9217636532404196e-01 -1.4734474195205620e+00
      5.5784180755058499e-01 4.4613123673376764e-01
      9.3678847488527872e-01 -3.1028193091508011e-01
      1.1048948095785556e+00 1.2677743400704724e+00
      1.7440721899019591e+00 1.8367219245344826e+00
      -6.2103286960019870e-02 -1.7247165380424270e+00
      4.2119767710148065e-01 -3.3900035070292212e-01
      1.0080724506039700e+00 -5.4323893981411819e-01
      1.2589785459532729e-01 -4.1196248396457646e-01
      -2.1775797412968190e-01 -1.7806411360866339e-01
      2.9181755424061939e+00 8.0560826437474076e-01
      -1.5906568961700764e+00 3.3932317188311417e-01
      5.3315250756174482e-01 1.6353026777301505e+00
      1.1604903253605616e+00 -4.1836969958108972e-01
      8.7635415366229730e-01 -5.1512022997482011e-02
      1.4646346367826790e-01 1.1801412457114520e-01
      -2.6737894859990585e+00 4.1524999503411403e-01
      4.3690673277338360e-01 -2.6564905263257268e+00
      -2.2554369700742877e-01 6.9202534340640021e-01
      -1.0143073754762009e+00 9.7860344066442617e-01
      -5.2073146975364970e-01 -1.8365555415531265e+00
      2.0981421467993409e+00 -4.8535003269343741e-01
      6.6895615266903419e-01 -4.3291036132591015e-01
      5.4595643699889854e-02 -7.6211206210550420e-01
      2.4375633899265456e-01 6.3766064902411412e-01
      -4.2984682031316734e-01 -2.3802941012098555e-01
      2.1506923602526822e+00 -1.1177132544879829e+00
      1.1525513785726795e+00 -2.5772320441666519e-01
      -5.4980331428991036e-01 2.0626228603989230e-01
      -7.6901990277728094e-02 -7.9322507194897707e-01
      -1.1743728921364831e+00 3.2806125460636265e-01
      1.0735364784029371e+00 8.2436506856194358e-01
      -4.2821638255183625e-01 -1.0179996646358858e+00
      1.5593634890681414e+00 -6.0559110668273020e-01
      7.5704812984011050e-01 -1.6558100279274159e+00
      1.8523376036062309e+00 -3.3067208699383062e+00
      -2.9606862360649705e-01 6.9801626791162574e-01
      7.6446892997307725e-01 8.1270760149536414e-01
      -1.1678866895744378e+00 4.9022796831041648e-01
      -2.0589989226116265e+00 -1.2395035816118272e+00
      -3.9718399010263578e-01 -5.3531157581361066e-01
      -1.0047391204079721e+00 3.9460868771851776e-01
      8.0427660912544863e-01 1.3768759850359273e+00
      -1.0618046609186942e+00 1.6601156690764343e-01
      -1.3886499447877056e+00 -1.8043275401737704e+00
      1.1662085189551674e+00 3.9590827737997958e-01
      -4.5779372429158532e-01 -1.2155899677231696e+00
      2.8250743495026348e-01 -5.3580499211051902e-01
      -4.6137068429911876e-01 -2.8675028726406476e-01
      -1.0903733453180750e-01 -1.6188511167018778e+00
      2.5793255596472670e-01 -4.8540596655314794e-01
      1.5942614343156190e+00 9.1787778230678907e-01
      6.9874740494532003e-02 -6.2345295256179578e-01
      5.2631128399219307e-01 -5.8969143751353437e-01
      2.1283005198956240e-01 -4.7659254325324435e-01
      3.0294765719546346e-01 7.1105282227772004e-01
      -2.6049615083039331e-02 1.9603237472354693e-01
      6.1569976236795509e-01 1.1391443855243875e+00
      -1.7391323825764409e+00 6.1358312217551281e-01
      7.5172470261803714e-01 4.9716631374836789e-01
      1.2733833218507851e-01 3.7591930148868097e-01
      1.5112476177162892e+00 1.5882890582862645e+00
      -3.0644117519082625e-01 -8.9472636236816994e-01
      2.2601430125392527e-01 2.3380068245677332e+00
      1.7653021625908389e+00 5.4310543158275781e-01
      -2.2393125151955831e-01 9.6208395855717818e-02
      3.6895425204807575e-01 1.7467140468298306e+00
      -6.6969799935379803e-01 1.6316803740519212e+00
      3.3063643288735491e-02 2.0028994816215397e+00
      -3.6115012443114392e-01 -8.5958220728341850e-01
      -7.0419838424601741e-02 5.9968430498083536e-01
      3.2609192922105507e-01 7.7004812609172157e-01
      1.2307705432246184e-01 -2.9262264569989305e-01
      -7.6361109809029243e-02 2.8029030080800044e-01
      5.6191435172625404e-01 -8.4455053866661045e-01
      -2.4325068954639181e-01 -1.6569726170647849e+00
      -2.5212168747936342e-01 -3.7306115685964303e-01
      4.4138759388132937e-01 -6.6741639804235031e-01
      -9.3359467233051940e-02 -1.0593128297886617e-02
      8.6483207398095496e-01 5.2210645267893796e-01
      2.6869795661847068e-01 -9.9795697907610326e-01
      -2.2821605505805116e+00 5.5402117550445673e-01
      4.7885215100502315e-01 4.3379505144292368e-02
      -7.6392463335591576e-01 -1.8807260599506945e-01
      -1.1563156428694747e+00 -2.0769062916931782e+00
      1.3903851646128700e+00 1.2190189301647019e+00
      1.3733790156537788e+00 -1.6858674231211050e+00
      4.8081212910530541e-01 -5.4377758353468719e-01
      -2.4977382530970912e-01 -8.7195719310802389e-01
      5.8484802465556762e-01 5.4279385565552085e-01
      -2.0117882410850850e-02 -4.7383372628561848e-01
      -8.0789315259180816e-01 1.2882418120216935e-02
      1.0577600060434929e+00 -3.4385409135619971e-01
      2.9530690861726094e-01 -1.2094669385955631e-01
      -7.0700100096124219e-01 2.0494508112393874e+00
      -4.5445274961148718e-01 -1.1103102183216509e-01
      -1.2078206645902985e+00 1.9986373030906699e+00
      1.1129579096126183e+00 -1.4510886609889553e-01
      1.3125072862782921e+00 2.2350240492512582e-01
      -4.7813842136626017e-01 -5.0125323039786296e-01
      9.7194019048573999e-01 -8.1284999375724287e-01
      1.1736489940461783e+00 2.7120603785457118e+00
      -8.7576050039103334e-02 -1.9831034449047291e-01
      -1.4373502425650247e-01 -5.2877193426983737e-01
      1.8891861657461158e+00 -8.8683963211802297e-01
      -2.1658046185092242e-01 3.0043582099844784e-01
      2.7500950801105124e+00 4.4613299195304428e-02
      9.8766867296199157e-01 -6.6862483310432264e-01
      -2.2677046404871165e-01 -2.3738845066561684e-01
      -1.2415119097965843e+00 5.0973341992588767e-02
      8.9839073823535925e-02 1.4311234190564720e-01
      -5.0460013692227801e-01 1.0178083909905591e+00
      -4.4687646623641103e-01 7.7195929497266280e-01
      7.9967772261222252e-03 8.4764444488603874e-01
      -1.4386055944333971e+00 -3.7281961800409441e-01
      1.0400541537717485e+00 2.9767366323016897e-01
      8.0058213918696541e-01 -1.6404769210776051e+00
      1.0456554521210517e+00 -9.2011053178200974e-01
      -1.3861379247733183e-01 1.5990718146098319e+00
      -1.4678607031996855e+00 1.0285863102785211e+00
      7.0047459825505565e-01 -2.2733734028225921e-01
      -1.8368724805631742e+00 -5.7631893133602112e-02
      -2.0194821421876381e+00 5.7857946404980698e-01
      1.1713442405934628e-01 -5.9265988795944125e-01
      -1.1977151914138786e+00 -2.3127225030867726e+00
      5.7381807000034724e-01 1.4286285762289788e+00
      1.4648077021903816e+00 2.8473753055084139e-01
      1.7462939676721168e+00 -2.5262224209703903e+00
      -1.3395880533990172e+00 1.5084695867535933e-01
      -9.4086356929084958e-01 2.0851672858932262e+00
      6.1716541745700859e-01 1.6400081725233908e+00
      -6.3533682980192463e-01 7.2413129708728274e-01
      -1.2637994475469896e+00 -1.8163067206108170e+00
      9.3167537069467055e-01 -5.7815049035713406e-01
      -2.3663986407569745e-01 2.1338724674202744e-01
      5.3591236800442787e-01 -8.3854785866651382e-01
      -2.8465063636468302e+00 -4.8473334636220788e-01
      9.2338962542040781e-01 -6.4268048326276062e-01
      1.2445509565518096e+00 -1.4981490290652966e+00
      -2.5809410985636133e-01 3.5201094043652603e-01
      -5.9481991709880729e-02 -1.2595087941457961e+00
      5.4931926716279222e-01 -1.7272612001474492e+00
      -1.7204882957857246e+00 -1.2526612025839472e+00
      1.0410034160819983e+00 -7.9138522247755605e-01
      4.0651125989120257e-01 -1.7843776371691884e+00
      9.0079604842331451e-01 3.8517030395726504e-01
      6.0035394494901737e-02 -4.9645727681168345e-01
      -3.6384553865343877e-01 -2.0772862980459494e-01
      1.6157434270896125e+00 1.4116799346802372e-01
      2.9992602578508770e-01 -3.1538727730091547e+00
      -9.3365906027171897e-01 1.9197278715525798e+00
      -1.0690300065111507e+00 -2.1605087796891820e-01
      -7.0631552570000755e-01 1.2658502857699919e-01
      7.3070034262058359e-01 4.6267583607841956e-01
      -4.6540843245613989e-01 3.4023778645218739e-01
      -1.5544111206220976e+00 -7.5083489789781332e-01
      -3.8831444719559549e-01 2.0117370251774163e+00
      -1.1501266008284956e+00 1.2236230033126922e+00
      5.3753440482283799e-01 -1.2913802007761614e+00
      -9.7652526495909586e-01 1.3685546767767079e-01
      7.4048087660391915e-01 -3.4018655791642444e-01
      -2.5652353178888382e-01 4.0218888224183852e-01
      -5.6518071563560424e-01 -8.4971888195252965e-01
      1.3502257504144665e-02 -3.5228170220622146e-01
      -1.0570676238326002e+00 -4.8768680993888047e-01
      -3.4557582201464554e-01 7.9131814303677372e-01
      2.7392823981324293e-02 -1.4852063969568761e+00
      2.8234682548026644e+00 1.8002285205355031e-02
      -9.4253421677119631e-01 5.8778841424205330e-01
      1.4469164000498139e-01 1.2514637723762145e+00
      9.4042906844842722e-01 8.9325626260072488e-01
      -7.7901858695405157e-01 -2.5381291391006666e-01
      -1.4906916021570398e+00 3.9200391938199303e-01
      -1.2828649286590075e+00 1.1714232527571615e-01
      -7.7359226067722153e-01 4.0057665926511504e-01
      7.1415692958347043e-01 -3.0533554555594629e+00
      2.3069657425798780e+00 -4.7479130965145111e-01
      -3.5632967292686729e-01 -2.4934892088365096e-01
      1.4352818366171189e+00 -5.7752729864531815e-01
      -1.7298828690841153e-01 -1.8399157174431178e+00
      -4.1409143005310700e-01 -1.1410050571493364e+00
      8.2282516998005384e-01 9.7707495358985541e-02
      -4.1053464928484146e-01 1.8832798125040131e+00
      2.3712017647496700e-01 -9.5523195842931252e-01
      1.2038777262664213e+00 3.5478226696314430e-01
      -2.6870762604435536e+00 -1.0486066193731518e+00
      1.4676846357541562e+00 2.5465725937164976e+00
      -7.0045657788571733e-02 -6.7276241100669454e-01
      -1.5679067264195898e+00 -1.0623201577718138e+00
      3.3273546673514248e-01 -9.4813511858329413e-01
      1.5385261267512769e+00 -6.0915053700985711e-01
      -2.5377361770605045e-01 8.6942009817275268e-01
      6.9632318968201068e-01 -3.3568248101981524e-01
      1.2902704509244074e+00 1.2866935490869926e+00
      1.5668817621553619e+00 -1.6719680993452972e+00
      -1.7685548205382526e+00 -2.1990288325458471e-01
      -9.5693776873542513e-01 1.3694550023954462e+00
      3.7094685129010146e-01 1.0654006211799698e+00
      7.8542870901793205e-01 7.5392323051496724e-01
      -2.2723607808535982e+00 1.9567891087086500e-01
      -1.3457943344719665e+00 3.3167040652495117e-01
      -5.0897391513734547e-01 -1.0030768861424731e-01
      3.9506712123586940e-01 3.0286900915658915e-02
      -6.8781236341062324e-01 5.5656182623966655e-01
      1.1789314422918600e+00 4.3644341175935619e-01
      -1.3046782811264896e+00 1.3002594632282258e+00
      4.4273936387745522e-01 -1.1447048640323434e+00
      1.0685103738473913e+00 -4.7618378271683370e-01
      -2.9794922353772174e-01 -9.1005783834732812e-01
      1.6033040195683324e+00 -4.3247328436634042e-01
      8.0922698112857538e-01 3.8824474853776764e-01
      -5.6220623472986253e-01 -7.2004317342791924e-01
      1.4649256544263632e-02 -1.0775551700065438e+00
      -9.8506494759921581e-01 -1.6172267615221303e+00
      -9.2558375229687218e-01 1.9483119825882969e-01
      -9.3891145967846046e-01 1.4001526346150932e+00
      2.9828613298654888e-01 1.8061063118266854e+00
      3.4940253873319005e-01 -2.5936388883555548e+00
      -1.5235746336263905e+00 4.3825278408160684e-01
      3.2342096426930134e-01 -4.4292989047048115e-01
      2.5909034939862452e-01 -1.0827142493065571e+00
      7.1750366866656340e-02 1.4094153017585592e-01
      4.1418313620400227e-01 1.1089464426594418e+00
      3.5045712390189354e-01 3.6374931208647876e-01
      8.7335398901782449e-02 5.1273227460974313e-01
      7.9296943770693018e-01 -6.1619817062228066e-01
      1.0362419631138586e+00 -2.3814722027002991e-01
      -3.1704941786172730e-01 6.6749233154329790e-02
      -6.3891560424376714e-01 -8.7388483752524809e-02
      -9.2969325522978663e-01 4.1401887921049657e-01
      9.0603552327766479e-01 1.8848073017791001e-01
      -1.6643250239158930e-01 -1.7348847438218351e-01
      -2.9206075109550911e-01 1.1770578471967132e+00
      -4.8874062628270454e-01 1.9616186018423343e+00
      -6.6533883880927946e-01 1.5125924854600947e-01
      3.9152470881146634e-01 6.7746471243760853e-01
      1.3948435885162036e-01 -2.2531253690254269e+00
      3.0657016588976022e-01 2.2340993510056935e+00
      1.4277263885194624e-01 -9.0687014354487339e-01
      5.9731671570224321e-01 -5.1824622809386234e-01
      -1.3829851731807452e+00 3.8872965271703203e-01
      6.2557490180684805e-01 6.9258264887040666e-01
      -2.6964021073180328e-01 -1.0990234721509948e+00
      -1.5128719137913265e+00 -4.8242540884901469e-01
      -6.5033987649185121e-01 1.3034966791307865e+00
      1.1457681504833875e-01 7.6400422854063954e-02
      -1.1363031318074155e+00 -7.0031050171996984e-02
      9.2136907414190938e-01 -1.9254569964691159e-02
      1.3483940209665898e-01 7.9576845048749012e-01
      2.5718003889833918e-01 4.0930226533288810e-01
      -1.3684070974425302e+00 1.3530416135218681e-01
      -5.7457282779242236e-01 5.3827333115542841e-01
      -1.1810490215995166e-01 1.5047863457698378e+00
      1.0924008805353858e+00 1.1737281290196422e+00
      5.6710027001168417e-01 1.6142255053530425e+00
      6.6700971028822209e-01 -1.6986073503284776e-01
      1.2485359009509491e+00 3.8724994528135293e-01
      2.2076426498938391e+00 1.9741773725542775e+00
      -9.5688867490464946e-01 -2.6018328412468041e+00
      -7.6591687595649771e-01 -7.6226520276961229e-01
      5.1754916138874285e-01 6.2424742491990837e-01
      -2.5187452473376765e-01 -6.4855368887777676e-01
      -5.2400227663621302e-01 -3.2140994080377283e-01
      -8.1403926784047176e-01 1.8478948461833852e-01
      6.2538193173794199e-01 -4.3804396545459442e-03
      2.1271217953224273e+00 3.0958095854609213e-01
      -8.9294223477701651e-01 3.0278788244187982e-01
      -6.0195810553914042e-01 1.2638414460859382e+00
      -4.5330359454771701e-01 -1.2837594784571169e+00
      6.4994008672630971e-02 -2.7680769786503343e+00
      -7.9290471094854786e-01 3.4376721466894256e-01
      2.1369948744408744e+00 -4.9565057981569438e-01
      2.7619671981446825e-01 1.2295043552266038e+00
      -2.5582625938977377e-01 -4.8808025569793517e-01
      -1.3685927594444374e+00 4.4874177845019947e-01
      -1.0850992815515308e+00 -3.5460799371550850e-01
      -3.8814900825471038e-01 1.1347857842808478e+00
      -1.1923859846423115e+00 -1.2332205244081722e+00
      -1.2028320859568997e+00 3.3677533807136850e-01
      -1.0364932577772152e+00 -1.3229899610370686e+00
      8.6957130180091302e-01 5.5367060656519329e-01
      7.0401596253669563e-01 -1.4238682950473189e+00
      -8.0316234112818088e-02 -1.9971370474346517e+00
      -9.6864635089480844e-01 1.9104432420969888e+00
      2.4956119323775647e-02 1.5553957165584467e+00
      -4.6953153570776990e-01 8.4765600492789006e-01
      -1.7365460523662843e-01 4.1114689408495020e-01
      -3.1711742162607603e-01 -4.1661499865395979e-01
      8.4467067218827185e-01 4.4052214597161321e-01
      -1.0662153833323615e-01 2.5210539092863254e-01
      7.4491155672525999e-01 3.5858229768053085e-01
      1.0007269797040013e+00 1.0902177378320779e+00
      -7.7665854621040065e-01 -2.3168432790308330e-01
      -7.3067014019338461e-01 6.3303087312621864e-01
      -7.2901597138455931e-01 5.5267719437005902e-01
      2.4543187276517633e-01 3.8316684283574537e-01
      8.1413783214589530e-02 8.2860780145431490e-01
      -3.2747264300507550e-01 4.7997790897248421e-01
      -1.0372564762528862e+00 9.7732512649244030e-01
      5.9039644092316912e-01 -1.2431276015439426e-01
      5.2029023444856470e-01 -4.6128664272596487e-02
      2.4476067398024365e-01 -1.2766706138761968e-01
      1.0057772562701524e+00 -2.2834601821433149e+00
      4.3302150166048736e-01 -9.9378478006295401e-01
      1.1621705890520517e+00 8.5700740876704717e-01
      4.7253183602718171e-02 -4.4569867361804250e-01
      -1.3682561590230088e-01 8.4173728120289615e-01
      1.3767926553015300e-02 1.1584168340349221e+00
      -5.9518632160338669e-01 5.7478068364880430e-01
      -1.6948972012362136e+00 -1.5856063022244473e-03
      -6.2598410881383293e-01 6.4241433508927293e-01
      8.3991750952987521e-01 2.0390960210381857e+00
      2.5024530743530575e+00 -4.9744765686005575e-02
      5.4943849311150517e-01 -2.4873154769092944e+00
      9.7923523746773600e-01 -2.1511906954230593e+00
      -2.9939422442692493e-01 -1.7419497528105443e-01
      3.8029724564683515e-01 6.1804807842803722e-01
      6.5933315252214228e-02 -8.5340988118171879e-01
      -1.0530765375790978e+00 2.0653881439681240e-01
      -4.6713337732975446e-01 2.1231190944486760e-03
      -4.1076912888607275e-01 1.1137205969527733e+00
      1.1495421142943159e-01 6.3384739293801551e-01
      -6.4502125039973546e-01 -1.7177994409350955e-01
      2.1458664248234922e+00 -2.5111806445475710e-01
      5.8267059170424051e-01 -3.5626460847985097e-01
      -1.5882623677363754e-02 -1.5215392515834139e+00
      -2.0188169389067236e+00 8.4687718619048846e-01
      -4.7497224616071776e-01 -6.9447652076321342e-01
      -5.6253052303957174e-01 -3.8630684660325110e-01
      5.2792001902037522e-01 -1.1063468943730237e+00
      -6.8636024843921339e-02 1.2112097366300658e+00
      -5.1489356082942450e-01 1.1086054827391358e+00
      -5.5458187954478788e-01 -9.4053507385445739e-02
      -1.0756877424048127e-01 7.5275335834748791e-01
      1.7197581260085939e+00 -4.1469138381945664e-01
      -1.3995923890824905e-01 -3.4999395875683492e-01
      -6.8875733851474463e-01 1.8434554673134613e+00
      -4.7244956588383513e-01 -1.3761086233624520e+00
      -7.5070914079297735e-01 -4.7518369152922790e-01
      5.6854863942533007e-01 7.8740216030676791e-01
      -1.8038008259350274e-01 -1.9133969379860624e-01
      -1.4489771578070505e+00 -3.1386793428851606e-01
      5.8226416206741605e-01 -4.9680451392698932e-01
      5.2684233667025337e-01 -4.5345410725703306e-02
      3.5537925803318360e-01 4.6825118422043160e-01
      -9.0893422967597659e-01 1.0682519955702092e+00
      8.1788257938229869e-01 1.8115850287130091e+00
      2.4802331713089834e-01 1.5371510255705516e+00
      6.4480783037920819e-01 8.8701239858261360e-01
      1.2424765304734134e-01 -3.1161965919544272e+00
      -4.7047560438344592e-02 -6.5137672990312123e-01
      -4.0747960275164269e-01 1.6118509546894522e-01
      1.9085225125546360e-01 -2.5665989972675068e-01
      3.0519286954764624e-01 2.6216456464215315e-01
      -3.1687922913393779e-01 -9.9771765069301477e-01
      5.0884665260508533e-01 -4.9584217624241506e-01
      -2.6024072063479270e-01 1.8042432934827117e+00
      -6.0462147909676878e-01 -7.7568920445472311e-01
      6.7882468342735625e-01 3.5347986021077510e-01
      -4.6905414148505931e-01 6.9927640656159629e-01
      1.2701492897879232e-01 -6.2133476713589975e-01
      -6.5415892490838057e-01 -1.1188131182130036e-01
      2.4965039667792260e-01 -7.1645060287696527e-01
      1.5750272340902574e+00 -1.4152354760506343e+00
      2.0697584533765767e-01 3.0002596374928631e-01
      4.7299099380707221e-01 8.5580480330149711e-01
      6.8316531530771485e-01 1.5101705119592765e+00
      -2.2376706104156149e-01 -2.3272541818476589e-01
      -1.1647904285841124e+00 3.6234330497062406e-01
      -6.2347784493291791e-01 -1.5343923754700597e-01
      3.4584795321856338e-01 -2.6645913815965083e-01
      -6.2942903793131766e-01 -5.4138617006753798e-01
      -1.2741838641538331e-01 -6.8325279491669311e-01
      -1.3835564241061717e+00 -2.1480677022502631e-01
      2.3518416395197769e-01 6.7233293745352496e-01
      6.1414294138017855e-01 -5.3076071461781960e-01
      3.1625029722217168e-01 1.6584634250825334e-01
      1.0074522302762864e-01 1.6633621117006203e-01
      2.5287814545382897e-01 -1.0770877349643211e+00
      7.5998015248194373e-01 4.8474231189371353e-01
      -1.0373710238442668e+00 -1.0778626434981455e+00
      -4.5557752998131379e-01 9.9210039991725218e-01
      1.7317653428931756e-01 3.0755393792377611e-01
      1.0464199183043357e+00 5.0733350229238583e-01
      9.8014909218336299e-01 4.4049546097050402e-01
      -1.3972293837630381e+00 -8.0292592111911931e-01
      1.0280247307205079e+00 5.3658988131322383e-01
      6.4213933695281988e-01 2.0670801010968445e-01
      -1.2851718410447510e-01 4.3966512559085613e-01
      -8.2333845526742466e-01 1.9024844191105592e+00
      -2.0243182878908342e-01 1.9900297928323868e-01
      -1.0338698283109703e-02 4.2706629828447334e-01
      4.4533731778018087e-01 4.3514649345272355e-01
      5.0196651809948378e-01 -9.9066994961731836e-01
      6.1496017661195357e-01 -1.1380363955214279e+00
      4.3257134488972820e-01 -1.0279867931975197e+00
      2.0903046788893045e-01 -1.3694087089884428e+00
      6.8204023049521578e-01 1.8916133840170550e+00
      -1.4749371197656149e+00 2.2175748220261468e-01
      -2.1966040771102990e-01 -7.1674467890935645e-01
      -5.6318055380107368e-01 -1.5297692925151494e+00
      -8.1614329218812165e-01 9.5072987818036758e-01
      -1.7012442722730836e-01 1.6317812565197032e+00
      -4.2036237357275613e-01 1.6333376622360465e-01
      -5.9349919096438264e-01 1.3324862038383234e+00
      -1.0377331282378002e+00 -1.1828927069789681e+00
      -6.0821325013300587e-01 1.8414083597350475e+00
      -1.8424093636067337e-01 4.2372249356555308e-01
      1.5349060098576689e-01 5.1282741852472580e-01
      1.3913094513292039e+00 2.7787403003658961e-01
      2.5157956960312094e-01 -5.1332390910264525e-01
      2.0935686942906533e+00 -2.0744586481127922e+00
      3.1128468225789335e-01 -4.6453723127717439e-01
      1.0830736902765132e+00 -5.4676843566419786e-01
      6.7572404585487439e-02 8.3537270560770260e-02
      -9.8660344712617609e-01 3.5778106861247194e-01
      1.0369172200348686e+00 -1.0646085109464043e+00
      8.9939761268997531e-01 -5.2796035265241514e-01
      6.2004253729670979e-02 3.0492168673076595e-02
      -7.4317443417895879e-01 -1.1014658552276924e+00
      1.1065647547557806e+00 8.6350369316399844e-01
      -3.0283545494328767e-01 4.3820428069649214e-01
      6.0453674442723204e-01 -3.0501923214487131e-01
      4.7614965246666169e-01 5.0380540384257599e-01
      -8.6919623630356024e-01 4.4787997410886027e-01
      5.8040530907471177e-01 1.3725175830249006e+00
      -8.2879345202379118e-01 -1.4012704692148695e-01
      1.0407316427736157e+00 -1.0882328121155938e+00
      -2.6879202907355670e-01 3.6914025424101082e-01
      -1.2687070484633050e+00 1.0026443251444266e+00
      -1.2102864625652843e+00 -7.3073599790568100e-02
      -2.0976169267262601e+00 1.7677736016163248e-01
      6.7786873598859598e-01 3.5218423050182566e-03
      9.6995855537016129e-01 5.3573227584247451e-01
      -3.3730710250337775e-01 2.1059987403675788e+00
      3.6560672502189237e-02 9.9714897737563435e-01
      1.4865881687496330e+00 -1.7787547235319727e+00
      2.0225287064623831e+00 -3.8724565938822703e-01
      1.2832011661402403e+00 -1.0107385742419084e+00
      -9.0831240588851392e-02 5.4764300952127154e-01
      -7.1376053627665903e-01 -8.3211932159134516e-01
      -5.7485653136239678e-01 -1.4477016358699069e+00
      -8.3253407589469086e-01 4.9215554728171856e-01
      -9.9245434333468197e-01 -2.3862424746984301e-01
      1.1993836552100305e+00 9.0975294781090388e-01
      -1.3371824947006353e-01 1.9431822610421809e-01
      -5.4264870731551695e-01 -1.0361347345980652e+00
      2.0282647983270836e+00 1.5957611924505102e+00
      -3.8204121131120333e-01 2.3453481284260283e-01
      -9.0554757048737300e-01 -4.1757195931721315e-02
      -1.3972390896972147e+00 -6.6435889722934138e-01
      -5.5232487719099985e-02 -1.8708949111323755e-02
      -4.6237149504671604e-01 -5.5192462565164191e-01
      -3.0579686687648350e-01 -5.7738782677163314e-01
      -7.0563462043951065e-04 -3.2848229440648752e-01
      6.7316732418955205e-01 6.2657720967420394e-01
      -1.2087670603765757e+00 -7.5614245914345624e-01
      8.1610177395272832e-01 7.2590133272234036e-01
      1.0986165872351002e-01 -9.3909624188560659e-01
      -8.1382118703558048e-01 3.5019354297964517e-01
      1.2451245478699142e+00 -3.7162126353623798e-01
      -6.8874752717966403e-01 8.4015595707727175e-01
      -1.8829856566798198e-01 1.9081985437615245e-01
      1.1913971482710983e+00 -5.1930546279251488e-01
      -5.0469530977054278e-01 -5.8258282731379551e-01
      1.4985312190219849e-01 3.9863409970623825e-01
      -3.1842648313923488e-01 -1.1795216830363584e+00
      -6.9912626060544769e-01 -2.6919794977638717e-01
      -3.8603004704090993e-01 -7.7435577879050566e-01
      2.3427632295075415e-01 5.6758419873101026e-02
      6.5495704232688934e-01 1.7259642734522902e+00
      -6.0145704223702778e-01 1.2548368031916743e-01
      -7.0658516235598712e-01 7.4811670717997525e-01
      -4.9905782400254872e-01 1.8688386734096776e+00
      -3.9923186250367998e-01 -2.0922639423602879e-01
      -3.8980946896361296e-01 4.7421201184346912e-01
      -2.2054753479501002e-01 -7.4772552019451155e-01
      -1.1962149563630118e+00 -1.2467316725219467e-01
      1.9463069719286679e+00 -1.1508893868031718e+00
      8.8527546034634264e-01 6.2646171549819163e-02
      -6.6649736762649914e-01 6.4719208227299452e-01
      6.1771831745779460e-01 -2.9077826067180707e-01
      1.8923324611840420e-01 -2.6380559724573038e-01
      -8.7402149412830610e-01 2.0844453359333741e+00
      -4.8030221837307946e-01 3.2379836739509305e-01
      -3.1118982725370814e-01 8.0508098395448827e-02
      -5.4956524084717429e-01 3.5979344335066948e-01
      -8.4588812709270911e-01 -5.2472615948579626e-01
      -5.6524952643727555e-01 6.0683933292642178e-01
      -6.6050899154903775e-01 1.2507172391930834e+00
      -8.8569255872430930e-01 -7.3228420121184923e-01
      5.2181039215400016e-01 7.6568141133869994e-01
      3.8711282504972894e-01 9.0237307720138460e-01
      -2.2513526588537847e+00 -4.0772686533234775e-01
      8.9654721210954569e-01 6.9553921471654356e-01
      9.4960994924446274e-01 -5.9113506838030871e-01
      1.5614990254400085e+00 5.5707686411159321e-02
      -1.0736001312186501e-01 2.1095634134904154e-01
      -3.7303567009625188e-01 6.0859853278056009e-01
      5.3836591614266771e-01 -4.0062964167348997e-01
      -5.0640348648625455e-01 -2.2950063932562119e+00
      4.9305623333518200e-01 -7.1491192484308441e-01
      3.4825184267780618e-01 -1.3972248764789055e+00
      -1.1256467471236797e-02 -6.9932214857484398e-01
      -1.0798351599032368e+00 -7.1799274764746857e-01
      -8.7598223077430037e-01 8.9356759121203022e-01
      -8.4797215496341527e-01 -8.9894446198600264e-01
      -4.4156925810024304e-02 1.0594417383685026e+00
      2.8594608700711774e-02 -1.7487617811625005e+00
      -5.4505622133835696e-02 -3.8199505976294890e-01
      1.8554105863342276e+00 -1.2374242414640131e+00
      -8.0267737966243391e-01 -3.0088064760189730e+00
      -1.4884944965380247e+00 -1.1152916015630865e+00
      -2.1392946301860443e+00 -2.3453610175425334e-02
      -1.5351885879851550e+00 -7.8765765000342636e-01
      2.1414379046701038e-01 8.6233881405035184e-02
      -1.4040185561308838e+00 2.5132786138252139e+00
      -1.0381536323779488e+00 8.0911971217886736e-01
      -2.0751506918931124e+00 9.4017347490683068e-01
      -2.0051284717799467e+00 -4.0912540331958636e-01
      1.1650668893412037e+00 -6.2907870952111877e-01
      1.2197655672759646e+00 -2.5707327245767364e+00
      -5.4739473471137812e-01 1.5491940166676110e+00
      -3.4013756728949074e-01 1.4621825341776429e+00
      -6.8913060025811435e-01 2.1737044109989938e+00
      1.4753233080969963e+00 -4.9727223604564656e-02
      5.7767611096090110e-01 -7.3188400112984026e-02
      6.7866806447627237e-01 1.3287295448945308e-01
      -7.6071713868364121e-01 4.7807699965925193e-01
      2.2909170149893421e+00 -3.0581177855386205e-01
      -4.3814126087110955e-01 -3.8089638474554138e-01
      3.3913657405855568e+00 -2.1798861792772182e+00
      -2.3218724148538644e-01 -9.1794212244773021e-01
      -3.7436101982184183e-01 1.1990011665965712e+00
      -2.3945139394256048e+00 1.0142094637918762e+00
      1.2861157950426918e+00 -1.1292966341507871e-01
      4.0125969626927854e-01 -4.4094792130717736e-02
      -1.0882591797056818e+00 1.0827249052469652e+00
      -1.4944711219145661e+00 3.3628260494371404e-01
      -9.8187683593491704e-01 -1.6152582387591224e-01
      -1.5742677481470608e+00 -4.9515424365000688e-01
      2.0314688863778807e-01 2.1788489794075039e-01
      8.2213405092665337e-01 1.3892075389772043e+00
      -3.9339534390691716e-01 5.7968550209493264e-01
      3.5220799976621403e-01 -1.5105233683308725e-01
      -9.4285362594604716e-01 1.4584650634315111e+00
      -3.2807047212419477e-01 1.1687014922302588e+00
      -6.1303813115012162e-01 3.3286172515385404e-01
      4.0461754323525617e-01 2.2064842966966012e+00
      -7.3714362989308579e-01 3.9460721425736934e-03
      6.2106109598585917e-02 1.9683886551625451e-01
      5.3539003522333950e-01 1.4952770849481031e-01
      -2.7537675838566533e-01 1.9440372626316897e+00
      -3.2343139457600373e-01 -5.8250658376387288e-01
      8.9503586890081888e-01 2.6980080806194989e-01
      -1.8056275568526143e+00 -3.3249179662764772e-01
      1.8643143956575072e+00 -1.5513585790392970e+00
      2.1026392731780392e+00 -4.8812832072838080e-01
      2.1684433440773243e+00 -1.2256643625852705e-01
      -3.4235956936484446e-01 1.0120351419429077e+00
      2.0509041964100834e+00 7.8668998730703632e-01
      2.1983862662988085e-01 3.3108010066180676e-01
      -1.2838265683939027e+00 -8.6692950690583126e-01
      -1.8817007037817655e+00 -1.7676937375665900e+00
      -3.0814241721090363e-01 1.4198275344634776e+00
      -1.9041085247249614e+00 -1.1139539384762262e-01
      2.8317576436813789e+00 -6.5903329525734922e-01
      -2.0272641711948793e+00 -5.9683552567064213e-01
      -8.4978805216554709e-01 1.9830941783592360e+00
      -1.0608923979903104e+00 -1.2006048088429271e+00
      2.9033029082387335e-01 1.4308849646741556e-01
      -9.8901866104139302e-01 -8.5309162325427623e-01
      1.1864219376945275e+00 4.7652734649230553e-02
      6.1295940771005997e-01 -2.3516752501600477e-01
      1.1788100749162349e+00 4.6638999022498251e-01
      -8.2317902624806394e-01 5.6204719153518379e-01
      -6.0972760930845804e-01 -4.0578721237586218e-01
      -5.6384367292062010e-01 1.4054978088161225e+00
      -1.5190583309213379e+00 -7.7934225573947824e-01
      7.3373403342154064e-01 6.9109960051917041e-01
      1.4886227125930893e+00 2.9349302807259364e-01
      8.7925565351453439e-01 3.2157135514828367e-01
      -5.6835812687786547e-01 -1.2081882302186597e+00
      -5.9250020184698449e-01 -5.6423102019251004e-01
      2.5858799289556217e-01 -4.8033408490155677e-01
      6.7515241667554116e-01 -7.8548299277199884e-01
      -8.4168693293099073e-01 -5.9848664469258273e-01
      1.1740114439859697e+00 4.7588257835769299e-01
      1.3359807616980693e-01 -3.0930219151873350e-01
      -4.2339827534629310e-01 -2.6211734680710397e-01
      2.4619818154335743e-01 1.3384537229215481e+00
      6.9739980989656269e-01 -5.9650411495576505e-01
      1.5105947384497862e+00 -1.6584919232413982e+00
      9.6629051769216012e-01 2.2749281572584112e+00
      1.3036252363416478e-01 -6.1675068650439169e-01
      4.1366994949989722e-01 2.0129741144518754e+00
      -4.7333347302452866e-01 6.8659663273253080e-01
      1.7082606656530195e+00 2.2181212523958346e-01
      -7.6140431313762402e-01 1.7587341452602925e-01
      -3.8159377833248493e+00 -4.1045037906188908e-01
      -8.9686271899923053e-01 1.4418852268222176e-01
      -2.1110374076444645e+00 -1.9650136519159958e+00
      1.6913210428048737e+00 -1.8549434375871385e+00
      6.8779017622578420e-01 -5.4112355409873381e-01
      -1.2712584726210518e+00 2.0917342664090019e-01
      6.6431337832156157e-01 1.9537423622862764e+00
      1.0683363284244916e+00 -4.9048380775931932e-01
      -2.3159741031946957e-01 -7.4962305080178437e-01
      -1.3019454752691744e+00 1.4039928586529196e+00
      9.6882579752431502e-02 -1.1452033885460102e+00
      -8.5977724079970408e-01 1.5199378123033449e+00
      -7.3442072289227611e-01 1.7058691450872667e+00
      -9.1796923044680512e-01 3.1494000547949219e+00
      5.7412995927250732e-01 3.6913084292490467e-01
      6.4929546778723868e-01 -8.9440908785752726e-01
      -2.6711653788007467e-01 1.9277591167607081e-02
      7.2770033987856098e-01 -1.1677150260112037e+00
      -3.4261029424838982e+00 2.2229743944147971e+00
      1.8306233588727574e+00 1.0742547968957690e+00
      -4.6475447177656287e-01 -1.2382455036638838e+00
      8.3807996707947682e-02 1.4855145789350271e-01
      1.0302567215542163e-01 1.3109966204731680e+00
      5.5657338171756732e-01 -1.4339065177818608e+00
      -1.2434680199936889e+00 8.9406936313895014e-01
      -7.5741380967199026e-02 -1.4961609687403983e+00
      -1.0929961483021131e+00 -3.5844000996898512e-01
      1.0754072559580465e-01 1.8808262739285833e+00
      -1.6988162727988430e+00 1.3976354213423434e+00
      -9.5128853474358710e-01 -1.3024659148307081e+00
      1.8775453803532500e+00 -5.7303672637950116e-02
      1.2284169652636454e-01 -1.6263417890976413e+00
      3.9651719118382223e-01 6.2373315353013059e-01
      -7.6541922558750131e-01 -8.5981380428004828e-01
      -8.4431105630861580e-01 -2.6168997468352934e-01
      2.7851297205092995e-01 -2.2707153867680735e-01
      2.1688698843087263e-02 -1.0629312755406249e-01
      4.7204411031683852e-01 1.0538987548583194e+00
      1.7844312936477727e-01 2.8850937704816504e-01
      8.0781039699507895e-01 1.0067348865966254e-01
      3.3550779888110316e-01 -7.7249544342507903e-01
      -6.4673485402870479e-01 -1.9312335599988220e-01
      3.1548520767716254e-01 -7.6045962676178747e-01
      -1.8086283964995242e+00 8.1652186411328298e-01
      -4.9322597766549015e-01 1.0613126419655419e+00
      1.3893365755319237e-01 3.5622143847935250e-01
      -4.0111448944140976e-01 -1.5257999741162248e-01
      5.9601233373990059e-01 1.8070556737030530e+00
      -5.8165549340230815e-01 7.7674026720895095e-01
      -2.8513811367786190e-01 -4.2566601322690822e-01
      8.6557662019048354e-01 1.0285707104631161e+00
      6.1485010671183771e-01 -5.6502117595791712e-01
      -5.9274287175374918e-01 7.5848072161684454e-01
      6.8294115808632672e-01 -1.3695497919967621e+00
      6.2224294585454820e-01 -6.1298469828050584e-01
      5.2821148278969154e-01 -3.7598753681272473e-01
      5.8285041154883399e-01 -6.3842696526926090e-01
      4.1694988810134476e-02 6.8348579737885717e-01
      4.0205439050732256e-01 2.2579132772195925e+00
      -6.5154525776585615e-01 -1.3949433973027986e-01
      7.0559814916523877e-01 -1.6995532386036181e+00
      2.7959039240680844e-01 3.5946898057448223e-01
      -1.5344334398155060e+00 -1.5887177194701614e+00
      1.4558130124935198e+00 2.1078505843847362e-01
      -3.1607409803669939e-01 8.9519115415532147e-01
      1.8389892785764856e+00 -7.5496826104443282e-01
      2.6645115785718693e-01 -6.3549822227965003e-01
      -1.3449064460054869e-01 1.4361199328497369e+00
      -2.0875589056867289e-01 -1.5628622885054208e-01
      -4.0558651894986747e-01 1.9025619870247856e-01
      2.1451054095470830e+00 2.0689713030304739e+00
      -6.6593588736968756e-01 1.1948139752247329e+00
      -4.9366565952419511e-01 -1.2135221550427093e+00
      -7.5272277666560372e-01 -1.3075258609306064e+00
      -3.0676721985208044e-01 -2.8151326842254987e+00
      4.6064755135699931e-01 -1.4708762790672472e+00
      1.2444745926977061e+00 -6.8171167876343350e-02
      8.8896114508124213e-01 -2.2566194728426914e+00
      -2.0041512929940706e+00 1.1515232100084465e+00
      3.9100302805842396e-02 -1.8012441655887937e-01
      -3.3513551660870655e-01 -2.8841302415458897e-01
      -2.2306570959991098e-01 7.9451523409276359e-01
      5.8432570057862622e-03 -2.6492960543922939e-01
      2.1103249220428566e-01 1.8302858853064381e+00
      -1.0378637754773366e-01 7.2617045917535750e-01
      1.7939352925006851e+00 -1.3368659590730165e+00
      -1.9191835883530243e-02 -9.8252610369060889e-01
      -1.9525484636624965e-01 -1.5086651141162124e+00
      -1.5244746214877063e+00 -1.5351741477639440e+00
      2.6348649794463080e-02 -8.8386366713349174e-01
      -2.8796432918910306e+00 -2.2073802240861634e-01
      1.5490852241502322e+00 -1.6737108964700023e+00
      6.4560851975645972e-01 1.1753092955094509e-01
      -1.1630311187808167e+00 -8.2736457745837999e-01
      -4.9868665684498276e-01 -1.1646832018056903e+00
      -8.7331225476397245e-01 -7.3818860522809593e-01
      -1.2839720005696742e+00 1.1221486587076157e+00
      1.8319021627741625e+00 5.1732282491414516e-01
      -1.1778116073905005e+00 -1.0039397536736185e+00
      1.3083378456374331e+00 -5.9046526010827283e-01
